#ifdef INCLUDE_UPROJ_SVM

#ifndef INC_SVM_PRECALC_H
#define INC_SVM_PRECALC_H

#include "svm.h"

#define NUMSUPPORTVECTORS 653
#define VECTORLENGTH 2
#define PERIOD 1
#define NUMSENSORS 8 // may reduce this later
#define OFFSET -0.99120898
#define GAMMA 1.00000000

float sensor_means[NUMSENSORS] = {1188.761832, 0.067318, -6869.650412, -1988.523844, -1603.520975, -44.196576, 352.060506, -51.523754, };
float sensor_scales[NUMSENSORS] = {296.07916905, 132.99195204, 4176.47727928, 2339.91903283, 1662.33232801, 1572.72057236, 1308.01761715, 4736.11106897, };
float weights[NUMSUPPORTVECTORS] = {
-0.00595005, -0.00757105, -0.00488161, -7.00000000, -0.00683875, -0.00177650, 
 		-7.00000000, -0.00737489, -0.00433391, -0.00132611, -0.00869027, -0.00455371, 
 		-5.57012207, -7.00000000, -0.00875163, -0.00867725, -7.00000000, -0.00760314, 
 		-0.00645612, -0.00555836, -0.00081005, -0.00757927, -7.00000000, -0.00820360, 
 		-0.00127954, -0.00723674, -0.00731513, -0.00862310, -0.00702815, -0.00584828, 
 		-0.00219352, -0.00346830, -0.00091916, -0.00261434, -7.00000000, -0.00078923, 
 		-0.00822132, -0.00811185, -7.00000000, -0.00670559, -0.00724311, -0.00669781, 
 		-0.00727165, -0.00629215, -0.00359723, -0.00727503, -7.00000000, -0.00828593, 
 		-0.00589576, -0.00816387, -0.00884103, -0.00298537, -0.00808266, -7.00000000, 
 		-0.00180118, -0.00839137, -0.00644822, -0.00891118, -7.00000000, -0.00353355, 
 		-0.00110699, -0.00291132, -0.12877725, -0.00108908, -0.00927143, -0.00786128, 
 		-0.00356135, -0.00741429, -0.00665471, -0.00406948, -0.00840630, -0.00510278, 
 		-0.20830121, -0.00733795, -0.00856803, -0.00360366, -0.00473378, -0.00426712, 
 		-7.00000000, -1.37916142, -0.00840828, -0.00340025, -0.00435172, -0.00441822, 
 		-0.00203058, -0.00361674, -0.00817006, -0.00845388, -0.00884257, -0.00293067, 
 		-7.00000000, -0.00684972, -0.00432293, -0.00433504, -0.00591259, -0.00760363, 
 		-1.66771839, -0.00404250, -0.00635918, -0.00312988, -0.00500160, -7.00000000, 
 		-0.00096276, -7.00000000, -0.00570637, -0.00860569, -7.00000000, -0.00399293, 
 		-0.00808658, -0.00160340, -0.00799773, -0.00885471, -0.00544783, -0.00145469, 
 		-0.00791783, -7.00000000, -0.00063273, -1.79346933, -0.00388940, -0.00532201, 
 		-0.00430033, -0.00378763, -0.00259504, -5.80681787, -0.00198455, -5.06282007, 
 		-7.00000000, -0.00339770, -0.00873758, -6.41140401, -0.00485445, -0.00849436, 
 		-0.00370700, -0.00328722, -0.00293450, -0.00813808, -0.00154035, -0.00767257, 
 		-2.67566975, -0.00585272, -0.00582908, -7.00000000, -0.00409973, -0.00673141, 
 		-0.19029849, -0.00499578, -0.00095779, -0.00377548, -0.00503124, -0.00443040, 
 		-0.00691616, -0.77283918, -7.00000000, -0.00656630, -0.00714902, -0.00710228, 
 		-0.00142607, -0.00481023, -0.00142188, -0.00459745, -0.00216254, -7.00000000, 
 		-0.00717196, -0.00497181, -0.00553327, -0.00341846, -0.00670425, -0.00470417, 
 		-0.00439043, -0.00774745, -0.00170308, -0.00198914, -7.00000000, -0.00822434, 
 		-0.00612610, -0.00340626, -0.00306401, -0.00797190, -0.00786124, -0.00386392, 
 		-0.00869218, -0.00489861, -0.00402892, -0.00227511, -0.39085300, -0.00598006, 
 		-0.00307154, -0.00642021, -7.00000000, -0.00586369, -0.00773406, -7.00000000, 
 		-0.00809635, -0.00733848, -0.00191099, -0.00650323, -0.00649696, -0.00293105, 
 		-0.00571024, -0.71638351, -0.00503272, -7.00000000, -0.00692957, -7.00000000, 
 		-0.00521407, -0.00204659, -0.00562672, -0.00751219, -0.00533797, -0.00097639, 
 		-0.00204012, -0.00705039, -0.00723180, -0.00403066, -0.00223388, -0.00768977, 
 		-0.00791771, -1.29808326, -0.00443609, -0.00843603, -0.00798477, -0.00338224, 
 		-7.00000000, -0.00446732, -0.00634210, -0.00500973, -0.00666173, -3.50368133, 
 		-0.40657117, -0.00196510, -0.00706000, -1.52248461, -0.00456059, -7.00000000, 
 		-0.00275592, -0.00749696, -0.00762704, -0.00196646, -0.00483843, -0.00700610, 
 		-0.00453915, -0.00853807, -0.00415338, -7.00000000, -0.00362397, -0.00565543, 
 		-0.00823928, -0.00823253, -5.31909775, -0.00667742, -0.00807971, -7.00000000, 
 		-0.00898119, -0.00785222, -4.70953699, -7.00000000, -3.00390421, -0.00096440, 
 		-0.00360659, -0.00653239, -0.00331975, -0.00231494, -0.00272491, -0.00398293, 
 		-7.00000000, -0.00880964, -0.00569936, -0.00245331, -0.00827577, -0.00374440, 
 		-0.00851625, -0.00406428, -7.00000000, -0.00666160, -0.00567810, -0.00137813, 
 		-0.00581999, -0.00862942, -7.00000000, -0.00548479, -0.00322298, -0.00248588, 
 		-4.70022568, -0.00113303, -0.00590164, -7.00000000, -0.00450826, -0.00533603, 
 		-0.00769440, -7.00000000, -0.00248400, -0.00278014, -0.00891384, -0.00225799, 
 		-0.00471355, -0.00554991, -0.00475622, -0.00645023, -0.00783334, -0.00840044, 
 		-0.00677371, -1.10958195, -0.00696906, -0.00399423, -7.00000000, -0.00309818, 
 		-7.00000000, -0.00182827, -0.00521599, -0.00738302, -0.00780812, -0.00571384, 
 		-0.00762463, -0.00566758, -0.00154953, -0.00713238, -0.00836139, -0.00390699, 
 		-0.00704942, -0.00412601, -0.00310318, -0.00233454, -0.00173784, -0.00524177, 
 		-0.00320903, -0.00577433, -0.00803972, -7.00000000, -7.00000000, -0.00753722, 
 		-0.00869552, -0.00301398, -0.00455014, -0.00244114, -0.00579947, -0.00444791, 
 		-0.00377041, -0.77276467, -0.00831329, -0.00503660, -0.00810991, -0.00390898, 
 		-0.00687227, -0.00655357, -0.00512505, -0.00610912, -3.22577722, -0.00768078, 
 		-0.00247309, -0.00809297, -7.00000000, -0.00829352, -0.00453691, -0.00198338, 
 		-0.00193501, -4.41897878, -7.00000000, -0.00631072, -0.00207669, -0.00497756, 
 		-7.00000000, -0.00519799, -0.00524939, -0.00438529, -0.00634147, -0.00859465, 
 		-0.00464846, -0.00272574, -0.00449290, -0.00587647, -0.00493472, -0.00282097, 
 		-0.00551179, -0.00278908, -0.00878312, -0.00477120, -0.00119280, -0.00883019, 
 		-7.00000000, -4.23562419, -7.00000000, -0.00708778, -0.00814898, -0.00689668, 
 		-0.00648488, -0.00282909, -0.00521592, -5.41381850, -0.00858181, -0.00104674, 
 		-0.00623172, -0.00312169, -0.00158166, -0.00154508, -0.00473387, -0.00629939, 
 		-0.00645157, -0.00387715, -0.00305208, -0.00552263, -0.00728910, -0.00460516, 
 		-0.00857198, -7.00000000, -7.00000000, -0.00846326, -0.00692151, -3.31793896, 
 		-0.00383862, -7.00000000, -0.00659670, -0.00242968, -0.00630321, -0.00552972, 
 		-0.00810864, -0.00381628, -0.00662041, -0.00596492, -0.00572596, -0.00053512, 
 		-0.00622855, -0.00144864, -7.00000000, -0.00805671, -0.00709230, -0.00406515, 
 		-4.78289225, -0.00705634, -0.00880544, -0.00883428, -0.00441229, -7.00000000, 
 		-0.00608596, -0.00684983, -0.00316520, -0.00795877, -0.00231186, -0.00492486, 
 		-7.00000000, -0.00550108, -0.00628480, -0.00666250, -6.47918717, -0.00262836, 
 		-0.00787191, -0.69428055, -0.00219542, -0.00836142, -7.00000000, -0.00712080, 
 		-0.00583241, -0.00552199, -4.19209367, -0.00357101, -0.00600055, -0.00091443, 
 		-0.00409876, -0.00465648, -0.00525090, -0.00564544, -0.00881691, -0.00647950, 
 		-0.00430797, -0.00674268, -0.00456552, -0.00131415, -1.54556216, -0.00596171, 
 		-0.00850052, -1.51869792, -0.00492414, -0.00393254, -0.00077539, -0.00469095, 
 		-0.00568545, -0.00090280, -0.00207664, -0.00421903, -0.62552687, -7.00000000, 
 		-0.80974402, -0.00558027, -0.00858664, -0.00407914, -0.00767092, -0.00218367, 
 		-0.00253087, -0.00599421, -0.00756605, -0.00359956, -0.00251742, -0.00768894, 
 		-0.00464510, -7.00000000, -0.00729434, -0.00503216, -0.00194364, -0.00344414, 
 		-0.00470065, -0.00056559, -0.00550245, -0.00681473, -0.00318837, -0.00548243, 
 		-0.00202762, -0.00849737, -0.00441334, -0.00180776, -0.00678032, -0.00359767, 
 		-0.00769160, -0.00576278, -0.00365608, -0.00862131, -0.20711069, -0.00288117, 
 		-0.00097318, -0.00680421, -7.00000000, -0.00540954, -0.00574416, -0.00796109, 
 		-0.00650839, -0.00658683, -6.79505157, -0.00404913, -0.00881579, -0.00415045, 
 		-0.00536717, -0.63564610, -0.00812206, -0.00642665, -0.00676887, -0.00568310, 
 		-0.00609189, -0.00515460, -0.00791168, -7.00000000, -0.00419945, -0.00462100, 
 		-0.00879154, 7.00000000, 4.55117437, 3.97781555, 1.64268535, 7.00000000, 
 		4.85005373, 4.69024938, 6.77089767, 1.01002471, 0.68524269, 4.87902826, 
 		2.91411816, 2.40111623, 7.00000000, 0.69554130, 5.45756237, 4.17587790, 
 		3.90330254, 7.00000000, 7.00000000, 3.56945413, 3.27948457, 4.28885918, 
 		6.95333182, 3.24589844, 3.48709444, 3.96790502, 1.99488226, 3.88496310, 
 		4.04163007, 7.00000000, 7.00000000, 3.01713342, 2.86793208, 1.65203414, 
 		7.00000000, 7.00000000, 0.93928415, 1.02493018, 6.13396907, 0.45422897, 
 		7.00000000, 7.00000000, 1.05513997, 7.00000000, 5.64899015, 3.58783966, 
 		1.62907726, 2.77360171, 7.00000000, 2.53655182, 1.20786924, 1.73964709, 
 		6.77302901, 1.67448773, 7.00000000, 1.47077564, 2.17114019, 7.00000000, 
 		0.49752631, 0.23911786, 5.33152296, 3.27146117, 7.00000000, 3.20061498, 
 		3.60067002, 2.19978831, 7.00000000, 7.00000000, 0.79004926, 4.16298538, 
 		7.00000000, 7.00000000, 7.00000000, 7.00000000, 1.30552768, 2.82054099, 
 		1.85349806, 3.10722816, 3.77531014, 7.00000000, 7.00000000, 3.34056433, 
 		3.40758008, 7.00000000, 7.00000000, 7.00000000, 7.00000000, 5.45101586, 
 		1.29237966, 7.00000000, 7.00000000, 7.00000000, 3.52495163, 3.91115757, 
 		0.05649599, 7.00000000, 6.91170816, 0.93448995, 7.00000000, 7.00000000, 
 		5.24886532, 5.72303113, 6.11329286, 7.00000000, 3.96458738, 7.00000000, 
 		1.20614815, 6.13879892, 7.00000000, 2.82188852, 0.50534339, };
float support_vectors[NUMSUPPORTVECTORS][VECTORLENGTH * NUMSENSORS] = { 
		 {2.21305055, 2.16914337, 0.27770614, -0.03058319, -0.74089942, -0.03599914, -0.31175273, 0.52588309, -0.03277264, -0.74261867, 0.20486575, 0.33457728, -0.25921708, -0.20952356, -0.77056391, -0.77267534, },
		 {1.30450977, 1.50715827, 2.18007690, 1.78155654, 2.11796924, -0.73898393, 1.23616407, 1.79259358, 0.26319706, 1.69973292, -0.50473265, -0.60901055, -0.77985227, -1.13458755, -0.89007124, -0.83707417, },
		 {-1.08674255, -0.94151113, 0.93940032, 1.14242012, -1.16949028, -1.71492603, 1.33616753, 1.73532664, 0.52788541, 0.44005700, 1.09313543, 1.03145886, -0.99009408, -0.96410055, -1.08474573, -1.12781904, },
		 {-1.52919178, -1.54945663, -0.37646878, -0.27871850, -0.03743576, -0.09394271, -0.14849922, -0.09123228, 0.01294625, 0.02377441, 0.24365204, 0.23792947, -0.57496206, -0.58107819, -0.40950818, -0.41668707, },
		 {0.21020786, 0.13928088, -1.09079772, -0.90281642, 1.55768845, 1.71140651, 0.70366702, 0.90196448, 2.14849998, 1.98728071, -1.07317438, -1.51953466, 0.79428555, 0.91049194, 0.50791118, 0.62572936, },
		 {0.02782421, 0.23385018, 1.40559394, 1.65372926, -2.45286851, -1.71827813, 1.66267456, 1.15923834, -0.97361941, -0.34317989, 0.95388628, 1.01238364, -1.12388433, -1.07954242, -1.40336157, -1.42130878, },
		 {-0.72873020, -0.73548515, -0.03058319, -0.00050618, 0.12873299, 0.08754996, 0.09168003, 0.06945704, -0.14346050, -0.14586676, 0.28752506, 0.28116665, -0.54132337, -0.55508465, -0.36073399, -0.37276918, },
		 {1.34166199, 1.62874737, 1.76651804, 2.06728812, -2.49500928, -1.75275695, -1.38785834, -0.71774969, -2.09252925, -1.72076244, 2.77620618, 3.06169873, -0.71028134, -0.65370718, -1.28871054, -1.18799500, },
		 {0.98702711, 0.82490831, -1.69233788, -1.55699134, 1.90965972, 1.82394154, 0.09082530, -0.21431347, 1.70574856, 2.11481237, 0.42868173, 0.33966401, 0.19337621, 0.35468903, 0.22518977, 0.37151235, },
		 {1.21669542, 1.01066944, -1.31637528, -1.51939508, 1.35177329, 1.31968883, 0.62075816, -0.17414114, 1.23171579, 1.50963856, 0.50816184, -0.01195599, 0.66355337, 0.82027909, 0.29866777, 0.45681440, },
		 {1.47000604, 1.70642930, 1.95449934, 2.21767316, -2.17272811, -0.77681485, 2.90459787, 0.69682917, 1.80921764, 2.22550023, -1.12467749, -1.03120888, -0.68887490, -0.73627487, -0.82693927, -1.01000086, },
		 {1.33152957, 1.12888107, -1.36901004, -1.48179882, 1.52416738, 1.32399868, 1.06949164, 0.17800780, 1.27021591, 1.42421641, 0.25954806, -0.07045334, 0.00683438, 0.06952467, 0.24778214, 0.36771176, },
		 {-1.42111258, -1.40084773, 0.18747512, 0.18747512, 0.02481766, -0.05802727, -0.33824938, -0.10832689, -0.28302345, -0.25414835, 0.36001092, 0.40451978, -0.63535880, -0.64912008, -0.28620027, -0.32462842, },
		 {-0.78952475, -0.79290223, -0.05314095, -0.09073721, 0.20247935, 0.21109906, -0.53740157, -0.43568865, 0.06107141, -0.21564823, 0.11012546, 0.15145512, -0.46640083, -0.42970408, -0.34109763, -0.33265188, },
		 {0.84179569, 0.96000731, 1.54094048, 1.57853674, -0.10016805, -0.01349213, -0.02798223, 1.49087374, -0.04841332, -0.80638450, -1.07063102, -0.88369380, -0.73703939, -0.31120415, -0.62593047, -0.52056977, },
		 {0.61550486, 0.68305436, 1.33040142, 1.08978536, -0.72270226, -0.96740610, -0.59637797, -0.62629353, -0.41416449, -0.77149376, -0.64525348, -0.55559992, 0.75300170, 0.40285351, 0.78303142, 0.52036866, },
		 {-1.31978833, -1.30965591, -0.09073721, -0.00050618, 0.07557815, 0.07270491, -0.56218875, -0.44680014, -0.02916326, 0.10679030, 0.30787197, 0.32821887, -0.57496206, -0.57572658, -0.38248179, -0.38607123, },
		 {2.02391195, 1.96649487, 0.82661154, 0.26266764, -0.39802673, 0.79628122, -1.44939894, -0.99126343, 1.43023205, 0.68308903, -0.30889367, -0.03357457, -0.58642980, -0.54591046, -1.18377212, -1.20868708, },
		 {-0.21873147, -0.30316835, -0.76746988, -0.76746988, 1.22870306, 1.03475971, -0.62287461, -0.43141499, 0.85032394, 0.32094724, -0.34577244, -0.27519410, 1.37225942, 1.42195294, 1.06279681, 1.16118978, },
		 {0.67967689, 0.53782294, -1.14343248, -1.12839398, 2.15244806, 2.09306787, 0.14723751, 0.33185928, 1.70334230, 1.66484218, -0.29617685, -0.46976140, 1.75222372, 1.89748170, 1.16309007, 1.26042731, },
		 {-0.29979087, -0.22548642, 0.40553343, 0.50328370, -0.58239263, -0.82326548, -0.29380340, -0.32628315, 0.45930706, 0.37147865, -1.23722132, -1.20225007, 2.27897503, 2.20405250, 2.12210474, 2.13794052, },
		 {1.22007289, 1.00391449, -1.89535768, -2.19612776, 0.94856266, 0.90785850, -0.93485122, -0.42115823, 1.14268425, 1.24976272, 2.14418037, 1.98585599, -0.00081077, 0.16203107, -0.07569000, 0.10694930, },
		 {-1.44475491, -1.44137743, -0.05314095, -0.00050618, -0.20887210, -0.14997079, 0.43442693, 0.24125785, -0.38528940, -0.44303959, 0.17879627, 0.15018343, -0.66135234, -0.72557165, -0.50959030, -0.55012989, },
		 {1.62199242, 1.82464092, 1.48078646, 1.66876776, 0.09904290, -1.77813719, 4.26874764, 2.79519238, 3.32516001, 2.05946845, -0.08126264, -0.69866411, -0.99926827, -0.54285240, -0.53534983, -0.71418854, },
		 {1.26060259, 1.03093429, -1.42916406, -1.69233788, 1.33980147, 1.55912507, 0.25493354, -0.07157348, 1.34841929, 2.02096832, 0.14255334, -0.29045428, 0.21784072, 0.35086645, 0.36053288, 0.52606954, },
		 {1.56119787, 1.52404564, 2.38309670, 1.66876776, 1.17842145, 1.45473087, -1.86565266, -2.47422072, -0.29385161, 0.43524448, 2.70181280, 2.75967432, -0.22634290, -0.20875904, -0.88331464, -0.67364895, },
		 {-0.09714237, 0.01093683, 0.40553343, 0.63863024, -1.18816631, -1.12112416, -0.13567827, -0.85450656, -1.49457421, -0.64035272, -1.47884085, -1.14947528, 1.44030132, 1.27669496, 1.87295518, 1.72832175, },
		 {0.53444546, 0.80802094, 0.59351473, 1.76651804, -1.50565876, -0.59197008, 2.58236450, 1.80626927, -3.23068916, -1.81701274, -0.95681550, 0.01602101, -0.42052989, -0.31732027, -0.73065775, -0.89028238, },
		 {0.11563856, 0.31153211, 1.74396028, 1.84171056, -2.10855920, -2.72055822, -1.56564227, -1.73915255, -0.88940039, -1.24913592, 1.10966729, 1.08105445, -1.38381967, -1.39605192, -1.31299206, -1.29969001, },
		 {-1.14415963, -0.99555073, 0.99203508, 1.16497788, -1.31889849, -1.19534939, 2.11226276, 0.93102531, 0.00693061, 0.50622909, 0.77839420, 0.84706502, -1.08565855, -1.04743276, -1.13753165, -1.22790115, },
		 {1.62199242, 1.46325109, -1.10583622, -1.29381752, 0.06839506, 0.11628231, 0.07971380, -0.19294520, -1.58721513, -2.01312275, -0.03675378, 0.00902676, -0.26915578, -0.31655576, -0.74417094, -0.71038795, },
		 {0.24398261, 0.47702838, 1.50334422, 1.74396028, -1.48937709, -1.88588350, 0.95324830, 0.04210566, -0.68727474, -1.22507334, 1.17197969, 1.33411911, -0.93428444, -0.87312318, -1.49985424, -1.54567242, },
		 {0.31828706, 0.28113483, -0.09073721, -0.21856449, -0.67768825, -0.29219591, -0.17328640, -1.23913525, -0.32392983, -0.29385161, -1.42924526, -1.22386866, 0.10316336, -0.21105259, 0.43295517, -0.03810642, },
		 {-0.22548642, -0.18833420, 0.27770614, 0.31530240, 0.30639468, -0.16960456, 0.78401168, 0.56776488, 1.27262217, 1.14388738, -0.24721710, -0.66750791, 2.67346513, 2.69869415, 2.47534815, 2.46880269, },
		 {-1.04283538, -1.05972275, -0.16592973, -0.14337197, 0.09521192, 0.12777525, -0.43654338, -0.48953666, -0.23008578, -0.21083571, 0.20995247, 0.21567504, -0.60019108, -0.64376847, -0.42407710, -0.42808883, },
		 {1.90232285, 1.83477335, -0.39150728, -0.52685382, 0.26377503, 0.18284558, 0.53613985, 0.38399784, -1.30207359, -0.65479026, -0.22559851, 0.03064535, -0.41517828, -0.43658472, -0.58201258, -0.54105071, },
		 {0.33179696, 0.60874991, 1.84171056, 2.10488438, -0.94489909, -1.45585602, 0.84384281, -1.15451694, -0.78713444, -0.18075749, 1.23683546, 1.58336873, -0.85248126, -0.76303292, -1.40800673, -1.46966069, },
		 {-0.02959287, 0.02106926, -0.09073721, 0.02957083, -1.63399658, -6.20100335, -4.08709704, -3.82896845, 0.12604037, 1.88742102, -0.31398039, -0.13912416, -0.70492973, -1.62081953, -0.91604191, -0.69666361, },
		 {-0.98879578, -0.98879578, -0.18848748, -0.10577571, 0.14980338, 0.07605702, -0.49979343, -0.60748946, 0.24875951, 0.46051019, 0.32694719, 0.33712065, -0.64223944, -0.63077171, -0.54337329, -0.54464015, },
		 {1.69291940, 2.10497135, 2.44325072, 2.96959835, -1.18098322, -0.39228026, 0.42075124, 0.06518339, -1.93371624, -1.25996408, 3.06297041, 3.34464791, -0.78214582, -0.58107819, -1.10184837, -0.94855804, },
		 {1.90570032, 1.96311740, 0.99203508, 0.59351473, 0.40264805, -1.23318032, -0.98100666, 0.80367048, 0.20905626, -0.48274284, 0.54949149, 0.85978183, -0.08643653, -0.08720105, -0.51508003, -0.51761376, },
		 {0.34530686, 0.32504201, -0.09073721, -0.12833347, -0.33816767, -2.46723468, -1.17844939, -0.79296597, 0.08994650, 0.09114963, -0.17155204, -0.07363255, -0.51762338, -0.72939423, -0.60840555, -0.44096860, },
		 {1.13901349, 1.33152957, 1.69132552, 1.65372926, 0.73594329, 1.23780164, 1.12077547, 1.17376875, -0.18316375, 0.48818215, -0.73490704, -0.53143797, -0.17664938, -0.44805246, -0.43864601, -0.37783663, },
		 {-0.38422775, -0.38422775, -0.37646878, -0.20352598, 1.32256206, 1.20380169, -0.78869231, -1.11007096, -0.11458541, -0.21805449, -0.20207240, 0.07896926, 1.88066236, 1.93112039, 1.71501969, 1.78828656, },
		 {1.76046890, 1.70305182, 0.08972484, -0.24112224, 0.04205707, 0.00087404, 0.14210912, 0.22330851, -1.03377586, -1.73760624, 0.23602195, 0.16417193, -0.48704276, -0.54438143, -0.70151992, -0.67977212, },
		 {0.13928088, 0.22709523, 0.87924630, 0.82661154, -0.59292782, -0.59963204, -0.81177004, -0.77330717, 0.09836840, 0.28124399, -1.44959217, -1.25438902, 1.48540774, 1.44488841, 1.75577043, 1.68926016, },
		 {-0.81316708, -0.81992203, -0.14337197, -0.12833347, 0.05498663, -0.12554829, -0.65791856, -0.26987094, -0.28182032, -0.18196062, 0.40897066, 0.43885518, -0.66211685, -0.65294266, -0.51296860, -0.51170173, },
		 {0.24060513, 0.60199496, 0.06716709, 1.16497788, -5.01483623, -0.83332181, -4.04350579, -1.85796008, -0.01713197, -3.68667499, -0.66496455, -0.38519457, -1.21333267, -0.12772038, -0.65316801, -0.75261669, },
		 {-0.10051985, -0.05661267, 0.52584146, 0.46568744, -0.25340724, -0.68151923, 0.62930547, 0.05065297, 0.89844909, 0.78174560, -1.97352504, -2.33849769, 2.48998137, 2.37606853, 2.27180562, 2.29101970, },
		 {1.71318425, 1.94285255, 1.54094048, 1.72892178, -0.04461884, -1.28010982, 2.33962106, 2.22679664, 2.51064177, 2.63215778, -0.41444325, -0.63253666, -0.70110715, -0.40065248, -0.41119733, -0.50262255, },
		 {0.18318806, 0.41961131, -0.12833347, 0.52584146, -4.84483651, -1.73743303, -4.84780712, -2.60157555, 0.07069644, -2.26337355, -1.18063148, -0.95935887, -1.28596166, -0.66746846, -0.82715042, -0.73910350, },
		 {0.22034028, 0.20683038, 0.20251362, -0.00050618, -0.61447709, -0.11405535, -0.28525609, -1.31093261, 0.07430583, -0.20121068, -2.03265824, -1.61936168, -0.14606876, -0.40829764, 0.28431000, -0.14452285, },
		 {1.06808651, 1.19980804, 1.66876776, 1.31536292, -0.19546367, 1.35512539, 2.01738769, 3.14905077, -0.24692958, 0.61330755, -0.05392148, -0.49837424, -0.18811712, -0.50921371, -0.58032344, -0.53281610, },
		 {-1.34343066, -1.34343066, -0.06817945, -0.01554469, -0.12698491, -0.14997079, 0.18826457, 0.21561594, -0.27219529, -0.19639817, 0.34665826, 0.33394144, -0.60707172, -0.68887490, -0.40950818, -0.44413575, },
		 {-0.20522157, -0.17482430, 0.14235961, 0.18747512, 0.30783130, 0.21493004, 0.40365664, 0.41904178, 0.87799590, 0.63977639, -1.65178956, -1.73063383, 2.87988437, 2.83707149, 2.23189946, 2.26293759, },
		 {2.11172630, 2.57444038, 2.74402079, 3.13502190, -0.50050544, 0.74408412, 1.00282267, 0.56349123, -2.15509195, -1.33696433, 3.73759756, 3.85268476, -0.35325251, -0.18200099, -0.88521493, -0.78808883, },
		 {-0.48555200, -0.30992330, 1.29280516, 1.44319020, -1.54732066, -0.64512492, 1.37377567, 0.02842998, 0.26079080, 0.04302447, 0.90111149, 1.00920443, -0.95263282, -0.79972968, -1.27730878, -1.28913283, },
		 {0.21358533, 0.21358533, -0.20352598, -0.12833347, -0.14661868, -2.08557332, -3.59648177, -3.79306977, -0.11458541, 0.63015136, -0.87415619, -0.57340346, -0.72251359, -1.01455859, -0.72178971, -0.89281611, },
		 {-1.52581431, -1.56296653, -0.29375701, -0.24112224, 0.37918329, 0.37966217, -0.47073259, -0.73398957, -0.09533534, -0.07728841, 0.17053034, 0.15527016, -0.47557502, -0.50844920, -0.34700965, -0.34215335, },
		 {1.44636372, 1.80437607, 2.49588548, 2.85680957, 0.86045013, 1.21912561, 0.00022387, -0.94339852, -1.00730702, -0.16271056, 3.00320137, 3.05088943, -0.08184944, -0.00386884, -0.75240555, -0.74543781, },
		 {-0.21535400, -0.17482430, 0.35289866, 0.31530240, -0.10591452, -0.26825229, 0.71135959, 0.97547129, 1.06568401, 0.98748063, -0.14739009, -0.61473312, 2.65893934, 2.53279425, 1.90779389, 1.90019272, },
		 {0.09875118, 0.10888361, 0.18747512, 0.12732110, -1.37492657, -1.50853199, 0.51733578, 0.50622429, -0.26497651, -0.10856976, -1.37901383, -1.47756917, 1.78509789, 1.64136894, 1.86282028, 1.69833934, },
		 {-0.78614728, -0.73548515, 0.18747512, 0.26266764, -0.86492739, -0.99422296, 0.14467332, 0.05321716, -1.16972942, -1.45607409, 0.33394144, 0.47382643, -1.04896179, -1.03825857, -0.85649939, -0.92659910, },
		 {1.74020405, 1.51391322, 1.81915280, -0.10577571, 0.87481630, 0.61047870, -1.84513912, -1.41008134, 0.88762093, 0.61210443, 2.01510467, 1.76140417, -0.41212022, -0.23016548, -0.58940261, -0.37445833, },
		 {0.39934646, 0.65265709, 0.29274465, 1.12738162, -2.60850206, -0.11261873, -2.73918715, -1.21434807, -0.84608775, -2.40053024, 0.09232192, 0.25700470, -0.86547803, -0.29897189, -0.58433517, -0.58201258, },
		 {0.45000858, 0.42636626, -0.29375701, -0.33135327, -0.23185798, -0.85008234, -2.50755521, -2.56054849, -0.45627400, -0.23850768, -0.60964639, -0.22941356, -0.39300733, -0.48704276, -0.29992461, -0.45849352, },
		 {1.58484019, 1.40583402, -2.29387804, -2.12093524, 0.85135155, 2.59540510, -0.63740503, 1.83703957, 0.94657425, 0.10679030, 1.85805198, 1.83579755, 0.12533432, 0.21784072, 0.02059153, 0.20111939, },
		 {1.46325109, 1.32139714, -1.85776142, -1.44420256, 1.38146338, 1.43605484, 0.77888329, 2.02935391, 0.52427602, 1.30390352, 1.27625760, 0.42550253, -0.14683327, 0.02976985, 0.02143610, 0.07105487, },
		 {0.30815463, 0.52093556, 0.42809118, 1.16497788, -1.43813774, -0.51439274, -0.08524917, 1.39087028, -1.77249698, -1.21785457, -0.62681410, -0.57721851, -0.60095560, -0.69804909, -0.55646420, -0.62698619, },
		 {1.50040332, 1.33490704, -0.85770091, -1.12839398, 0.19433852, 0.38540864, -0.10832689, -0.32628315, -1.84949722, -1.66902789, 0.12665732, 0.07261085, -0.41364925, -0.48627824, -0.74839382, -0.66984836, },
		 {1.49702584, 1.22345037, -0.29375701, -1.95551170, 1.00794285, 1.00315413, -2.09301095, -1.10494257, 0.84430830, 1.17035622, 2.58926897, 2.54476011, 0.05041178, 0.19108267, -0.33856390, -0.07062255, },
		 {1.77060132, 2.18940822, 2.51844324, 3.00719461, -0.91664562, -0.24622415, 0.37374107, 0.53101147, -2.69890620, -1.96379447, 3.03245005, 3.21048549, -0.63306525, -0.55967175, -1.05307417, -0.92955511, },
		 {-0.75912748, -0.72873020, 0.14235961, 0.24010988, -0.22850587, -0.54073073, 0.88657933, 0.97034291, -0.62471204, -1.03618211, 0.29070426, 0.32249631, -0.77602969, -0.91517155, -0.75599499, -0.83538502, },
		 {1.75709142, 1.58484019, 1.96953784, 0.33034091, 1.53661806, 0.58078860, -2.05112916, -1.84086547, 0.68790154, 0.40396313, 2.51042470, 2.51869063, -0.20570098, -0.01533657, -0.67470467, -0.36073399, },
		 {1.01066944, 1.26060259, 2.70642453, 2.79665556, -0.94729345, 1.15974542, 0.73700150, 1.74814760, -2.26698294, -0.94474432, 0.98949337, 0.83689156, -0.13154296, -0.35019445, -0.81701552, -0.81595980, },
		 {-0.42475745, -0.39098270, 0.31530240, 0.29274465, 0.04780354, -0.24526641, 0.30365318, 0.20108552, 0.41479129, -0.18436688, -1.16409962, -1.50363864, 2.68263932, 2.54196843, 2.00238627, 1.97958275, },
		 {1.85166072, 1.86854810, 0.72886126, 0.45064894, -0.76244868, -0.18971720, -0.70236454, -0.43483392, 0.46652583, -0.59583695, 0.04209049, 0.12220644, -0.29362029, -0.09178814, -0.78703311, -0.83559616, },
		 {1.16265582, 1.00053701, -1.50435658, -1.46676032, 2.01596940, 1.90295550, -0.74595579, -0.42714134, 1.83087396, 1.66002966, -0.89831814, -1.07126686, 0.92731128, 1.22012079, 0.90633933, 1.10228069, },
		 {-1.10700740, -1.12389478, -0.18848748, -0.14337197, 0.00135291, -0.07909766, -0.15533707, -0.01088762, -0.26978903, -0.40694572, 0.18324716, 0.18642636, -0.49239437, -0.51303629, -0.36601258, -0.37298033, },
		 {-1.17117943, -1.20157670, -0.42910354, -0.31631476, 0.16129632, 0.19050754, -0.63825976, -0.71860442, -0.07608528, 0.03941509, 0.21631088, 0.30532860, -0.47481051, -0.43964278, -0.28810056, -0.26951991, },
		 {1.05457661, 1.18629814, 1.57853674, 1.24017040, 0.11436682, 0.66794339, 2.36269878, 2.37808393, -1.74121563, -0.57297750, -0.26883569, -0.49710256, -0.51532984, -0.72098456, -0.61157270, -0.62360789, },
		 {0.35881676, 0.59186254, 2.15751914, 2.06728812, -1.67134863, -1.76664425, -2.54088969, -2.67422764, -1.59082452, -1.34057372, 1.48926428, 1.98140511, -0.93122638, -0.78979097, -1.36662256, -1.13246420, },
		 {-0.13091712, 0.10550613, 1.85674906, 1.99209560, -0.81273029, -2.34751656, -1.12887502, -2.30925775, -0.71855609, -1.47291789, 1.36209611, 1.57510280, -0.82954579, -0.76456195, -1.34571934, -1.32819441, },
		 {-0.59700867, -0.62065100, -0.40654579, -0.29375701, 1.36901269, 1.32591417, -0.17499587, -0.23568173, 1.18479376, 1.41940389, -0.16837284, -0.19507815, 1.86766559, 1.93188491, 1.86387600, 1.92743025, },
		 {1.76046890, 1.71656172, 0.20251362, -0.05314095, 0.00901487, 0.05881761, 1.18829917, 0.81478197, -1.74843440, -1.91205992, 0.29579099, -0.11178300, -0.20723001, -0.35095896, -0.61875159, -0.65696860, },
		 {0.34868433, 0.31490958, 0.16491736, -0.03058319, -1.07850451, -0.51726597, -1.35537859, -2.27934218, -0.57418063, -0.83766585, -2.46503002, -2.11341003, -0.24010419, -0.43887827, 0.31957100, -0.08856977, },
		 {2.28060005, 1.92596517, -0.91785492, -2.79766792, 0.71822500, 0.98830908, -1.87847361, -1.18614196, 0.46652583, 0.92251167, 0.99648762, 1.16307792, -0.28826868, -0.06808815, -0.40760789, -0.12636449, },
		 {2.14550105, 2.20967307, 1.70636402, 1.10482386, -0.14949192, -0.81895563, 1.82934699, 0.52759255, 4.19983469, 2.71517367, 0.10631041, -0.03993298, -0.75156519, -0.51074274, -1.08981318, -1.23888063, },
		 {0.87557044, 0.98702711, -0.42910354, -0.05314095, -2.37768553, -2.31303774, -2.75115338, -2.31011248, -0.12902295, -0.63554020, -0.81502299, -0.66877959, -0.59560399, -0.73933294, -0.36580144, -0.65232344, },
		 {1.00391449, 0.80126599, -1.97055020, -1.84272292, 0.45388740, 0.23456381, -0.07841133, 0.21219702, -1.94935692, -1.27319850, 0.36827685, 0.20740911, -0.56349433, -0.62847816, -0.92195394, -0.81237036, },
		 {-1.48190713, -1.50554946, -0.21856449, -0.21856449, -0.16912569, -0.17487216, 0.10364625, 0.20792337, -0.69449352, -0.96038500, 0.22521266, 0.24810293, -0.68275877, -0.70645876, -0.50811229, -0.51740261, },
		 {0.65265709, 0.47365091, -1.03064370, -1.24118276, 1.35512539, 1.27946354, 1.96866805, 0.69682917, 1.28465346, 2.24475029, 0.39625385, -0.30635030, 0.35468903, 0.48618573, 0.23659153, 0.40804021, },
		 {0.21020786, 0.10550613, -0.66971961, -0.79002764, 1.75929376, 1.58354756, -0.17585060, -0.05618834, 1.41820076, 1.04282456, -1.68994001, -1.94554804, 0.87379518, 0.95789191, 1.04041558, 1.17132467, },
		 {0.06835391, 0.07173138, 0.14235961, 0.08972484, -1.22982821, -0.93915262, 0.61477505, 0.06261919, 0.57119804, 1.02838701, -1.55768511, -1.68103824, 1.13755310, 0.91660806, 1.30835693, 1.05498450, },
		 {0.14603583, 0.23047271, 0.65366874, 0.65366874, -1.02822290, -1.36295476, -0.20833035, -0.68441520, 0.35704111, -0.07247590, -1.66895726, -1.70202099, 2.52132651, 2.52897167, 2.55283788, 2.56888480, },
		 {1.26060259, 1.45311867, 2.14248064, 2.14248064, 1.57397011, 1.74540646, -0.69723616, -1.36563535, -0.18316375, 0.86596462, 1.89938164, 1.52232801, -0.76914905, -0.83566191, -0.78449939, -0.85290995, },
		 {-1.10025245, -1.08674255, 0.06716709, 0.08972484, -0.36115355, -0.49571671, 0.73443731, 0.68571768, -0.90143168, -0.96038500, 0.39434632, 0.43249678, -0.72633617, -0.76379744, -0.64092168, -0.69476332, },
		 {0.15279078, 0.28113483, 0.65366874, 0.82661154, -1.20732121, -1.31315202, 0.68486295, 0.34040658, -0.53568051, -0.92549426, -1.78595198, -1.65242540, 1.51293031, 1.36996587, 1.76316046, 1.56088479, },
		 {0.37570413, 0.22034028, -1.51939508, -1.46676032, 1.10275960, 1.25935090, 0.37630526, 0.16262265, 2.22189084, 2.27482851, 0.01983606, -0.64207428, 0.60774372, 0.71477592, 0.41585253, 0.62382907, },
		 {1.27748997, 1.13225854, -1.70737638, -1.48179882, 1.81436409, 1.67261784, 2.17465809, 1.55668798, 0.96462118, 0.88882406, 1.01619868, 0.82481059, -0.08643653, 0.07334725, 0.10483786, 0.12362965, },
		 {0.41285636, 0.61888234, 1.93194158, 1.91690308, -1.95484114, -2.01613681, -2.59302825, -2.45028827, -1.88559109, -1.05543218, 1.82689578, 1.96995997, -0.73627487, -0.79896516, -1.38161377, -1.29863429, },
		 {-1.38396036, -1.38058288, -0.03058319, -0.00050618, 0.01667683, -0.04988644, -0.16986748, -0.08183025, -0.19399191, -0.24572645, 0.23347859, 0.29706267, -0.66441040, -0.68199426, -0.40127358, -0.42281024, },
		 {1.51053574, 1.32815209, -1.27877902, -1.50435658, 0.33991575, 0.18284558, 0.21732540, 0.18997403, -1.02294770, -0.77991567, 0.03318872, 0.12029891, -0.60095560, -0.63153622, -0.80413575, -0.76655218, },
		 {-1.26574873, -1.26574873, -0.12833347, -0.05314095, 0.10862035, 0.02194443, -0.37329333, -0.06729983, -0.00871007, 0.18980620, 0.36319012, 0.29579099, -0.47633954, -0.50615565, -0.43421200, -0.44835862, },
		 {-0.20859905, -0.19846662, 0.10476335, 0.12732110, 1.06109769, 0.76611225, 0.05492662, 0.57032907, 2.05465593, 2.00412452, -0.15056929, -0.37883616, 2.64059096, 2.82025215, 2.20571765, 2.25533641, },
		 {-0.64091585, -0.57674382, 0.18747512, 0.37545642, 1.17698483, 0.97106967, -1.28785488, -0.44338122, 0.78174560, 1.14629364, 1.14400270, 1.31822309, 1.68953343, 2.02821389, 2.12717219, 2.16623377, },
		 {-1.37720541, -1.35018561, 0.08972484, 0.18747512, 0.04876129, 0.13735270, -0.44423595, -0.50235762, 0.27643147, 0.26440019, 0.25954806, 0.22521266, -0.60248463, -0.61853946, -0.44012402, -0.43927945, },
		 {-0.46528715, -0.43151240, 0.37545642, 0.33034091, 0.01332473, -0.19737916, 0.69511971, 0.28570384, 1.13185609, 0.77452682, -1.40635499, -1.88005643, 2.71627801, 2.55649423, 1.92489653, 1.94748890, },
		 {0.38921403, 0.56822021, 0.33034091, 1.08978536, -1.04019471, -0.49428010, 2.20286419, 3.71146340, -1.95176318, -1.92890373, -0.31143703, -0.08952857, -0.31884930, -0.05356236, -0.36559030, -0.41394220, },
		 {-0.15793692, -0.17482430, -0.42910354, -0.24112224, 1.20571718, 1.07211176, -0.90151673, -1.08101012, 0.60127627, 0.63977639, -0.55496408, -0.28854676, 1.22776595, 1.44335938, 1.88203436, 1.95762380, },
		 {2.55079805, 2.33463965, 2.93200209, 0.99203508, 1.38625210, 0.35763403, -0.22286077, -1.19639873, 0.64579203, 0.39433810, 1.99602945, 1.33920584, -0.59407495, -0.43658472, -0.92681024, -0.57673399, },
		 {0.23722766, 0.43987616, 0.27770614, 0.78901528, -4.41576677, -1.91222149, 0.33356874, 3.14648658, 0.66744835, -1.49216795, -1.59138468, -2.26982688, -1.25155845, -0.84636513, -0.49333223, -0.46482783, },
		 {1.99351467, 1.85166072, -1.78256890, -1.31637528, 1.50980120, 1.83926546, 2.46441170, 1.26949856, 1.34480990, 1.00552756, 0.53741052, 0.33584896, 0.19872782, 0.31569873, 0.13608713, 0.17050355, },
		 {0.05146653, -0.07687752, -1.36901004, -1.27877902, 1.66830799, 1.63335030, -0.44167176, -0.48013463, 0.79137063, 0.65301081, -1.39999658, -1.22577619, 1.31186268, 1.40742714, 1.68799330, 1.79356515, },
		 {0.00080441, 0.01769178, 0.08972484, 0.06716709, -2.00129177, -2.27329133, -1.10921622, -1.11605407, -0.77510315, -0.27099216, -1.32751072, -1.34086338, 1.40284005, 0.81339844, 1.40928362, 1.14852115, },
		 {-1.92773384, -1.93786626, -0.18848748, -0.14337197, -0.24718190, -0.23856220, 0.25493354, 0.13698074, -0.13744485, -0.15910117, 0.23983699, 0.23602195, -0.66288137, -0.73245229, -0.39050525, -0.41161962, },
		 {-0.25926117, -0.33694310, -1.16599024, -0.94041268, 1.60366021, 1.55960394, -0.57757390, -0.57842863, 0.60969817, 0.51946350, -1.15583369, -0.98924339, 1.22241434, 1.29122075, 1.79208714, 1.88245665, },
		 {-0.66118070, -0.67469060, -0.05314095, -0.05314095, 0.05402889, 0.07749364, 0.34040658, 0.21476121, -0.40694572, -0.32032044, 0.28243833, 0.27099320, -0.55432014, -0.59942656, -0.40380730, -0.42407710, },
		 {-0.24912875, -0.22548642, 0.14235961, 0.18747512, -1.05072991, -1.14075793, -0.24337430, 0.60879194, -0.44905523, -0.08089780, -1.52589307, -1.73826392, 2.21552023, 1.99228165, 2.02033348, 1.83072644, },
		 {1.67603202, 1.50378079, -0.84266240, -1.25622126, 0.12873299, 0.62005615, -1.60837880, -0.91177350, -0.59463382, -1.31891740, 0.03763960, 0.12411396, -0.44652342, -0.45111052, -1.08559030, -1.07503312, },
		 {1.14914592, 0.95662984, -1.70737638, -1.72993414, 2.07678621, 2.21853246, -0.47415152, -0.57842863, 1.58182629, 1.71296733, 0.09232192, -0.02467280, 0.52899860, 0.69719206, 0.61665018, 0.78007540, },
		 {1.39570159, 1.35179442, -0.20352598, -0.33135327, -0.01014003, 0.01763458, 0.68058929, 0.85068065, -0.32513296, -0.07247590, 0.10567457, 0.13683078, -0.38230411, -0.37618798, -0.32505071, -0.31787182, },
		 {0.84179569, 0.65603456, -1.66978012, -1.66978012, 0.63346458, 0.74360525, -0.22798915, 0.22501798, -0.88338475, -0.05322583, 0.19977902, 0.25191797, -0.83795546, -0.71333940, -0.87402432, -0.77267534, },
		 {-1.27925863, -1.26912621, -0.05314095, 0.02957083, -0.52684342, -0.45022383, -0.11516474, 0.06090973, -1.10115107, -1.30929236, 0.37527110, 0.41850828, -0.75003616, -0.73856842, -0.57082197, -0.61030584, },
		 {0.55133284, 0.35881676, -1.69233788, -1.69233788, 2.06672989, 1.95898358, 0.09766314, 0.29681533, 1.76109249, 1.52648236, -0.70184332, -0.86016769, 1.57256253, 1.70329472, 1.16161206, 1.26359447, },
		 {-0.94488860, -0.93475618, -0.00050618, 0.02957083, -0.24813964, -0.24430866, 0.78914006, 0.88230568, 0.45088516, 0.29568154, 0.28053081, 0.21313168, -0.69575554, -0.74927164, -0.59700379, -0.64007710, },
		 {-1.17455690, -1.19144428, -0.14337197, -0.18848748, 0.03056413, 0.04684580, 0.12672398, -0.09208701, 0.09475902, -0.01592884, 0.15781352, 0.14891175, -0.43123311, -0.43658472, -0.26466361, -0.27564308, },
		 {-0.38760522, -0.46866462, -0.88025866, -0.80506614, 1.10946381, 1.14202714, -0.53227319, -0.62458407, 0.06708705, -0.08450718, -1.21814610, -1.20161423, 1.87225268, 1.86384301, 1.25747130, 1.39133641, },
		 {0.43649868, 0.79788851, 0.26266764, 1.42815170, -3.89906337, -0.63602635, 1.19000863, 1.48660009, -0.31911731, -3.07307927, -1.48456342, -1.52271387, -1.17816495, -0.50309759, -0.68293927, -0.81617094, },
		 {-0.60714110, -0.60038615, 0.02957083, -0.00050618, 0.18571882, 0.14836676, -0.41602985, -0.02114439, 0.49540093, 0.41599442, 0.33266976, 0.30024188, -0.51303629, -0.56578787, -0.46440555, -0.47707417, },
		 {1.41258897, 1.44636372, 0.52584146, 0.46568744, -0.29650576, -0.18157637, 0.83871442, 0.58144056, -0.80638450, -1.00971328, -0.07617591, -0.04311219, -0.13765908, -0.21563968, -0.27627651, -0.30435862, },
		 {1.26735754, 1.46325109, 1.57853674, 1.59357524, 0.46346485, -0.12363280, 3.07725342, 2.79091872, 1.29066910, 2.90887742, -0.20270824, -0.51109106, -0.89300059, -0.92434573, -0.55034103, -0.58623546, },
		 {0.19669796, 0.21020786, 0.14235961, 0.08972484, -1.04977216, -1.35194069, -0.71604023, 0.11475775, -0.38047688, -0.58260253, -1.49855191, -1.48647094, 2.38218465, 2.07408483, 2.50659741, 2.44093172, },
		 {0.52431304, 0.35543928, -1.25622126, -1.31637528, 1.70853328, 1.66304039, 0.22672744, -0.37927644, 1.25577837, 0.85513646, -1.54814750, -1.50109528, 1.58403027, 1.74075598, 1.32271470, 1.48677336, },
		 {2.11510377, 2.02053447, -0.57948858, -0.69227736, 0.15890196, 0.05355001, 0.85495430, 0.62503182, -1.84468471, -0.86052530, 0.03191703, 0.03191703, -0.27450739, -0.34484284, -0.65886889, -0.66098033, },
		 {2.24344782, 2.65549978, 2.70642453, 3.15757965, -0.04413997, 0.00326840, 0.25749773, -0.42970553, -1.50179298, 0.22710319, 3.60852187, 3.43430147, -0.35172348, -0.31579124, -0.88859323, -0.90421787, },
		 {-0.56661140, -0.37071785, 1.21761264, 1.40559394, -1.96106648, -1.60286987, 1.75925910, 0.85837322, -0.18316375, -0.41416449, 0.79683359, 0.76440570, -1.06883920, -1.10630047, -1.18630585, -1.29504485, },
		 {0.93298751, 1.21669542, 2.23271166, 2.23271166, -2.73971312, -2.74354410, -3.16142399, -1.36649008, -2.90343811, -2.29585803, 1.99030688, 2.55938445, -1.04590373, -0.90829091, -1.51210057, -1.27076332, },
		 {-1.90071404, -1.88382666, 0.06716709, 0.08972484, -0.17870314, -0.15859049, 0.07031177, -0.02028966, 0.02858693, 0.04663386, 0.31105117, 0.33076224, -0.78214582, -0.78443936, -0.17070466, -0.17767241, },
		 {0.30815463, 0.33517443, 1.05218910, 0.69126500, -1.50134890, -1.31363090, 0.44211950, -0.01943493, 0.00091496, 0.86476149, -1.65051788, -1.87751307, 1.27669496, 0.78816943, 1.34952995, 1.03893758, },
		 {0.08861876, 0.10888361, 0.52584146, 0.42809118, -1.05791300, -0.33050571, -1.05964186, -2.02805144, -0.82202518, -0.88579101, -2.21260120, -1.83809093, -0.22863645, -0.40371055, 0.34596396, -0.00453457, },
		 {-1.46839723, -1.47852966, -0.18848748, -0.12833347, -0.09059060, -0.17822426, 0.22416325, 0.29937952, -0.24211707, -0.23249203, 0.22712018, 0.22203345, -0.47786857, -0.50539113, -0.37910349, -0.39958443, },
		 {-0.07687752, -0.00932802, 0.24010988, 0.40553343, 0.95239364, 0.74839397, -0.58355701, -0.49979343, 1.21487199, 1.19321567, -0.12958654, -0.10669627, 2.18646864, 2.36689434, 2.43227483, 2.44916633, },
		 {1.88543547, 1.91245527, 0.59351473, 0.37545642, 0.14597240, -0.41430839, -0.98528031, -1.58957473, -0.01833510, -0.42018014, -0.12195645, 0.56347999, -0.15142037, -0.11701716, -0.70954338, -0.58159030, },
		 {-0.54634655, -0.60714110, -0.79002764, -0.66971961, -0.42149148, 0.00901487, -0.22115131, -0.20662089, -1.00008825, -1.00129138, 0.06052987, 0.13937414, -0.48933630, -0.47328147, -0.49375452, -0.47559616, },
		 {0.00080441, 0.04133411, 0.10476335, 0.18747512, -1.50996861, -1.36774348, 0.28655857, -0.50919546, 0.92251167, 0.16694675, -1.74525817, -1.97734008, 1.57179802, 0.87838228, 1.47199330, 1.07673230, },
		 {1.47000604, 1.27411249, -1.39156780, -1.50435658, 1.70230793, 1.84644855, -0.12371204, -0.29123920, 1.48076346, 2.02096832, 0.28371001, -0.05010644, 0.40285351, 0.53511473, 0.43527775, 0.59215751, },
		 {-0.35045300, -0.30316835, 0.21755213, 0.39049492, 0.77568970, 0.63873217, -0.14849922, 0.18570038, 1.78756132, 1.69852979, 0.28752506, 0.17307370, 2.00145584, 2.11919125, 1.90124843, 1.93334228, },
		 {1.78411122, 1.55444292, 1.59357524, -0.26368000, 0.68183070, 0.53577459, -1.69128765, -1.51948683, 0.29207215, 0.52186976, 2.26499013, 1.92799448, -0.32343640, -0.14683327, -0.66161376, -0.39177211, },
		 {0.41961131, 0.61550486, 1.81915280, 1.74396028, -0.94058924, -1.57174316, -1.50752061, -1.80154787, -0.84127524, -1.46569912, 1.55284837, 1.75949665, -0.48474921, -0.46181374, -1.15927945, -1.13647593, },
		 {1.72331667, 1.60172757, -0.26368000, -0.80506614, 0.51566195, -0.50002656, -1.42033810, -1.38956781, -0.03638203, -1.10957297, 0.20550159, 0.13873830, -0.31502672, -0.38077507, -1.04336156, -1.03407124, },
		 {-0.53959160, -0.51257180, 0.18747512, 0.16491736, -0.41047741, -0.84002602, 0.33356874, -0.19465467, -1.11318236, -1.46088660, 0.16417193, 0.32758303, -0.84865868, -0.88994253, -0.66879264, -0.72052285, },
		 {-0.99555073, -0.99217325, -0.01554469, 0.01453232, 0.09664854, 0.06025423, -0.25448580, -0.11174581, -0.03517890, -0.05081958, 0.24492372, 0.21885425, -0.47786857, -0.49239437, -0.37804777, -0.39705071, },
		 {1.04444419, 1.28762239, 1.93194158, 2.02969186, 1.49399841, 1.54858987, -0.80151327, -2.10155825, -0.39972695, -0.01713197, 2.14545205, 2.49516452, -0.63612332, -0.50692016, -0.85565482, -0.89619441, },
		 {0.82490831, 0.78437861, -1.14343248, -0.72987362, 1.28090016, 1.31490010, 1.53873865, 3.47128415, 0.27763460, 1.18599689, 2.03100070, 0.93544689, 0.32869549, 0.11768916, 0.02967070, 0.01425722, },
		 {0.30139968, 0.49391576, 1.27776666, 1.40559394, -2.22684070, -1.11106784, 1.58489409, 1.24300192, -0.21203884, -1.11318236, 1.01556284, 1.28452353, -1.11318111, -0.86700706, -1.21122080, -1.35817681, },
		 {1.32477462, 1.13563602, -1.42916406, -1.61714536, 1.78132189, 2.06720876, -0.39038793, -0.48013463, 1.93554617, 1.82004580, -0.45005034, -0.78831767, 0.85774035, 0.96018546, 0.62720737, 0.80773523, },
		 {-0.34032057, -0.29641340, 0.33034091, 0.37545642, 0.53816895, 0.25276096, 0.27801126, 0.82503874, 1.31593481, 1.30991917, 0.22521266, -0.11432636, 2.40206206, 2.50756523, 2.47999331, 2.49350650, },
		 {0.00080441, 0.01769178, 0.18747512, 0.18747512, -0.28597057, -0.79453314, -0.17756006, -0.58697593, 0.51585412, 0.05264951, -1.75161658, -1.76306171, 2.34778145, 2.30802663, 2.51926603, 2.54861501, },
		 {0.54120041, 0.39596898, -1.10583622, -1.24118276, 1.37619578, 1.59168839, 0.53955877, 0.08569692, 1.42421641, 1.93795243, 0.78284509, 0.31613790, 0.50606313, 0.71324689, 0.30204607, 0.49186426, },
		 {0.06159896, 0.05822148, 0.21755213, 0.05212858, -1.24084228, -0.84577249, 0.14381858, -0.10063432, 0.69391719, 0.17296239, -1.88514316, -1.84190598, 1.08785958, 0.67196304, 1.27626309, 0.95089065, },
		 {-0.96515345, -0.98204083, -0.12833347, -0.14337197, 0.25754969, 0.25659194, -0.58526647, -0.57757390, -0.13142921, -0.16752308, 0.18833389, 0.19469229, -0.50539113, -0.50233307, -0.37678091, -0.36664601, },
		 {0.28451231, 0.12914846, -1.70737638, -1.55699134, 2.06433552, 2.20560290, -0.47671571, -0.51603331, 1.43624770, 0.96943370, -1.35358020, -1.35548772, 0.07258273, 0.19490525, 0.88480268, 0.98805195, },
		 {0.15616826, 0.22709523, 0.71382276, 0.66870725, -1.66895427, -1.85379904, 0.06090973, -0.12456677, -0.92429113, -0.91225984, -2.60364333, -2.44913400, 1.88601397, 1.47776258, 2.07079682, 1.77625137, },
		 {1.36868179, 1.58821767, 1.74396028, 1.78155654, 0.43521137, -1.71732039, 4.24481519, 3.88411894, 1.98968697, 2.72840809, 0.00648340, -0.33877819, -0.72633617, -0.41441377, -0.47791874, -0.53007124, },
		 {1.94960750, 1.99689215, 0.46568744, 0.42809118, -0.25292837, -0.14087221, 0.98487333, 1.35240741, -0.71735297, -1.13724494, 0.38608039, 0.35110915, -0.09713975, -0.12389780, -0.44983663, -0.44709176, },
		 {0.61550486, 0.45000858, -1.44420256, -1.39156780, 1.97047652, 1.86847668, 0.20877810, 0.18570038, 1.79959261, 1.59626383, -1.90739759, -2.12676268, 0.94183708, 1.00758543, 1.00874403, 1.11896104, },
		 {0.78437861, 0.64927961, -1.36901004, -1.10583622, 1.92881461, 1.73487126, 1.87208351, 0.86862999, 1.33157548, 1.50241978, 0.97741239, 0.71862516, 0.23160200, 0.23695361, 0.20618684, 0.27290824, },
		 {-0.21535400, -0.24575127, -0.66971961, -0.40654579, 1.18608341, 1.16932287, -0.63911449, -0.65364491, -0.24211707, -0.25174210, -1.53288732, -1.43751119, 1.01293704, 0.97624029, 1.60374697, 1.67279095, },
		 {2.28397753, 1.94623002, 0.84165004, -1.65474162, 0.51326759, 0.82884455, -2.22463944, -1.27246974, 0.40757252, 0.79257375, 1.92481527, 2.05770601, -0.12619135, 0.31569873, -0.57694514, -0.12551991, },
		 {-0.23899632, -0.04648024, 1.40559394, 1.57853674, -1.67039089, -1.58275722, 0.95239357, 0.59169733, -0.60425885, -0.37566437, 0.93671858, 0.94434867, -0.60936527, -0.68734587, -1.25239382, -1.26696274, },
		 {0.75060386, 0.54120041, -1.97055020, -1.85776142, 0.54966189, 0.47064794, -0.01687074, 0.07544015, -1.17935445, -0.59944634, 0.21631088, 0.15590600, -0.65600073, -0.68811038, -0.92955511, -0.86072226, },
		 {-0.73548515, -0.71184283, 0.12732110, 0.12732110, 0.05642325, 0.01236698, -0.41859404, -0.32628315, -0.21564823, -0.00389755, 0.33521312, 0.40006889, -0.53750079, -0.50462662, -0.41351991, -0.42703311, },
		 {-0.10727480, -0.11065227, -0.16592973, -0.09073721, 0.36242276, -0.08675962, -3.87255970, -4.02299226, -0.19519504, 0.01535251, -0.64207428, -0.29236180, -0.53520725, -0.63000719, -0.74818267, -0.93990115, },
		 {0.36219423, 0.35543928, 0.06716709, -0.00050618, -0.67673051, -0.70594173, -0.39978997, -0.09550594, 0.12844662, -0.01833510, -1.29253948, -1.23531380, 0.63526629, 0.54352440, 1.08961206, 0.98678508, },
		 {1.63212484, 1.91583275, 2.59363576, 2.79665556, 1.07642161, 0.87912616, -0.34252303, -0.95451002, -0.72336861, 0.02016503, 2.64840217, 2.32603085, -0.32267188, -0.45416858, -0.69349646, -0.81511523, },
		 {1.18629814, 1.07484146, -1.03064370, -1.01560520, -0.03025267, -0.04940757, 0.99256590, 0.96692399, 0.28365025, -0.32633609, 0.06498076, -0.00432590, -0.51532984, -0.46945890, -0.51655804, -0.51360203, },
		 {1.71656172, 1.89556790, 1.31536292, 1.46574796, -0.66380095, -1.11633544, 3.50889229, 2.18918850, 1.81042077, 1.49760727, -1.08271199, -1.13040006, -0.91364252, -0.68734587, -0.64345540, -0.74944954, },
		 {1.72669415, 1.62199242, -1.63218386, -1.05320146, 1.35368878, 1.73535014, 3.63026401, 2.18918850, 1.45910714, 1.23171579, 1.13319340, 0.57047424, -0.01915915, 0.03359243, 0.15044490, 0.12531880, },
		 {1.18292067, 1.48689342, 2.15751914, 2.36805820, 0.91504159, 1.24211149, -0.23824592, -1.33999344, -0.42860204, -0.39250817, 2.55874861, 2.90273851, -0.33031704, -0.06426558, -0.81638209, -0.77267534, },
		 {0.25749251, 0.28788978, -0.09073721, -0.01554469, -0.71887128, -5.23703306, -2.52379509, -2.09557514, -0.18797627, 0.35102546, -0.30189942, -0.03675378, -0.50233307, -1.26761328, -0.58539088, -0.51001258, },
		 {0.71682911, 0.53782294, -1.80512666, -1.66978012, 0.76371789, 0.32554958, -0.15875599, -0.47158732, -0.52725861, -0.13864798, -0.12004893, 0.12792900, -0.59866205, -0.51303629, -0.86156684, -0.76338502, },
		 {1.79762112, 1.63212484, -0.79002764, -1.06823996, 0.47687328, 0.43281701, 0.69426498, 0.55152500, -1.03858837, -0.59102443, -0.01322767, -0.09652282, -0.35478154, -0.39988797, -0.77225306, -0.74902725, },
		 {0.36894918, 0.24060513, -1.33141378, -1.27877902, 1.64915309, 1.53087159, -0.24166484, -0.16302964, 1.00913695, 0.85273020, -1.03438809, -1.03184472, 1.93953007, 2.03662356, 1.59867952, 1.69601676, },
		 {-0.63753837, -0.60038615, 0.20251362, 0.24010988, -0.17343554, -0.35828031, 0.63870750, 0.56861961, -0.67404033, -1.14686997, 0.20168654, 0.27798745, -0.81807805, -0.88459092, -0.61157270, -0.70151992, },
		 {0.47702838, 0.73033901, 2.06728812, 2.23271166, -1.62154589, -2.73636101, 1.12932277, -2.05882173, -1.13965120, -2.91426627, 1.05498498, 1.63932273, -0.97251022, -0.65523621, -1.57143195, -1.61408298, },
		 {1.44636372, 1.32139714, -0.76746988, -0.90281642, 0.05067678, 0.09808515, 1.19257282, 0.51477159, -0.22647639, -0.48755535, 0.01411349, -0.07108919, -0.54132337, -0.58337173, -0.59658150, -0.57757857, },
		 {1.78411122, 1.57808524, 2.27030792, 0.52584146, 1.21577350, 0.66507016, -1.75453770, -1.81607829, 0.68068277, 0.51465099, 1.73088381, 1.41423506, -0.68428781, -0.60324914, -0.71292168, -0.52880437, },
		 {-1.32992076, -1.32316581, 0.02957083, 0.02957083, -0.40473094, -0.59292782, 0.46434250, 0.28484911, -0.94835371, -1.30568298, 0.31677374, 0.35619587, -0.93810702, -0.99468118, -0.62487476, -0.68230584, },
		 {2.02053447, 1.89556790, -2.34651280, -2.04574272, 0.92749227, 1.62377285, -1.00066546, 2.16952970, 1.14148112, 0.95499615, 2.20712861, 2.30250474, 0.23695361, 0.47777605, 0.03537158, 0.20745370, },
		 {0.89583529, 0.68643184, -2.14349300, -2.23372402, 1.16644964, 1.25073119, 0.07202123, 1.17975187, 1.36405996, 0.55796363, 1.10521640, 1.11729738, 0.07181822, 0.19414073, -0.00495686, 0.16712525, },
		 {-1.49203956, -1.47852966, -0.00050618, 0.08972484, -0.08053428, -0.16098485, -0.11003635, 0.10706518, -0.55853996, -0.74983744, 0.23602195, 0.28625338, -0.69728457, -0.74392003, -0.50262255, -0.52922666, },
		 {1.67940950, 1.85503820, 1.78155654, 1.81915280, -1.76903862, -0.17056230, 1.70028270, -0.08695863, 1.90667108, 2.80781460, -0.76606324, -0.09143609, -0.89988123, -0.93810702, -0.87508004, -1.04040555, },
		 {0.57159769, 0.83166326, 1.69132552, 1.93194158, -1.48458837, -1.96537633, 0.96948818, -0.25961418, -1.38869887, -1.62330900, 0.63087912, 0.93735442, -1.34330034, -1.31883583, -1.50872227, -1.61091582, },
		 {0.55133284, 0.42974373, -1.20358650, -1.21862500, 1.50070262, 1.94174417, 0.35664646, 0.08056853, 2.13646869, 2.18700010, 0.09995201, -0.53906806, 0.54123086, 0.71936301, 0.49545370, 0.71229828, },
		 {-0.88747153, -0.89422648, -0.16592973, -0.09073721, 0.54774640, 0.48980284, -0.57757390, -0.43996230, 1.15712180, 1.06207462, -0.03802546, -0.01004846, 1.20253693, 1.21476918, 1.17491412, 1.19391705, },
		 {0.57835264, 0.78437861, 0.61607248, 1.42815170, -1.12687063, -0.18780171, 0.24724097, 1.15325522, -1.46930850, -0.18436688, -0.10987548, 0.18388300, -0.22252033, -0.45263955, -0.45954924, -0.54865188, },
		 {0.00418188, 0.05484401, 0.27770614, 0.35289866, -0.75813883, -0.70689947, -0.12371204, 0.34468024, -0.06646025, 0.28846276, -0.87288451, -0.94982125, 0.94336611, 0.74994364, 1.16499036, 0.96123670, },
		 {-0.55310150, -0.54296907, 0.08972484, 0.08972484, 1.19374537, 1.17842145, -1.28187177, -1.05964186, 0.88762093, 1.37127874, -0.27137906, -0.16137859, 1.47699807, 1.70253020, 1.97261500, 2.02244492, },
		 {-0.33356562, -0.29303592, 0.27770614, 0.31530240, -0.32811135, -0.27304101, 0.83358604, 0.92247801, 0.11882159, -0.30107038, 0.21821841, 0.18642636, -0.78443936, -0.87771028, -0.63648766, -0.70933223, },
		 {2.01377952, 2.45960623, 2.90944434, 3.38315721, 0.21971876, 1.64340662, 0.40707556, -0.04678630, -1.18897948, -0.60786824, 3.37135323, 3.35990809, -0.52603306, -0.26533320, -0.92638795, -0.81976039, },
		 {-0.93475618, -0.93137870, -0.00050618, -0.00050618, -0.19163269, -0.33577331, 0.46861615, 0.58400476, 0.03821196, 0.12844662, 0.30660029, 0.28879674, -0.61471688, -0.63918138, -0.55498619, -0.59658150, },
		 {-0.37071785, -0.16131440, 1.50334422, 1.65372926, -1.63639094, -0.22323828, 0.27459234, 0.09338949, -0.63794646, -1.12882304, 0.99140089, 1.18978324, -0.87923931, -0.78826194, -1.25513869, -1.28153165, },
		 {-0.60038615, -0.61727352, -0.18848748, -0.18848748, 0.10047952, 0.10718373, -0.46304002, -0.47329679, -0.02194448, 0.06107141, 0.34284321, 0.33648481, -0.65294266, -0.66593943, -0.48383077, -0.48361962, },
		 {0.34868433, 0.29464473, -0.27871850, -0.40654579, -0.35828031, 0.10766260, -2.90842378, -3.52553915, -0.58500879, -0.04721019, -1.66641390, -1.13294342, -0.44728794, -0.52756209, -0.23679264, -0.55583077, },
		 {0.22034028, 0.11563856, -1.27877902, -1.06823996, 1.74109661, 1.87039217, -0.39038793, -0.27756352, 2.09796857, 1.85613967, -1.10560226, -1.25375318, 0.81034038, 0.95636288, 0.72158860, 0.81977042, },
		 {1.49364837, 1.53417807, 2.68386678, 2.15751914, 1.43940695, 1.83734997, -1.63060179, -2.21096375, 0.38952559, 1.11501229, 2.41632026, 2.18360250, -0.60401366, -0.59331044, -0.92871054, -0.81786009, },
		 {0.88908034, 1.20318552, 2.04473036, 2.34550044, -0.32954796, 0.76419676, -0.97160463, -0.07328294, -1.43201151, -0.80397824, 2.12192594, 2.43158044, -0.78443936, -0.53138467, -1.00261083, -0.81025892, },
		 {-0.20859905, -0.00595054, 1.85674906, 1.91690308, -1.00332153, -2.37864327, -1.99728114, -2.60499448, -1.00851015, -1.29244856, 1.52487137, 1.63995857, -0.97633280, -0.82878127, -1.38224720, -1.32946127, },
		 {1.45649614, 1.79086617, 2.49588548, 2.83425182, 0.62676036, 0.72971794, 0.33613293, -0.92630391, -1.01452579, 0.00332122, 2.80672654, 2.83851859, -0.32725898, -0.20417195, -0.77014162, -0.81638209, },
		 {-0.32343320, -0.34032057, -0.37646878, -0.24112224, 1.34459020, 1.22056223, -0.49893870, -0.45534745, 0.46772896, 0.45569767, -0.48502158, -0.31270871, 1.70482375, 1.81109143, 2.19537160, 2.29819858, },
		 {0.05484401, 0.14603583, 0.87924630, 0.90180406, -0.39371688, -0.36977325, -0.66817532, -1.24682782, 0.42682258, -0.02555387, -1.79994048, -1.75861083, 0.53052764, 0.36004064, 0.96355928, 0.65909007, },
		 {1.94285255, 1.93947507, 1.40559394, 0.66870725, -1.16709592, -0.24239317, -0.47073259, -0.39124266, 3.08934675, 1.38210690, -0.44559945, -0.40744900, -0.96180700, -0.64606202, -1.23698033, -1.36535570, },
		 {0.03795663, 0.01431431, -0.00050618, -0.09073721, -0.52780117, -0.19737916, -2.64858573, -3.43664718, -0.05322583, 0.12483724, -1.86924714, -1.56086432, -0.50768468, -0.67358459, -0.38353751, -0.71207710, },
		 {-0.29979087, -0.22548642, 0.54087996, 0.57847622, -0.23042136, -0.27591425, 0.05663608, -0.19978305, 0.27161896, 0.14168104, -1.79421791, -1.91248431, 1.84396560, 1.76751403, 1.78343025, 1.78680855, },
		 {1.96987235, 1.70642930, 0.27770614, -1.65474162, 0.49123945, 0.79580234, -1.64085855, -1.28101704, 0.41118191, 1.01515259, 0.70272914, 0.97041814, -0.60630721, -0.16976874, -0.52183663, -0.25769587, },
		 {0.84517316, 1.06470904, 1.95449934, 2.00713410, -1.67039089, -1.77622170, -0.31602639, -2.18959549, -1.03497898, -2.92389130, 1.51851296, 1.98204095, -0.76073938, -0.44881697, -1.50365482, -1.50872227, },
		 {-1.09012003, -1.05972275, 0.02957083, 0.08972484, -0.28836493, -0.24622415, 0.50964321, 0.27202815, 0.09114963, -0.05924148, 0.26018390, 0.22076177, -0.74850712, -0.82725224, -0.63395393, -0.69771933, },
		 {0.34530686, 0.58510759, 1.55597898, 1.76651804, -1.51188410, -1.47788415, 0.74127515, 0.15407535, -1.04460402, -0.44785210, 1.00538939, 1.26036157, -0.99391666, -0.93657799, -1.33832931, -1.38625893, },
		 {0.66278951, 0.83841821, 1.48078646, 1.69132552, -0.76196981, 0.29873272, 2.37637447, 1.09684301, -1.40674580, -0.41416449, -0.35149500, -0.45577291, -0.19423324, -0.18582357, -0.41098619, -0.39493927, },
		 {0.50404819, 0.69994174, 1.14242012, 1.74396028, -0.38940702, -0.46219564, 2.36013459, 2.56868881, -1.96981011, -1.30808924, -0.08762105, -0.08126264, -0.26303966, -0.14301069, -0.44561376, -0.48193047, },
		 {1.57133029, 1.65238969, 1.51838272, 1.24017040, 0.15171887, 0.51135210, 1.89772543, 0.83444077, 2.37228195, 2.30250048, -0.71901102, -0.78323095, -0.68811038, -0.75080067, -0.74607124, -0.75493927, },
		 {-1.04959033, -1.07661013, -0.33135327, -0.27871850, 0.16800053, 0.11963441, -0.76817878, -0.76305040, -0.15789805, 0.07911834, 0.45538705, 0.48654325, -0.59254592, -0.58184270, -0.59700379, -0.60397153, },
		 {1.27411249, 1.61861494, 2.18007690, 2.42069296, -2.18039007, -0.91808223, -1.48529761, 0.32502144, -2.94434449, -2.05763852, 2.58227472, 2.79337389, -0.78291033, -0.86471351, -1.28533224, -1.09614749, },
		 {-0.09038742, -0.03972529, 0.16491736, 0.27770614, -2.12388312, -1.54109532, -0.63313138, -1.28016231, -1.09152604, -0.48274284, -2.51971233, -2.28381538, 0.86538551, 0.17808590, 1.37043318, 0.83623963, },
		 {1.24033774, 1.05795409, -1.95551170, -1.95551170, 0.73450667, 2.24870143, -0.23397227, 1.77293478, 1.09094971, -0.23610142, 1.80209799, 1.82180905, 0.05652790, 0.06493758, -0.01255803, 0.12278508, },
		 {1.52742312, 1.30450977, -1.10583622, -1.50435658, 0.76754887, 0.33225379, -0.67073951, -1.04254725, -0.64877462, -2.29465490, 0.03000951, 0.08787103, -0.34942993, -0.34942993, -1.06637623, -0.95341435, },
		 {-1.07323265, -1.10362993, -0.24112224, -0.24112224, 0.09569079, 0.12681750, 0.29596060, 0.09937260, 0.22830632, 0.19822810, 0.21122416, 0.14827591, -0.57037497, -0.59331044, -0.40401845, -0.41563135, },
		 {-1.27925863, -1.23872893, 0.14235961, 0.21755213, -0.48566039, -0.63889958, -0.11858366, 0.59255206, -1.20702641, -1.26116721, 0.52405786, 0.70209330, -1.31501326, -1.30201649, -0.69856391, -0.69835276, },
		 {0.04471158, -0.05999014, -0.95545118, -0.91785492, 2.03608205, 1.78084302, -0.27414460, -0.43141499, 1.20404383, 1.29909101, -1.39300233, -1.40381163, 0.75835331, 0.86156293, 0.96102555, 1.06300796, },
		 {0.09199623, 0.11226108, 0.21755213, 0.18747512, -0.91568787, -1.31841962, -0.90237146, -0.16132018, -1.16612003, -0.86413469, -1.10878147, -0.97525489, 2.21246217, 2.06720419, 2.31741266, 2.22662087, },
		 {-0.30992330, -0.33694310, -0.12833347, -0.18848748, 0.19577514, 0.17901460, 0.07202123, 0.09253476, -0.19158565, -0.14225737, 0.33394144, 0.32186047, -0.61624591, -0.63459429, -0.51972519, -0.53830584, },
		 {1.61523747, 1.70642930, 1.51838272, 1.27776666, -0.64416718, 0.20822582, 0.77973802, 0.07202123, 1.69492040, 2.26400035, -1.04710490, -0.72664111, -0.63841686, -0.62083300, -0.68969587, -0.73741435, },
		 {-1.62713856, -1.62376108, -0.03058319, -0.00050618, -0.32092826, -0.31757615, 0.42844382, 0.34980862, -0.52244609, -0.66080591, 0.26908567, 0.25382549, -0.62312655, -0.72404262, -0.49037622, -0.53936156, },
		 {-0.28290350, -0.38760522, -1.01560520, -1.03064370, 1.13005533, 0.97873163, -1.33657452, -1.33059141, 0.27161896, 0.01414938, -0.92184425, -0.65351941, 1.19106920, 1.22012079, 1.17069124, 1.26781734, },
		 {2.10159387, 2.16238842, 1.80411430, 1.10482386, -0.16768907, -0.89222312, 1.11393762, -0.06729983, 3.04964350, 1.52166984, -0.41380741, -0.53970390, -0.68581684, -0.50386210, -1.10311523, -1.26527359, },
		 {0.01431431, 0.04808906, -0.09073721, -0.05314095, -0.57281518, -3.42066977, -2.68362968, -3.40673162, 0.12964975, 0.29808779, -0.74953138, -0.35785341, -0.74162648, -1.05354889, -0.53556097, -0.61452871, },
		 {0.91272266, 0.72020659, -1.65474162, -1.65474162, 2.32723651, 2.29084220, -0.44167176, -0.37756698, 1.64679525, 1.54091991, -1.02993720, -1.13040006, 0.89290808, 1.03663703, 1.00452115, 1.13669711, },
		 {1.68954192, 1.54768797, -0.40654579, -0.97800894, 0.49985916, 0.22067651, -0.48697247, -0.56817186, -0.26497651, -1.39351139, 0.22775602, 0.18070379, -0.52144596, -0.57802012, -1.12064016, -0.99648766, },
		 {-0.66455817, -0.62065100, 0.27770614, 0.31530240, -0.21653406, -0.26442131, -0.34337776, -0.40235416, 0.63977639, 0.47855712, -1.36947622, -1.38473640, 0.80269522, 0.75070816, 1.16583494, 1.13416338, },
		 {0.13928088, 0.18656553, 0.37545642, 0.48072595, -1.68284157, -1.74509499, -0.41773931, -0.67672263, -0.91346297, -0.55974308, -2.11786091, -2.15728304, 0.92578225, 0.15973752, 1.16372350, 0.58350062, },
		 {0.14265836, 0.21020786, -0.14337197, 0.05212858, -1.67757397, -3.05912106, -2.39473079, 0.37545053, 0.61451068, -0.40213320, -0.63635171, -0.85063008, -0.59942656, -0.89911672, -0.63015335, -0.39641728, },
		 {1.44974119, 1.27748997, -1.65474162, -1.44420256, 2.05140597, 1.84644855, 0.70110282, -0.22969861, 0.97183996, 1.52407610, 0.88267210, 0.67665967, 0.68878239, 0.87685325, 0.26720736, 0.44393464, },
		 {-1.24548388, -1.23535145, 0.02957083, 0.05212858, -0.16721020, -0.23808332, -0.12285731, -0.11431000, -0.25294523, -0.39371130, 0.21503920, 0.25191797, -0.76914905, -0.77450066, -0.54295100, -0.55688649, },
		 {0.00755936, 0.03795663, 0.27770614, 0.31530240, 0.61670404, 0.52667602, -0.15448234, 0.00791645, 1.44466960, 1.22930953, -1.21242353, -1.37964967, 2.59166195, 2.63523935, 2.24520152, 2.27497278, },
		 {1.33828452, 1.17954319, -1.82016516, -1.48179882, 1.81005424, 1.73151916, 2.25756694, 2.07379989, 0.90807413, 1.24735646, 1.34047752, 0.60226628, 0.33251807, 0.40820512, 0.15023376, 0.13186425, },
		 {1.98675972, 2.25358025, 3.08238713, 3.11998339, 1.52368850, 1.55098423, -0.62543880, -0.68868885, -0.11097602, 1.51204481, 2.22238879, 1.30487043, -0.67205555, -1.06807469, -0.73678091, -0.91097446, },
		 {1.19980804, 0.99715954, -1.18102874, -1.46676032, -0.06760472, 0.21014131, 1.01393416, 0.49938644, -1.84588784, -2.83967228, 0.18515468, -0.11686973, -0.41900086, -0.50539113, -0.95066948, -0.95383664, },
		 {-0.58349877, -0.61389605, -0.24112224, -0.24112224, 0.10862035, 0.21109906, -0.03909373, -0.14251611, -0.45988339, -0.16992933, 0.38480871, 0.38035782, -0.55508465, -0.58031367, -0.48129704, -0.49333223, },
		 {1.50378079, 1.67265455, 1.85674906, 1.80411430, -1.34188437, 0.12729637, 0.71050486, -0.08012079, 1.76109249, 1.81643642, -1.10878147, -0.76924245, -0.37771701, -0.32420091, -0.63944367, -0.73783663, },
		 {0.80126599, 0.68643184, -1.61714536, -1.36901004, 1.70996989, 1.38577323, 0.62417709, 1.22334312, 0.21627503, 0.49660406, 1.59354218, 1.34047752, 0.00148277, 0.22930845, 0.04022789, 0.11982906, },
		 {-0.45853220, -0.45177725, -0.00050618, -0.00050618, -0.00295694, 0.00757826, -0.57842863, -0.61090838, -0.08691344, -0.00269442, 0.33076224, 0.34665826, -0.58948786, -0.57649109, -0.50937915, -0.50515628, },
		 {1.23358279, 1.45311867, 2.42069296, 1.95449934, 1.86895556, 0.65501384, 1.03957607, 1.34898849, -0.60546198, 1.36165371, 0.29960604, 0.44457775, -0.83336837, -1.18122301, -0.75303898, -0.70130877, },
		 {1.67265455, 1.72331667, 1.35295918, 0.82661154, 0.61287306, -0.48039279, 0.16604158, -1.65966262, 2.39153201, 0.68790154, -0.59247869, -0.25357551, -0.65676524, -0.51456532, -1.10269294, -1.09023546, },
		 {-1.50217198, -1.48866208, -0.00050618, 0.02957083, -0.18875946, -0.39659011, -0.09892486, -0.20063778, -0.63193082, -1.12521365, 0.19151309, 0.25636886, -0.73703939, -0.77985227, -0.49438795, -0.52099206, },
		 {-0.66793565, -0.68144555, -0.18848748, -0.10577571, 0.07988800, 0.07509927, -0.07926606, -0.36303656, -0.03638203, -0.06766338, 0.30532860, 0.29515515, -0.71563295, -0.72557165, -0.51550232, -0.51951405, },
		 {-1.39409278, -1.37045046, 0.08972484, 0.18747512, -0.67242065, -0.80650495, 0.20535918, 0.27459234, -1.66541851, -1.74121563, 0.48781493, 0.55712158, -0.87006512, -0.87771028, -0.77225306, -0.80075745, },
		 {1.95636245, 1.86179315, -0.12833347, -0.56445008, -0.11166099, -0.28118185, 1.00282267, 0.67717037, -1.67744980, -2.30909245, 0.09295776, 0.09232192, -0.23704612, -0.30967511, -0.81638209, -0.81933810, },
		 {-0.50243937, -0.56323392, -1.16599024, -0.84266240, 1.31681559, 1.28329452, -0.45534745, -0.51005019, -0.01592884, -0.19880443, -1.05855004, -0.94028364, 1.06033701, 1.07104023, 1.56933054, 1.68799330, },
		 {1.58146272, 1.35179442, -1.46676032, -1.76753040, -0.12794265, 0.34853546, -0.38696901, -0.31089800, -1.26237034, -2.95396952, 0.16989450, 0.13301573, -0.48780727, -0.46181374, -1.05075159, -1.00915628, },
		 {0.62225981, 0.43649868, -1.78256890, -1.65474162, 0.28149331, 0.36529599, -0.56902659, -0.30491489, -1.35741752, -0.01472571, 0.02810199, 0.12157060, -0.61242333, -0.52985564, -0.87655804, -0.74586009, },
		 {0.18318806, 0.24736008, 0.33034091, 0.42809118, -0.73371633, -0.86971611, -0.05362414, 0.24211258, -0.09052283, -0.47191468, -1.30843550, -1.15329033, 1.72240761, 1.61461089, 1.69158274, 1.55940679, },
		 {1.70980677, 1.61861494, -0.40654579, -0.69227736, 0.07031055, -0.21126646, 0.72418055, 1.01906254, -1.62210587, -1.95056005, 0.30024188, 0.24619540, -0.50692016, -0.57572658, -0.76486303, -0.77689822, },
		 {-0.13091712, -0.23224137, -0.71483512, -0.84266240, 1.56487154, 1.41163234, -0.07926606, -0.23653646, 0.93935548, 0.67827651, -1.46167314, -1.53924573, 1.63448830, 1.72317212, 0.94645664, 1.02648010, },
		 {-1.53932421, -1.55283411, -0.09073721, -0.09073721, 0.04109933, 0.01236698, -0.33824938, -0.40064470, -0.32753921, -0.21083571, 0.19977902, 0.25509718, -0.50462662, -0.48322018, -0.25579557, -0.25600672, },
		 {0.88232539, 1.23696027, 2.00713410, 2.42069296, -1.31698300, -0.29890013, -1.47162193, 0.23783893, -1.28522979, -1.60405894, 3.10747927, 3.38979261, 0.24689231, 0.17885042, -0.80730291, -0.67892754, },
		 {1.94285255, 1.84828325, 3.11998339, 1.89434532, 1.35895637, 1.37475916, -1.14255071, -2.04343658, 0.43043197, 0.76129240, 2.07296619, 1.68128822, -0.79361355, -0.78061678, -0.85797740, -0.67027065, },
		 {-0.27952602, -0.27277107, -0.10577571, -0.00050618, 0.97537952, 0.87337969, -0.01601601, 0.13441655, 0.55676050, 0.74083921, -1.05918588, -1.09797217, 2.68569739, 2.76291347, 1.96332468, 2.03215753, },
		 {0.11901603, 0.31828706, 0.02957083, 0.54087996, -4.03123218, -1.10580024, -0.68099628, 2.34133052, 0.25357203, -2.31270183, -0.60710303, -0.77623670, -1.05354889, -0.41976537, -0.44160203, -0.41119733, },
		 {1.45987362, 1.28086744, -1.61714536, -1.44420256, 1.55577296, 1.44802665, 1.07291056, 0.40451137, 0.55315111, 1.00793382, 0.55394238, 0.37463526, 0.50147604, 0.51829538, 0.16881440, 0.28114285, },
		 {1.60510504, 1.73344910, 1.08978536, 0.97699658, 0.60999983, 0.83123891, 2.39945219, 3.59692952, -1.13122929, 0.93333983, 1.35700938, 0.96088053, -0.41900086, -0.88153286, -0.55477505, -0.55773106, },
		 {0.36894918, 0.18994301, -1.44420256, -1.48179882, 2.32149004, 2.00495534, 0.31476467, 0.02501106, 1.06207462, 0.88040216, -0.76479156, -0.89831814, 1.35467556, 1.57485608, 1.42870884, 1.57629828, },
		 {-1.49203956, -1.48528461, -0.05314095, -0.00050618, -0.15523838, -0.12267506, 0.03954147, 0.08313272, -0.54410241, -0.37205498, 0.30914365, 0.30151356, -0.65294266, -0.71486843, -0.41267534, -0.43927945, },
		 {0.26086998, 0.38583656, 0.93940032, 1.02963134, -0.94873007, -1.06078623, -0.30491489, 0.65152846, -0.27460154, 0.22469693, -1.14375271, -1.02675800, 1.63448830, 1.35161749, 1.72240972, 1.54969418, },
		 {1.22682784, 1.60172757, 2.34550044, 2.60867426, -2.77467081, -1.50757425, -1.71009172, 0.53015674, -2.49557742, -2.25615478, 2.67065660, 2.87285399, -0.67511362, -0.73398133, -1.19411816, -1.04399499, },
		 {0.05146653, -0.08025499, -0.95545118, -1.05320146, 1.72864592, 1.35656201, 0.00877118, -0.83057410, 0.80701130, 0.14529043, -1.61999752, -1.34658595, 1.19642081, 1.32180138, 1.15717805, 1.28703142, },
		 {1.20994047, 1.41258897, 1.46574796, 1.59357524, 0.66459129, -1.44148985, 2.83621944, 1.30197832, 1.22209076, 1.41098199, -1.08716288, -1.26519832, -0.69804909, -0.53444273, -0.50832343, -0.57145540, },
		 {1.03431176, 1.25047017, 2.90944434, 2.74402079, -0.69684315, 2.13281429, 0.32673090, 2.59433073, -1.93852876, -0.16752308, 0.39053128, 0.32440383, -0.41517828, -0.88000382, -0.92153165, -0.86346713, },
		 {-1.10362993, -1.12051730, -0.18848748, -0.18848748, 0.15363436, 0.12681750, -0.35363453, -0.24850268, 0.08513398, 0.11761846, 0.23411443, 0.21821841, -0.51532984, -0.52373951, -0.30710349, -0.30435862, },
		 {2.48324855, 2.13536862, 1.39055544, -1.25622126, 0.64735188, 0.62628149, -2.28532530, -1.91608175, 0.51465099, 0.79738627, 1.38816559, 1.45747224, -0.81884257, -0.35401703, -0.66942608, -0.24460496, },
		 {0.05822148, 0.24736008, 1.36799768, 1.55597898, -2.45238963, -2.07168602, 1.22419785, 0.97547129, -0.52605548, -0.57538376, 0.68174639, 0.78157341, -1.10018435, -1.03061342, -1.37591289, -1.39048180, },
		 {-0.01608297, -0.13091712, -1.55699134, -1.31637528, 1.56199830, 1.53470257, -0.42286769, -0.14080665, 0.74685486, 0.65902645, -1.06045756, -0.90785576, 1.61766896, 1.70864632, 1.70171764, 1.83389359, },
		 {-0.88071658, -0.87396163, -0.09073721, 0.01453232, -0.03887237, -0.08675962, 0.07714961, 0.21732540, 0.60368252, 0.43163510, 0.34920162, 0.30787197, -0.69269748, -0.71486843, -0.61305071, -0.63226478, },
		 {-0.17482430, -0.25926117, -0.94041268, -0.84266240, 1.26557624, 1.13053420, -0.48782720, -0.45876637, 0.42080694, 0.20544687, -0.93456107, -0.97716241, 0.92348870, 0.90743387, 1.28344198, 1.40632761, },
		 {0.84179569, 1.06470904, 1.72892178, 1.95449934, -1.24898311, -1.40222230, 0.75495084, -0.55876983, -0.80397824, -2.60626528, 1.33093991, 1.56175014, -0.89911672, -0.63994590, -1.52434690, -1.58029998, },
		 {-0.96515345, -0.96515345, -0.03058319, -0.00050618, 0.13878931, 0.05929648, -1.13656760, -0.95451002, -0.54049302, -0.46349278, 0.27226488, 0.44712111, -0.61930397, -0.57725561, -0.55139675, -0.53323839, },
		 {0.79788851, 0.65941204, -1.44420256, -1.16599024, 1.74588533, 1.63430804, 2.45415494, 0.70195756, 1.08132468, 1.22329389, 0.60608133, 0.32249631, -0.05050429, -0.03215592, 0.13418683, 0.21421030, },
		 {0.31828706, 0.25073756, -0.71483512, -0.65468110, 1.60461795, 1.66926573, 0.41049448, 0.23271055, 1.74545181, 1.77071752, -0.63190082, -1.01912791, 0.26906327, 0.33098904, 0.45132467, 0.56618684, },
		 {0.28113483, 0.30477716, -0.10577571, -0.05314095, -0.60489964, -3.38858532, -1.73573363, -2.75970068, -0.12421044, -0.12781982, -1.39490985, -0.96253807, -0.70492973, -1.13611658, -0.44730291, -0.62065188, },
		 {-0.83005445, -0.82667698, -0.05314095, 0.01453232, 0.12921186, -0.03791463, 0.00706172, 0.36262957, 0.28846276, 0.42321319, 0.46110961, 0.44648527, -0.55432014, -0.58107819, -0.53070467, -0.55899792, },
		 {-0.44502230, -0.44164482, -0.14337197, -0.09073721, 1.01464706, 0.98591472, -1.25195621, -1.16733789, -0.01833510, 0.34140043, -0.29681269, -0.12704318, 1.28892721, 1.42501100, 1.82819272, 1.88351236, },
		 {-0.80978960, -0.66793565, 0.99203508, 1.08978536, -1.15033538, -1.61244732, 1.33958646, 1.75498544, -0.21324197, -0.09172596, 0.70018578, 0.55012733, -1.27984553, -1.34559388, -1.03554925, -1.10015922, },
		 {0.70331921, 0.98364964, 1.55597898, 2.55603950, -0.93436390, -0.49858995, -0.93570595, -0.61689150, -3.29565811, -0.94233806, -1.20479344, -0.22432683, -0.23857515, -0.51838790, -0.81997153, -0.94898033, },
		 {0.43987616, 0.33179696, -0.69227736, -0.75243138, 1.93743432, 1.84453306, 0.14467332, 0.07629488, 1.74184243, 1.52407610, -0.84617919, -1.14947528, 1.08938861, 1.20635951, 1.03914872, 1.19708421, },
		 {1.18292067, 0.96676226, -1.97055020, -2.04574272, 0.23695817, 0.51805631, -1.22204064, -0.34166830, -1.82423152, -1.48013666, 0.19596398, 0.23284275, -0.48857179, -0.50462662, -0.99965482, -0.92427652, },
		 {1.16603329, 1.02080186, -2.06830048, -1.74497264, 0.86906983, 1.96185681, -0.65535437, 1.87635717, 1.03319953, 0.85032394, 1.71498779, 1.48354172, 0.02365373, 0.01753760, 0.09744783, 0.23933640, },
		 {0.71682911, 0.52769051, -1.14343248, -1.50435658, 1.25312556, 1.67309671, -0.06131672, -0.28952974, 1.46993530, 1.65762341, -0.24022285, -0.79149688, -0.17359132, -0.04515268, 0.42619857, 0.64494344, },
		 {0.07173138, 0.29464473, 2.18007690, 2.15751914, -2.10712258, -2.34847431, -2.18703130, -2.29301787, -0.47793032, -1.56074630, 1.36463947, 1.67683734, -1.13152949, -0.93734250, -1.37464602, -1.23550233, },
		 {-0.03297034, 0.15279078, 1.01459284, 1.29280516, -3.03086758, -2.39109396, 2.40970895, 1.60198870, -2.36203012, -1.86032538, 0.88648715, 0.87631369, -1.23779717, -1.27220038, -1.09635863, -1.25492755, },
		 {0.72020659, 0.96000731, 1.42815170, 2.04473036, -0.26346356, 0.39307060, 4.63884591, 2.20799257, -1.57638697, -0.25174210, -0.68658314, -1.11577572, -0.01533657, -0.17894293, -0.52035863, -0.55540848, },
		 {2.02728942, 1.86179315, 0.10476335, -0.69227736, 0.65309835, 0.53960557, -0.97758774, -2.37507199, 0.45208829, -0.27460154, -0.44051272, -0.16010691, -0.58642980, -0.50768468, -1.32946127, -1.23022373, },
		 {-0.56323392, -0.58349877, -0.12833347, -0.12833347, 0.34183124, 0.20152161, -0.20576616, -0.25704999, -0.23128891, -0.12661669, 0.30469276, 0.31804542, -0.55126207, -0.55279111, -0.40106244, -0.40169587, },
		 {0.80464346, 1.09510632, 1.89434532, 2.00713410, -2.32022083, -1.67901059, -3.37852552, -1.68188561, -1.12160426, -0.89902542, 2.57337295, 3.09794166, -0.15830101, -0.01457206, -1.19285130, -0.88943781, },
		 {0.53782294, 0.52431304, 0.40553343, 0.10476335, -0.73802618, -0.27112552, -0.67586790, -1.29811165, 0.09716527, 0.08874337, -1.48392757, -1.17236555, 0.05423436, -0.13307199, 0.47138332, 0.09787012, },
		 {-1.45488733, -1.47515218, -0.24112224, -0.18848748, 0.07653589, 0.08994432, -0.28525609, -0.30491489, -0.46469590, -0.44544584, 0.11457635, 0.13683078, -0.35248799, -0.35631057, -0.14684543, -0.14114455, },
		 {-0.25588370, -0.29979087, -0.97800894, -0.65468110, 1.17459047, 1.12095675, 0.04039620, -0.08781336, 0.14408730, 0.17175926, -1.46803155, -1.45658642, 1.84090754, 1.80956240, 1.71691999, 1.77709594, },
		 {-0.80303465, -0.80978960, -0.18848748, -0.10577571, 0.14022593, 0.13735270, -0.53740157, -0.52287115, -0.26617964, -0.04841332, 0.39243880, 0.44775696, -0.64529751, -0.63306525, -0.52310349, -0.52690408, },
		 {-0.34707552, -0.34369805, -0.09073721, -0.00050618, 1.17315385, 1.15495670, -0.63227665, -0.48697247, 0.82987075, 1.19682505, 0.11521219, 0.17307370, 1.95252683, 2.09166869, 2.28257395, 2.33282615, },
		 {-0.07687752, -0.16806935, -1.25622126, -1.05320146, 1.48298434, 1.41019573, 0.27202815, 0.28826803, 0.83227701, 0.73001105, -0.99433011, -1.02675800, 2.26827181, 2.36765886, 1.59867952, 1.67828069, },
		 {0.46014101, 0.43987616, -0.10577571, -0.10577571, -0.48853363, -2.79957218, -1.79471003, -0.73826322, 0.23672822, 1.01394947, -0.10860380, -0.31525208, -0.49392340, -0.90981994, -0.73298033, -0.61473986, },
		 {2.08470650, 2.11510377, 1.01459284, 0.56343772, 0.01859232, 0.08754996, 0.39681879, -0.60748946, 1.06207462, 0.01655564, -0.63317250, -0.17345956, -0.36930734, -0.29285577, -0.82630584, -0.81891581, },
		 {0.69994174, 0.93974246, 1.91690308, 2.11992288, -0.98608212, -1.05695525, 0.94470100, -1.10579730, -1.37185507, -2.12381060, 1.26290494, 1.56175014, -0.93122638, -0.77755872, -1.54588356, -1.58705658, },
		 {0.55133284, 0.52769051, 0.08972484, -0.10577571, -1.51715170, -1.03444824, -1.54085509, -1.88958511, 0.31854098, -0.76186873, -2.37855566, -2.15473968, 0.75223719, 0.20102137, 1.12086133, 0.71018684, },
		 {0.40272393, 0.40610141, 0.27770614, 0.12732110, -0.65613899, -0.73898393, 0.49425806, 0.80537994, 0.18138429, 0.22590006, -0.96762480, -1.06681597, 1.27975302, 1.09321119, 1.19180561, 1.06174110, },
		 {-0.19846662, -0.18833420, -0.18848748, -0.06817945, 0.88391488, 0.74935172, 0.22587271, 0.25835246, 0.89363658, 0.89965222, -1.37710631, -1.48647094, 2.44869752, 2.48233621, 2.05221618, 2.10626896, },
		 {2.00702457, 1.86517062, -2.40666682, -2.00814646, 1.15208346, 1.91540619, 0.28655857, 1.97037751, 1.08252781, 0.58443246, 1.32330982, 1.39515984, -0.43505569, -0.36013315, 0.08097862, 0.16606953, },
		 {1.54431049, 1.77735627, 1.61613300, 1.78155654, -1.29974359, -1.42377156, 3.65077754, 3.19435149, 2.88240859, 2.28565667, -0.36039678, -0.72028270, -1.10400692, -0.87847479, -0.81807124, -1.01021200, },
		 {0.21020786, 0.23047271, 0.24010988, 0.20251362, -0.27830861, -0.16194260, -0.70578346, -1.03656414, -0.37807063, -0.43221143, -1.59965061, -1.36693286, 0.13068593, 0.00530535, 0.35905487, 0.14432173, },
		 {1.33490704, 1.10861622, -0.85770091, -1.84272292, 0.98447810, 0.93754860, -1.14596963, -0.72373280, 0.40877565, 0.84430830, 1.51660544, 1.64123025, -0.13689457, 0.04276662, -0.34700965, -0.04866361, },
		 {-0.09376490, 0.09875118, 1.12738162, 1.35295918, -3.11610688, -2.65495269, 1.89345177, 1.28488371, -1.86152851, -0.88458788, 0.83625572, 0.96088053, -1.23856169, -1.31271971, -1.22705658, -1.37380145, },
		 {-0.04648024, -0.00257307, 0.24010988, 0.31530240, -1.23413806, -1.37013785, 0.06090973, 0.44810262, 0.34861921, 0.32696289, -1.36311781, -1.53225148, 2.17194284, 2.22316539, 2.35161794, 2.20022791, },
		 {1.25047017, 1.08159642, -1.29381752, -1.50435658, 0.34326786, 0.31884536, 0.15151116, 0.01902794, -1.75084066, -0.88097849, 0.01665685, -0.00241837, -0.30050093, -0.36319121, -0.82905071, -0.76570760, },
		 {1.52742312, 1.90232285, 2.34550044, 2.74402079, -1.50087003, -0.52492793, -0.26645202, 0.46006884, -2.53287442, -2.18637330, 2.77620618, 3.01528235, -0.83642643, -0.83183934, -1.13499793, -1.00535570, },
		 {2.17589832, 2.09483892, 2.78161705, 1.69132552, 0.88056277, 0.76994323, -0.79296597, -1.65880789, -0.07488215, 0.45088516, 2.80990575, 2.35782290, -0.21869775, -0.28979771, -0.84446420, -0.55730877, },
		 {-0.46528715, -0.41800250, 0.33034091, 0.37545642, 0.41174662, 0.21828214, 0.45664992, 0.56178176, 0.86476149, 0.71196412, -0.42080166, -0.66750791, 2.77896830, 2.77973282, 1.93629829, 1.92806368, },
		 {1.52742312, 1.87868052, 2.02969186, 2.42069296, -1.81836248, -0.74856138, -0.72287807, 0.34297077, -3.31611130, -2.46549920, 2.65666810, 2.97204517, -0.61089430, -0.66976201, -1.21016508, -1.03217095, },
		 {1.97324982, 2.07457407, 1.16497788, 0.99203508, -0.11740746, -0.90658929, 0.20535918, 0.89256244, 0.60127627, 0.03821196, 0.93671858, 0.92336592, 0.00224729, -0.07802686, -0.55646420, -0.56828824, },
		 {-1.53594673, -1.55621158, -0.18848748, -0.21856449, -0.15859049, -0.21557632, 0.52759255, 0.36519377, -0.45386774, -1.02415082, 0.19914318, 0.26399895, -0.87006512, -0.95186830, -0.57293341, -0.61664015, },
		 {-1.09012003, -1.09012003, -0.03058319, -0.00050618, 0.07557815, 0.10622598, -0.45705691, -0.37585752, -0.02675700, -0.00389755, 0.28625338, 0.30977949, -0.61089430, -0.60630721, -0.42471053, -0.42175452, },
		 {0.57835264, 0.74722639, 1.72892178, 1.93194158, -0.68295585, 0.18667656, 0.81050832, 1.99687416, -1.92770060, -1.65940286, -0.09525114, -0.08126264, -0.46104922, -0.34560735, -0.66900379, -0.63458737, },
		 {0.43649868, 0.62901476, 1.25520890, 1.42815170, 0.02912752, 0.54774640, -1.39640565, -1.06135132, -1.10115107, -0.64757149, 1.97949759, 2.40869017, -0.02068818, 0.17502784, -0.84256391, -0.75472813, },
		 {1.23020532, 1.31464219, 2.21767316, 1.91690308, 1.18416792, 1.73822337, -1.47333139, -1.68615926, 0.23432196, 0.51705725, 2.36608883, 2.29169545, -0.26074611, -0.29056222, -0.82292754, -0.77563136, },
		 {-0.15118197, -0.12416217, 0.33034091, 0.31530240, -0.52875891, -0.74185716, 0.49682225, 0.48742022, 0.87558965, 0.90687100, -0.63825923, -0.84299999, 2.15206543, 2.14518479, 2.16792292, 2.14786427, },
		 {1.44636372, 1.29099987, -1.01560520, -1.24118276, 0.17039490, 0.24509900, -0.13396880, -0.16815802, -0.42619578, -0.78954070, 0.02110774, 0.10058785, -0.47710405, -0.49162985, -0.74438209, -0.68948473, },
		 {0.82490831, 1.07146399, 1.84171056, 1.87930682, -2.58886829, -1.56168684, -3.37938025, -2.14942316, -1.70752802, -1.27319850, 2.30059722, 2.85059956, -0.27909449, -0.08567202, -1.25534983, -0.96544954, },
		 {-0.57674382, -0.55310150, 0.12732110, 0.21755213, 0.50704224, 0.37391570, -0.13995192, 0.04466985, 1.31352855, 1.23412205, -0.58929949, -0.82392476, 1.85237528, 1.95023329, 1.70256222, 1.73761207, },
		 {-0.11740722, -0.23561885, -0.90281642, -0.97800894, 1.55337860, 1.31825221, -0.08695863, -0.80065854, 0.94055860, 0.34500982, -2.11722507, -1.90803343, 0.87991131, 1.02822735, 0.98298450, 1.12972937, },
		 {-0.92124628, -0.95164355, -0.24112224, -0.27871850, 0.13064848, 0.18619769, -0.16644856, -0.39551632, -0.22767952, -0.13383547, 0.14636839, 0.13428741, -0.53367821, -0.53291370, -0.36305657, -0.36643487, },
		 {0.58510759, 0.87219296, 1.89434532, 2.04473036, -1.20875782, 0.08850770, -1.13314868, -0.20234724, -1.78934078, -1.57638697, 1.92608695, 2.24782243, -0.67511362, -0.69728457, -1.12085130, -0.98571933, },
		 {-0.34032057, -0.14104955, 1.39055544, 1.55597898, -1.97351716, -1.60813747, 0.68999133, 0.21988959, -0.97241628, -1.16972942, 0.84515749, 0.99712346, -0.64606202, -0.60019108, -1.14703312, -1.16392461, },
		 {1.37205927, 1.61861494, 2.02969186, 2.00713410, 0.76563338, -0.32619586, 1.61310019, 1.72165096, 1.24013769, 2.34100060, -1.17172971, -1.22768371, -0.64912008, -0.59483947, -0.43421200, -0.47791874, },
		 {0.19669796, 0.21358533, 0.40553343, 0.37545642, -1.74174289, -1.74557387, -0.58783066, -0.57757390, -0.92790052, -0.64757149, -1.85589448, -1.78595198, 1.94335264, 1.57256253, 1.87295518, 1.66012233, },
		 {1.10523874, 1.28424492, 1.31536292, 1.46574796, 0.31549326, -1.40940539, 3.00716552, 0.80025155, 1.25457524, 1.24254395, -1.56785857, -1.55832095, -0.99697473, -0.64759105, -0.58011229, -0.69011816, },
		 {0.67967689, 0.83841821, 0.93940032, 1.46574796, -0.26681567, -0.47225196, 0.36775796, 1.16693091, -1.32733930, -1.28162040, -0.08952857, 0.17879627, -0.32343640, -0.37389443, -0.36791288, -0.35862255, },
		 {0.24060513, 0.42298878, 0.84165004, 1.21761264, -1.07850451, -1.20349023, 0.09509895, 0.09082530, -0.03036639, -0.49597725, -1.69693426, -1.63716522, 2.28203310, 2.18341057, 1.99288480, 1.90589360, },
		 {1.47676099, 1.28086744, -1.35397154, -1.63218386, 1.52799835, 2.01070181, -0.06046199, -0.89895254, 1.65642028, 1.75868623, -0.61282560, -1.08207615, 0.16738268, 0.34169226, 0.54465018, 0.80182320, },
		 {-0.96853093, -1.00230568, -0.37646878, -0.27871850, 0.14309917, 0.06408521, -0.19636413, -0.43483392, -0.68727474, -0.36483621, 0.15081927, 0.19342061, -0.53750079, -0.54667498, -0.33244074, -0.32779557, },
		 {1.23358279, 1.03768924, -1.78256890, -1.84272292, 0.03152188, 0.39115511, -0.69809089, -0.24593849, -2.99367277, -2.47392110, 0.26209142, 0.21631088, -0.46563632, -0.59942656, -0.93103312, -0.86959030, },
		 {0.66954446, 0.51755809, -1.50435658, -1.36901004, 2.19458884, 2.32388440, -0.43825284, 0.03612255, 1.21607511, 1.38331003, -0.74889554, -0.73617872, 1.25834658, 1.44183035, 1.09974696, 1.21123083, },
		 {0.80464346, 0.69318679, -1.44420256, -1.25622126, 1.78946272, 1.23397066, 1.38488717, 4.05848395, -0.58260253, 0.90687100, 2.67510749, 1.62787759, 0.46554380, 0.49230185, -0.05035276, 0.01848009, },
		 {-1.34005318, -1.32992076, 0.06716709, 0.05212858, -0.16721020, -0.27687199, 0.14638278, 0.20706864, 0.02497754, -0.27219529, 0.18388300, 0.19850734, -0.62006849, -0.64529751, -0.45427065, -0.48361962, },
		 {0.75060386, 0.97351721, 2.29286568, 2.49588548, -0.77346275, 1.63143481, 1.51053254, 1.27291748, -2.30307680, -0.48153971, -0.36039678, -0.52698708, -0.33261059, -0.51838790, -0.89513869, -0.88394807, },
		 {-0.78952475, -0.80303465, -0.26368000, -0.21856449, 0.76371789, 0.69284476, -0.85023290, -0.92459445, 0.97905873, 0.93093357, -0.63762339, -0.62872162, 0.86844357, 0.89214356, 1.37571177, 1.41962966, },
		 {0.27775736, 0.09199623, -1.50435658, -1.54195284, 1.90774423, 1.93025123, -0.52458061, -0.20234724, 1.74785807, 1.69371727, -1.21178769, -1.43496783, 0.61309533, 0.68572432, 1.02099036, 1.13162966, },
		 {1.51729069, 1.33828452, -1.35397154, -1.36901004, 1.80335003, 1.51315331, 0.57118380, -0.08781336, 1.02357450, 1.91990550, 0.97550487, 0.56793088, 0.49306637, 0.72165656, 0.29761206, 0.48426308, },
		 {-1.34680813, -1.33329823, 0.06716709, 0.08972484, -0.29985787, -0.47320971, 0.44468370, 0.35493700, -0.77871254, -1.00129138, 0.25382549, 0.31804542, -0.92434573, -1.00079730, -0.57103311, -0.62107417, },
		 {-0.59363120, -0.59025372, -0.03058319, -0.00050618, 0.20678920, 0.20391597, -0.74082741, -0.66304694, 0.29207215, 0.41358816, 0.35301667, 0.35492419, -0.63153622, -0.61165881, -0.42365481, -0.40971933, },
		 {0.56822021, 0.41623383, -1.21862500, -1.31637528, 0.91408385, 1.08887230, 1.31907293, 0.92418747, 0.89724597, 1.44106021, 0.86105351, 0.23665779, 0.39750190, 0.31264066, 0.01573522, 0.14812232, },
		 {-0.55985645, -0.50243937, 0.21755213, 0.31530240, -0.23425234, -0.39084364, 0.18313618, 0.13270709, 0.72880793, 0.67827651, -1.02993720, -1.09860801, 2.04273968, 2.03127195, 1.96480269, 1.95297864, },
		 {0.02444673, 0.06497643, 0.46568744, 0.42809118, 0.13016961, -0.05611178, -0.15020868, -0.07755660, 0.38832246, 0.33418166, 0.02237942, -0.06918166, 2.22928151, 2.29273632, 2.08283201, 2.07755342, },
		 {-1.50217198, -1.51905936, -0.21856449, -0.18848748, -0.07191457, -0.10878776, -0.09123228, -0.04935049, 0.03580570, 0.05625889, 0.21376752, 0.20804495, -0.49010082, -0.50080404, -0.32103898, -0.32990701, },
		 {-0.14104955, -0.09714237, 0.31530240, 0.37545642, 0.08754996, -0.08963286, 1.18231606, 1.06179907, 1.00432443, 0.99951192, -0.36357598, -0.76415572, 2.27744600, 2.28814922, 2.05242732, 2.03954756, },
		 {0.08861876, 0.13928088, 0.54087996, 0.40553343, -1.15320862, -1.33326467, 0.63528858, 0.24211258, -0.03758516, -0.75705622, -2.67040662, -2.72190973, 2.35466209, 1.98234294, 1.92299623, 1.80961207, },
		 {1.61861494, 1.99013720, 2.18007690, 2.63123202, -1.17140577, -0.66380095, -0.13054988, 0.21647067, -2.80237528, -1.89160673, 2.69736192, 2.99048455, -0.83642643, -0.83413288, -1.12570760, -0.98909763, },
		 {0.04471158, 0.22709523, 1.74396028, 1.63117150, -1.57653188, -1.18912405, -1.85283170, -1.50068276, -0.81480640, -1.08551040, 1.38816559, 1.64758866, -0.73627487, -0.64147493, -1.08369001, -0.95320320, },
		 {0.56822021, 0.53106799, 0.16491736, -0.18848748, -0.50960401, -0.55797013, -0.01259708, 0.20450445, 1.11140290, 0.66865148, -1.91248431, -2.03901664, 0.32793098, 0.07105370, 0.63945370, 0.44921323, },
		 {-0.76250495, -0.73210768, 0.12732110, 0.24010988, 0.34614109, 0.23935253, -0.53312792, -0.30662435, 0.88641781, 0.86235523, -0.68403977, -0.82837565, 1.07333378, 1.08403700, 1.51928949, 1.52224550, },
		 {-0.24237380, -0.25250622, -0.71483512, -0.35391102, 1.20667493, 1.13484406, -0.19209047, -0.41175619, 0.13325914, 0.02016503, -0.35785341, -0.26056976, 2.17958799, 2.18646864, 1.90716046, 1.95107835, },
		 {-0.18495672, -0.18495672, 0.02957083, 0.05212858, 1.02949211, 0.97394290, -0.81689842, -0.78270920, 0.73241731, 1.07169965, -1.05409915, -0.98670002, 1.90130428, 2.09549127, 2.20782908, 2.29355342, },
		 {-0.18495672, -0.27277107, -0.75243138, -0.80506614, 1.43892808, 1.39966053, -0.34166830, -1.14169598, 0.68308903, 0.01054000, -2.58329642, -2.11976843, 1.34397234, 1.52745610, 1.06997570, 1.20679682, },
		 {-0.10051985, 0.08861876, 1.08978536, 1.33040142, -3.04523375, -2.15022110, 1.71310365, 0.94555573, -1.54390249, -0.40213320, 0.96151637, 1.07596772, -1.23397459, -1.29131327, -1.26780731, -1.39850526, },
		 {0.43312121, 0.41285636, -0.20352598, -0.18848748, -0.07718217, 0.11771892, -2.23746039, -2.61525124, 0.11641534, 0.12964975, -1.60346566, -1.39236649, -0.81043290, -0.87694576, -0.56068707, -0.69117388, },
		 {0.01769178, 0.01431431, 0.10476335, 0.02957083, -0.28261846, -0.11405535, -1.48957127, -2.21352794, -0.25535148, -0.36242995, -2.19225429, -1.80121216, -0.40829764, -0.53750079, -0.06428824, -0.34912109, },
		 {1.77060132, 1.71656172, 2.66882828, 1.80411430, 0.69284476, 1.09701313, -0.76988824, -1.44085163, 0.00933687, 0.39193184, 2.46019328, 1.95533563, -0.47251696, -0.57954916, -0.86769001, -0.66182490, },
		 {0.86881549, 0.73033901, -0.84266240, -1.20358650, 0.90450640, 1.64053339, -0.59124958, 0.93871788, 0.99951192, 0.14047791, 2.56765038, 2.48880611, 0.42349544, 0.46630832, -0.20216507, -0.06323252, },
		 {1.96987235, 1.88881295, -0.45166130, -0.65468110, 0.03343737, -0.40856192, 0.53357566, 0.25920719, -2.33435815, -1.82182526, 0.06879580, 0.11584803, -0.25692353, -0.37542346, -0.72537916, -0.76359616, },
		 {-0.26263865, -0.14442702, 0.56343772, 0.72886126, -1.26430703, -1.56551782, 1.42847842, 1.57549205, -0.82804082, -1.23469838, 0.44012687, 0.55330654, -0.99926827, -0.91134897, -1.10670467, -1.13056391, },
		 {1.52066817, 1.78073375, 2.04473036, 2.00713410, 0.61526742, -1.51092635, 1.71224892, 4.10805832, 2.20504704, 3.31553498, 0.65122603, -0.01767855, -1.22938750, -0.85171674, -0.69645247, -0.85459910, },
		 {-1.42449006, -1.42786753, -0.10577571, -0.09073721, -0.17487216, -0.19115382, 0.32160251, 0.49254860, -0.59944634, -1.09032291, 0.19214893, 0.23792947, -0.62006849, -0.70798779, -0.50008883, -0.55076332, },
		 {-0.95164355, -0.93137870, 0.12732110, 0.14235961, -0.13321025, -0.26442131, 0.01475429, 0.00449752, -0.62110266, -0.82924395, 0.21186000, 0.30278524, -0.67434910, -0.68428781, -0.51254631, -0.54569587, },
		 {-0.64429332, -0.65104827, -0.10577571, -0.12833347, 0.15315549, 0.10766260, -0.81433423, -0.52714480, 0.15972797, 0.24274387, 0.33775649, 0.39498216, -0.61165881, -0.56578787, -0.48720907, -0.49016508, },
		 {0.21358533, 0.18656553, 0.05212858, -0.03058319, -1.57030654, -0.76627966, 0.06945704, -1.36478062, 0.20544687, -0.39732069, -2.14901711, -2.10260073, 0.07487628, -0.21487517, 0.59110179, 0.15509006, },
		 {0.96338479, 1.14576844, 1.63117150, 1.63117150, -0.62501228, 0.04109933, 1.49343793, 1.46266764, -2.90584436, -1.78212201, 0.79874111, 0.78729597, -0.33872671, -0.62542010, -0.38205950, -0.41668707, },
		 {1.46662857, 1.74020405, 2.11992288, 2.04473036, 1.76120925, -1.85284130, 1.70968473, 2.48150631, 0.99830879, 1.67927973, -0.55305656, -0.60837471, -0.92052316, -0.66823298, -0.65105657, -0.78175452, },
		 {0.65941204, 0.86543801, 1.84171056, 1.78155654, -2.34416446, -1.53295449, -2.44003150, -1.81607829, -1.69309047, -1.84468471, 1.66729972, 1.87967057, -0.86777157, -0.74239100, -1.27181904, -1.13098620, },
		 {-0.15118197, -0.10727480, 0.31530240, 0.31530240, -1.04929329, -0.72701212, 0.61135613, 0.09680841, 0.58924498, 0.45690080, -1.15201865, -1.17554476, 1.37378845, 1.13296601, 1.39914872, 1.08918978, },
		 {-0.91449133, -0.77263738, 0.93940032, 1.12738162, -1.66320780, -2.17224924, 1.25667760, 1.45924872, 0.04061822, -0.16150743, 0.69764241, 0.59400035, -0.97174571, -0.98550699, -1.11198326, -1.15611230, },
		 {-0.76588243, -0.80303465, -0.33135327, -0.31631476, 0.24988773, 0.21157793, -0.43739811, -0.53740157, -0.20482007, 0.00933687, 0.22712018, 0.23602195, -0.55967175, -0.55279111, -0.45764895, -0.43653458, },
		 {2.70616190, 2.83788343, 3.38315721, 2.87184808, 0.27526797, 0.76898549, -0.28696555, -1.26990555, 0.68549529, 1.16434057, 3.30331825, 2.17470073, -0.37695250, -0.53673628, -0.89872813, -0.77373106, },
		 {-0.18157925, -0.11402975, 0.33034091, 0.48072595, -0.93196953, -1.14027906, -0.59210432, -0.10490797, -0.74983744, -0.74141554, -1.84381350, -1.73953560, 2.06720419, 1.92271072, 1.91518392, 1.84550650, },
		 {1.78748870, 1.60848252, -0.35391102, -1.06823996, 1.06828078, 0.68518280, -1.41264553, -1.62889233, 0.43283823, -0.56214934, -0.05137812, 0.13683078, -0.62465558, -0.48398469, -1.32566069, -1.15336743, },
		 {1.83139587, 1.93272012, 2.79665556, 2.34550044, 0.87721067, 1.29526633, -0.53227319, -0.81604369, -0.42378952, 0.20424374, 2.74187078, 2.37499060, -0.02986237, -0.19805582, -0.63881024, -0.64662256, },
		 {0.98364964, 0.87557044, -0.99304744, -0.94041268, 0.04828242, 0.01093036, 0.78914006, 0.57203853, -1.19499512, -0.86533782, 0.14509671, 0.16417193, -0.42588150, -0.45263955, -0.50346713, -0.50135569, },
		 {-0.16469187, -0.09714237, 0.31530240, 0.42809118, 0.06839506, -0.34056203, 0.97974494, 0.79170425, 1.05726210, 0.78655811, -0.85444512, -1.26583416, 2.65358773, 2.58095873, 2.09360034, 2.11577043, },
		 {2.00702457, 1.81113102, -2.49689784, -2.33147430, 0.84991493, 1.70470230, -0.10063432, 2.11140803, 1.05004333, 0.62293259, 1.87204048, 1.94007545, 0.29123422, 0.31875679, 0.02840384, 0.13038625, },
		 {1.26060259, 1.60510504, 2.29286568, 2.66882828, -0.05419629, 1.19566086, -0.05789780, -0.50064816, -0.87375972, -0.59824321, 2.49643620, 2.63059863, -0.47863308, -0.23704612, -0.84446420, -0.74395980, },
		 {0.41961131, 0.69318679, 0.39049492, 1.29280516, -2.14208027, -0.20791436, 0.18570038, 1.23103569, -1.02294770, -1.09633856, -0.68213225, -0.44750697, -0.61165881, -0.47939760, -0.35693340, -0.49481024, },
		 {-0.10051985, -0.09038742, 0.01453232, 0.06716709, 0.87290081, 0.70242221, -0.06815456, 0.34297077, 1.60709199, 1.75988936, -0.84172831, -1.00959029, 2.24992344, 2.34548790, 2.32691413, 2.37336574, },
		 {2.55755300, 2.28060005, 1.76651804, -0.63964260, 0.38492976, 0.36098614, -1.88531145, -1.66308154, 0.40276000, 0.67587026, 1.74423647, 1.64504529, -0.81119741, -0.52832660, -0.59425892, -0.32315041, },
		 {0.29464473, 0.50742566, 1.81915280, 1.89434532, -0.35540708, -1.57988399, -1.16477370, -2.17591980, -1.08791665, -1.27680789, 1.33984168, 1.64631698, -1.00920698, -0.87388770, -1.32207124, -1.29166655, },
		 {2.02728942, 1.88543547, 0.35289866, -0.54189232, 0.22498636, -0.31709728, -0.57244552, -1.45452732, 0.86837087, -0.09533534, -0.07363255, -0.11305468, -0.55737820, -0.57419755, -1.24901552, -1.23191288, },
		 {2.72304928, 2.36503693, 1.93194158, -0.71483512, 0.59323929, 0.60233787, -1.90411552, -1.73915255, 0.73001105, 0.45569767, 1.83770507, 1.63423600, -0.49774598, -0.28597513, -0.75451699, -0.48974279, },
		 {-0.19846662, 0.02782421, 1.81915280, 1.95449934, 0.62436600, -0.11692859, -0.43654338, -2.41695378, -1.22747960, -1.03257273, 1.47146074, 2.02337060, -0.88459092, -0.68734587, -1.35690995, -1.35923253, },
		 {-0.87396163, -0.86382920, -0.00050618, 0.02957083, -0.00870341, 0.06791619, -0.28952974, -0.04422211, -0.00149129, 0.26800957, 0.41850828, 0.40451978, -0.59254592, -0.61395236, -0.46715041, -0.47855217, },
		 {-1.14415963, -1.14078215, -0.03058319, -0.00050618, 0.00614164, -0.05515404, -0.05789780, 0.05749081, -0.16150743, -0.14105424, 0.31423038, 0.29324763, -0.53826531, -0.58872334, -0.43484543, -0.46292754, },
		 {1.09848379, 1.34841694, 2.51844324, 2.78161705, -0.84864572, 0.88870360, 0.52844728, 0.46776142, -2.55934325, -1.03738524, -0.78323095, -0.59311453, -0.28903319, -0.37007185, -0.86241141, -0.84720907, },
		 {2.73318170, 2.48324855, 3.24781068, 1.05218910, 1.38625210, 0.66411242, -1.55794970, -1.57846323, 0.51826037, 0.66744835, 2.17024984, 1.69018999, -0.64453299, -0.57266851, -0.77077505, -0.54295100, },
		 {-1.23535145, -1.28939106, -0.59452709, -0.56445008, -0.24718190, -0.16529471, -0.27927298, 0.03184890, -0.12421044, -0.20722633, 0.35810339, 0.34029985, -0.64453299, -0.65905879, -0.38142607, -0.37656977, },
		 {-0.43151240, -0.23561885, 1.21761264, 1.46574796, -2.24455898, -2.04630578, 1.71310365, 0.70024809, -0.15308553, -0.57779002, 0.76694907, 0.72561941, -0.86089093, -0.86241996, -1.11219441, -1.22959030, },
		 {-0.66455817, -0.67131312, -0.18848748, -0.10577571, -0.00439356, 0.03726835, -0.39209739, -0.37842171, -0.19880443, 0.11039969, 0.41342155, 0.45093616, -0.65752976, -0.63688783, -0.53999499, -0.54527358, },
		 {1.36868179, 1.22007289, -1.36901004, -1.74497264, 1.04481603, 1.30388604, -1.57931796, 0.07629488, 0.87679278, 1.28585659, 1.74487231, 1.71880283, -0.44422988, -0.39377184, -0.08329117, 0.08963551, },
		 {0.04808906, 0.08524128, 0.40553343, 0.40553343, -1.24227890, -1.47692641, -0.34081357, 0.21476121, -1.22747960, -0.79435321, -2.11213834, -1.92647281, 2.01292357, 1.72928825, 1.92658568, 1.75598157, },
		 {1.91583275, 1.98338225, 1.96953784, 1.40559394, -0.35492821, 0.20726808, 2.63621252, 0.69597444, 2.10278108, 2.73201748, -0.67958889, -0.93265355, -0.74544906, -0.87923931, -1.08263429, -1.16561376, },
		 {1.16265582, 0.93636499, -1.82016516, -2.03070422, 0.06552182, 0.01093036, -1.21520280, -0.28269190, -0.95075996, -1.84468471, 0.16035689, 0.41914412, -0.47786857, -0.44652342, -1.10754925, -1.04927359, },
		 {1.17616572, 1.40583402, 2.53348174, 2.15751914, 1.66639250, 1.78515287, 1.25582287, 0.94555573, 0.10197779, 0.77091744, -0.87352035, -0.72346191, -0.58795883, -1.06119404, -0.82398326, -0.75198326, },
		 {0.17981058, 0.14265836, -0.05314095, -0.21856449, -0.08484413, -0.19977352, -2.93662988, -3.51528238, -0.20000756, -0.00269442, -1.14502440, -0.54860567, -0.31579124, -0.56425884, -0.22792461, -0.71967828, },
		 {1.80775355, 1.90570032, 1.85674906, 1.35295918, 0.12011329, -0.82422323, 0.99427536, -0.41175619, 2.92451810, 2.73803312, -0.30825783, -0.42080166, -0.72022004, -0.75462325, -1.06553165, -1.09678092, },
		 {0.00755936, 0.25073756, 1.72892178, 1.99209560, -0.38797041, -0.61208272, -0.49466505, -1.21862172, -1.23951089, -0.91947861, 1.15290447, 1.30804964, -0.90829091, -1.00461988, -1.30180145, -1.33283957, },
		 {1.88205800, 1.79762112, 0.61607248, 0.01453232, 0.00853600, 0.43712686, -1.74000728, -1.51008480, -0.27700780, 0.12964975, -0.04819891, 0.16353609, -0.27909449, -0.39606539, -1.07228825, -0.99184250, },
		 {0.51755809, 0.35881676, -1.21862500, -1.33141378, 1.20475944, 1.45999846, 0.44553843, 0.04808878, 1.52648236, 1.71296733, 0.15972105, -0.39473218, 0.16432462, 0.35621806, 0.33730707, 0.52987012, },
		 {2.06444165, 1.89556790, -2.18108926, -2.30891654, 0.79484460, 1.80909650, -1.16477370, 1.09940720, 1.21968450, 0.99830879, 1.78238692, 2.08886221, -0.14377521, 0.07487628, -0.08983663, 0.13819857, },
		 {0.22034028, 0.11563856, -0.75243138, -0.79002764, 1.89864565, 1.86751894, -0.07157348, -0.04251265, 2.00412452, 1.72620175, -1.49537271, -1.67150063, 0.82945327, 0.90514033, 0.99523083, 1.09700209, },
		 {-0.90773638, -0.92800123, -0.18848748, -0.18848748, 0.14836676, 0.02864864, -0.50919546, -0.60663473, -0.28422658, -0.02916326, 0.38671623, 0.44457775, -0.56731690, -0.54973304, -0.50220027, -0.51486889, },
		 {1.08835137, 1.30113229, 2.21767316, 1.80411430, 2.35022239, -0.71551918, 0.67973456, 1.71737731, 1.00071505, 2.54192312, -0.02721617, 0.08850687, -1.03290696, -1.12923594, -0.82018268, -0.79041141, },
		 {1.56119787, 1.66252212, 1.57853674, 1.27776666, 0.66028144, 0.16608504, 0.70195756, -0.79211124, 2.29648483, 1.59024819, -0.75906899, -0.27392242, -0.39224281, -0.33643316, -0.73065775, -0.70236449, },
		 {-0.09038742, -0.06674509, 0.18747512, 0.12732110, -0.60442076, -0.85008234, -0.48355355, 0.00022387, 0.62894823, 0.67466713, -1.66704974, -1.69439090, 2.42652656, 2.42270399, 2.48970592, 2.49076164, },
		 {-0.94826608, -0.95502103, -0.27871850, -0.09073721, -0.06808360, -0.11788633, 0.27288288, 0.31903832, -0.35160179, -0.12661669, 0.37399942, 0.26527063, -0.38842023, -0.42893956, -0.31364895, -0.32336156, },
		 {1.20656299, 1.46662857, 2.25526942, 1.99209560, 2.49532075, -2.18039007, 1.42591423, 1.82250915, 1.33277861, 2.25918784, -0.56259417, -0.69866411, -1.07113275, -0.73092326, -0.84594221, -0.85312109, },
		 {0.08524128, 0.25073756, -0.00050618, 0.35289866, -4.07385183, -0.79549088, -0.96647624, 4.06446706, 1.21246573, -1.78452826, -0.36739103, -1.29508284, -0.95721991, -0.29362029, -0.54041728, -0.42893340, },
		 {0.11901603, 0.51418061, 0.52584146, 1.85674906, -4.49717509, -0.49763220, -0.66133748, -0.92203026, -0.29024222, -1.75445004, -1.27410009, -0.92820266, -1.18275204, -0.51303629, -0.60481610, -0.87212402, },
		 {0.99715954, 0.79451104, -1.44420256, -1.61714536, 1.38242112, 1.69704034, -0.59808743, -0.63825976, 1.27262217, 1.22930953, 0.66839373, 0.51706361, 0.73924042, 1.01523059, 0.35250942, 0.61284960, },
		 {-0.80303465, -0.78614728, 0.14235961, 0.18747512, 0.12011329, 0.19050754, -0.21003981, -0.23910065, -0.24572645, -0.21564823, 0.28053081, 0.25764054, -0.48933630, -0.50080404, -0.37129118, -0.38987182, },
		 {1.85841567, 1.78411122, 0.91684256, 0.21755213, -0.29171704, 0.71199966, -2.11950759, -1.02887156, 0.44246326, 0.19582184, -0.03421042, 0.12538564, -0.37771701, -0.45493310, -1.13373106, -1.13478678, },
		 {1.00391449, 1.27411249, 2.00713410, 2.08232662, -2.76126238, -1.86912296, -2.26481177, -1.53829090, -2.97682897, -2.37285828, 2.31331404, 2.56637870, -0.89147156, -0.91440703, -1.38668121, -1.27920907, },
		 {1.45649614, 1.80099860, 2.40565446, 2.78161705, 0.31118340, 0.81495724, 0.09851787, -1.49726384, -0.97482254, -0.18196062, 2.63504951, 2.66811324, -0.38536217, -0.28291707, -0.82166068, -0.85713282, },
		 {1.31801967, 1.50378079, 1.39055544, 1.46574796, -0.08436526, -1.29734923, 3.06785138, 1.35668106, 2.89925239, 3.00272147, -0.52126451, -0.80039865, -1.29590036, -0.97174571, -0.84045247, -0.85987769, },
