// support vectors for LM
// file created on 2017-11-09
#ifndef INC_SVM_PRECALC_H
#define INC_SVM_PRECALC_H


#define NUMSUPPORTVECTORS 254
#define VECTORLENGTH 5
#define PERIOD 3
#define NUMSENSORS 8 // may reduce this later
#define OFFSET -0.99699690
#define GAMMA 0.10000000

float sensor_means[NUMSENSORS] = {-7432.807971, -2997.037362, -812.549994, 189.933104, 284.807022, 31.769304, 329.817400, 0.079587, };
float sensor_scales[NUMSENSORS] = {6097.47862911, 3825.92262916, 2549.91185011, 1087.33865172, 1675.61688933, 6051.90377120, 70.65829825, 153.77424529, };
float weights[NUMSUPPORTVECTORS] = {
-8.00000000, -0.10424789, -0.00235547, -0.00155727, -0.00277265, -0.00217920, 
 		-0.00256426, -0.00287452, -0.00138689, -0.00062510, -0.00310291, -0.00129449, 
 		-8.00000000, -0.00156774, -0.38936197, -0.00236658, -0.00091072, -0.00172950, 
 		-0.00315643, -0.00218481, -0.00071106, -0.00096307, -0.89341911, -0.00241568, 
 		-0.00152911, -0.00185958, -0.00138155, -0.00182667, -8.00000000, -6.13123420, 
 		-0.00272313, -0.00180972, -0.00232618, -0.00198774, -0.00066739, -0.00203733, 
 		-0.00234818, -0.00213484, -8.00000000, -0.00052152, -0.00064831, -0.00207672, 
 		-0.00261398, -0.00169188, -0.00091630, -0.00243796, -0.00151987, -8.00000000, 
 		-0.00144369, -8.00000000, -0.00079538, -0.00223479, -0.00246017, -0.00085136, 
 		-8.00000000, -0.00252212, -0.00172570, -0.00214130, -0.00261271, -0.00100588, 
 		-4.83018514, -0.00287422, -8.00000000, -0.00101102, -8.00000000, -0.00129188, 
 		-8.00000000, -8.00000000, -0.00124417, -0.00088427, -0.38892148, -0.00163116, 
 		-0.00139003, -0.00093965, -0.00295046, -0.00261691, -2.05604189, -0.00282216, 
 		-0.00257541, -3.20570522, -0.00274611, -0.00264187, -0.00137553, -8.00000000, 
 		-0.00328298, -1.77633473, -0.00233803, -8.00000000, -0.00136982, -8.00000000, 
 		-8.00000000, -0.00312442, -0.00087118, -0.00300675, -8.00000000, -0.00118829, 
 		-8.00000000, -0.00139469, -0.00291122, -0.00309654, -0.00099048, -0.00201206, 
 		-0.00280929, -5.86047666, -0.00327372, -0.00120213, -0.00052381, -0.23037580, 
 		-0.00249727, -0.00056672, -0.00390091, -0.00074702, -0.00202911, -0.00302592, 
 		-0.00094811, -0.00172469, -0.00078503, -0.00181485, -8.00000000, -0.00224499, 
 		-0.00097878, -1.17240825, -0.00224371, -8.00000000, -0.00172582, -0.00313478, 
 		-0.00314592, -8.00000000, -0.00246802, -0.00185044, -1.10530739, -0.00161667, 
 		-0.00315747, -0.00224338, -0.00084783, -0.00308780, -0.00057942, -0.00136451, 
 		-8.00000000, -0.00201029, -8.00000000, -0.00150112, -0.00116449, -1.45909395, 
 		-8.00000000, -0.00265709, -8.00000000, -2.68465555, -0.00089223, -8.00000000, 
 		-0.00072331, -0.00288827, -8.00000000, -0.00211945, -0.00184905, -0.00125713, 
 		-0.00095063, -0.00053926, -8.00000000, -0.00121432, -0.00176842, -0.00280242, 
 		-0.00143510, -8.00000000, -0.00318811, -0.00109938, -8.00000000, -0.00162249, 
 		-0.00097823, -0.00073589, -0.00278777, -0.00185903, -0.00134519, -0.00259165, 
 		-0.00180791, -0.00205545, -8.00000000, -0.00148333, -0.00064329, -8.00000000, 
 		-0.00283514, -0.00151291, -0.00182576, 6.22043802, 1.25690120, 2.53126272, 
 		0.22311999, 1.15480243, 1.36288021, 0.58226879, 1.67173307, 5.80977391, 
 		2.04001229, 0.92810559, 4.18052949, 2.18312828, 4.18035731, 3.73356890, 
 		1.12779585, 1.50894355, 1.94149909, 6.70503477, 0.86728213, 3.15876499, 
 		18.90372390, 0.35304722, 2.31781455, 0.68516028, 0.35078931, 13.99561268, 
 		3.08881574, 7.11806853, 3.93911341, 19.43056624, 0.72158904, 1.75857327, 
 		0.65655819, 6.50492804, 3.87729686, 10.02130081, 4.01585989, 7.75140320, 
 		9.48667846, 1.46920875, 1.20245971, 1.44698971, 11.07023633, 2.51586663, 
 		0.42083008, 9.71847411, 5.29696460, 8.31836117, 2.53869095, 2.95124600, 
 		0.40296975, 3.10055201, 6.33243198, 10.16371906, 1.94783762, 12.18324900, 
 		1.48830283, 2.11587421, 4.12749539, 2.71517310, 2.31586226, 0.69671495, 
 		0.21442643, 3.89224010, 3.63282390, 3.50879730, 1.99220639, 0.71251097, 
 		2.90886803, 0.79611664, };
float support_vectors[NUMSUPPORTVECTORS][VECTORLENGTH * NUMSENSORS] = { 
		 {-0.46071371, -0.50663433, -0.60634768, -0.56272309, -0.55353897, 0.09175234, -0.14557603, 0.04993236, 0.49426963, 0.65579929, 0.15159347, -0.13704396, -0.07037498, -0.39352341, -0.21547804, 0.93721206, 0.92065788, 0.91973820, 0.93905141, 0.84616407, -0.96609615, -0.90283586, -0.94938588, -0.94222434, -1.07232568, -0.52607732, -0.58837177, -0.61315735, -0.67627799, -0.72584917, -2.00708768, -2.00708768, -1.99293506, -1.90801935, -1.80895101, -0.20861482, -0.02652972, 0.02549460, 0.28561618, 0.46770129, },
		 {-0.01659572, -0.10778095, -0.23373465, -0.17010179, -0.75034163, 0.39076518, 0.82517021, 1.10118206, 1.21670975, -0.35519867, -0.32607010, -1.19041370, -1.30100576, -0.89550155, -0.96687656, 0.33298448, 0.74224060, 1.03193876, 0.48749016, 0.41851441, -0.11029193, -0.28157213, -0.48925684, -0.73871720, -0.94938588, -0.32415739, -0.43850157, -0.57663992, -0.71725683, -0.77426368, -1.20038838, -1.35606719, -1.55420386, -1.76649315, -2.17691911, -0.50125160, -0.61830632, -0.89143398, -1.07351909, -1.05400997, },
		 {-1.47982348, -0.73230138, -0.73033336, -0.61979586, -4.15502761, -0.28776396, 0.92083341, 0.56850009, -0.31756069, -3.10433947, -2.29790297, -1.65239046, -2.41555409, 0.00021569, 1.00887801, -2.74793239, -0.70165178, 1.38325525, 1.87436259, 1.09355709, 1.22712596, 0.37908008, -0.27679777, -0.46896580, -1.48053355, 1.18759831, 0.30969275, -0.42627401, -0.74914762, -0.56507331, 1.33293049, 1.00742024, 0.71021524, 0.58284166, 0.55453642, 0.46770129, -1.10603428, -1.57425313, -1.10603428, -0.14358443, },
		 {0.85753609, 0.59447654, 0.27532823, -0.46530578, -1.06522588, 0.14873206, -0.04154884, 0.15343681, 0.43258516, 0.27523750, 1.01436840, 1.09515550, 1.00652499, -0.66019930, -2.53242088, -0.64279248, -1.06032569, -1.45118828, -2.04989779, -1.63420394, 2.31388989, 2.70419390, 3.01154340, 3.31590891, 2.87129654, 2.26808476, 2.36293094, 2.36144381, 2.23074114, 2.02171600, -0.33707860, -0.20970502, -0.03987359, 0.08749998, 0.12995784, 0.25310098, 0.59776208, 0.87739278, 0.56524688, 0.33764050, },
		 {-1.84062835, -1.60938523, -0.25538294, 4.07132349, 1.98160727, 1.06929433, 1.04263409, -2.27055366, 1.17384427, 0.16441455, -2.29947165, -1.21708129, 0.58062791, -2.12691666, -3.80383738, 0.13525399, -0.34205820, -1.61305137, -1.89447244, -1.08515696, 0.77654563, -0.79362235, -1.37549761, -1.85293371, 0.60407184, 0.29779566, -0.85638660, -1.37787540, -0.39322656, -0.86514418, 0.11580522, -0.03987359, -0.22385764, 0.04504213, 0.61114690, -0.07855403, -0.56628200, -0.85891878, 0.07751892, 2.77628033, },
		 {-0.31770378, 1.91207033, 1.64999479, 0.67418161, 0.44556252, -0.52038759, 0.26060050, -0.98249834, -1.52720355, -1.08338904, -0.64608116, 0.93985602, -0.34489428, 0.57984357, 1.06142885, 2.08956694, 0.32930577, 1.01814361, 2.07209308, 1.43659650, -0.49641838, -0.31976702, -0.28395931, 0.43816279, 0.50858462, -0.68106987, -0.65182287, -0.32019169, 0.17287629, 0.47790428, 1.19140429, 1.70089859, 1.44615144, 1.14894644, 1.00742024, 3.21848702, 3.44609341, 0.37015570, -1.34664675, -0.81339750, },
		 {1.49812874, 1.44335200, 1.38923127, 1.12945176, 0.90017666, -0.43936138, 0.01438538, 0.13618607, -0.06141333, -0.02534360, 0.38924875, -0.16684891, -0.43430913, 0.37042457, 1.22614042, 1.04389455, 1.73181271, 2.23303650, 2.58711202, 2.29649419, 1.02003805, 1.30829009, 1.44018182, 1.84898648, 2.29359885, 1.92472173, 1.99048616, 2.01213224, 2.10367368, 2.20678173, -0.13894193, -0.15309455, -0.11063669, -0.06817883, 0.05919474, -0.33867562, -0.17609963, 0.04500372, 0.12304019, 0.50021649, },
		 {-0.95993646, -0.12844523, -4.15502761, -0.86514318, 0.16971080, 0.15239131, -2.06563577, -5.21206636, 3.71074868, 6.60416841, -2.36849364, -0.06488460, 2.85286332, -1.54258274, 4.58782526, -0.29607437, 0.14077205, -0.26664471, 2.41605216, -1.67466971, -0.53700045, -0.84673712, -3.50665302, -0.97624166, -1.61421566, -0.71709159, -1.25642601, -0.32283549, -0.62406301, -1.01650151, 0.21487356, 0.04504213, 0.07334736, 1.07818334, 1.71505121, -0.61830632, -0.91094310, -0.45573033, 3.38106301, 3.38106301, },
		 {-0.58338737, -0.18092594, -2.50352530, 0.16347871, -0.01397168, 0.68141403, -0.19000976, -0.26999047, 0.88528642, 1.92033088, -0.12998489, 0.66690540, 0.68651393, -0.95040541, 1.31006489, 0.46265889, -0.85615747, -1.95425142, -2.41868814, -2.10139969, -0.12819578, -0.64263319, -0.92193331, -0.11745347, -0.69932872, -0.38265138, -0.54987148, -0.32647071, -0.41008076, -0.25161823, 0.80928357, 0.63945214, 0.73852047, 0.95080976, 1.43199882, -0.22812394, -0.39069993, 0.05800980, 0.94242318, 1.49518154, },
		 {-0.15763762, -0.44365748, 0.12083814, 0.00964464, -0.46464977, 2.35996340, 0.88737742, 0.00183939, -1.14507351, -0.84449241, 1.16339316, 0.90299200, 1.58693721, 1.14143161, 1.22221872, -1.54223627, -2.28717438, -1.62040879, -0.34481723, 0.62544166, -0.77213773, -0.60861586, -0.55311392, -0.43375489, -0.24039327, -0.32845355, -0.55515908, -0.62670681, -0.57416136, -0.59250270, 1.50276192, 1.77166169, 1.87073002, 1.95564574, 1.95564574, 1.44315722, 1.60573321, 0.94242318, 0.46770129, 0.20757971, },
		 {-2.01119065, 2.53167070, 1.27049366, 0.28549636, 0.14051840, -1.03215957, 1.76873346, 6.37206753, 0.81732896, -2.19475495, 0.51474328, -5.89175269, 6.08670060, 3.05522326, -1.14492193, -0.58393317, -0.65014989, -0.63543506, -4.49991647, -0.86351488, -2.95103675, 1.73082105, -2.37871022, -1.78967343, -1.15169943, -0.25872343, -0.85919564, -0.96726080, -1.41984566, -1.27179307, 0.00258427, 0.73852047, 1.27632001, 1.50276192, 1.63013549, -0.22812394, 2.84131073, 3.18597182, 2.01542470, 0.89039886, },
		 {-0.81627052, 0.10673395, 1.97931124, 1.68443526, 1.27442972, -2.78075739, -1.53399930, -0.29874170, -0.64689302, -0.61291429, 0.12806325, 0.35081605, 0.08021846, -0.31744235, 0.94691508, 1.77595719, 2.21188394, 0.36149446, 0.91605949, 1.26093825, -0.32394459, 0.00071196, 0.13797484, 0.08426328, 0.40474227, -1.12324478, -0.51335405, -0.36199672, -0.09827805, 0.28408097, -0.09648407, 0.42716285, 1.02157286, 0.79513095, 0.61114690, 1.56021193, 2.40560708, 2.14548549, -0.50125160, -0.92394918, },
		 {-0.32196784, -0.41249706, -0.54205881, -1.07834606, -0.64341218, -0.51045534, 0.09070684, 0.64116230, 0.77498623, 0.69239178, -0.25312640, -0.05547251, -0.18175138, -0.41470061, -0.64372814, 1.12390642, 1.43383746, 1.54327899, 0.69901580, 0.40471926, -0.74408836, -0.73633002, -0.77870248, -0.97743526, -0.97087051, -0.80499781, -0.81805156, -0.90298351, -0.99303782, -1.07301265, -1.69573006, -1.79479839, -1.87971411, -1.95047720, -1.90801935, -1.02149477, -0.69634279, -0.48824553, -0.45573033, -0.02652972, },
		 {-1.10393040, -2.28376233, -1.76682735, -1.76846738, -1.47949547, 1.35262468, 0.70493777, -0.07761857, -0.36669917, 0.56379534, -2.34182605, -1.77317895, -1.14649062, -2.63516953, -2.61869837, -1.48797534, -2.35339110, -3.38526833, -1.89815114, -0.96743834, 2.93813760, 2.67912851, 1.99818527, 0.82548283, -0.44151323, 2.03956163, 1.65935069, 1.36985501, 0.66429191, -0.47551472, 0.41301023, 0.44131547, 0.38470499, 0.34224713, 0.20072094, 0.53273168, 0.28561618, -0.05904491, -0.18910571, -0.56628200, },
		 {0.03883703, 0.05392524, 0.02276481, -0.27637523, -0.58830744, 0.26373700, 0.16964205, -0.16178127, -0.37192666, -0.20516950, -0.55117592, -0.51588058, -0.51980228, -0.37940527, -0.24136129, 0.43874730, 0.46449825, 0.60520878, 0.85903954, 1.03561746, -0.70887745, -0.78288004, -0.84733392, -0.85509225, -0.75065311, -0.49749127, -0.52161591, -0.54111391, -0.51632832, -0.47981088, -1.31360933, -1.49759339, -1.66742482, -1.83725625, -1.93632459, -0.85891878, -0.92394918, -0.94345829, -0.89143398, -0.69634279, },
		 {1.04351460, -0.08121259, -1.02324131, 1.89632612, 0.84507192, 0.70650602, -2.58524900, -2.39496810, -1.64064024, -2.47703980, 2.16578075, 0.41591634, 2.11087689, 1.58144682, -0.17939836, -5.88127084, -1.43647345, 0.44150633, -0.36780915, -0.38528301, -1.47635598, -0.98579039, -0.77691209, -0.59787355, -0.21831185, -1.35061125, -1.18487828, -1.29443058, -1.37985824, -1.08887543, 1.87073002, 2.06886669, 2.13962979, 1.82827217, 1.44615144, 1.99591559, 0.97493837, 0.77984719, -0.68333671, -2.04897502, },
		 {0.28746439, -0.23668669, -0.80905442, -1.15247506, -1.59331301, 0.00236214, 0.26373700, 0.88946842, 1.03322460, 0.35887745, 1.20966927, 0.87083402, -0.62333528, -2.13632875, -1.29943708, -0.07719132, -0.33745982, -0.61336282, -0.51311806, -0.91225774, 2.54425281, 2.88084526, 3.12135370, 2.77640612, 2.23511293, 2.28576514, 2.25932718, 2.11871027, 1.81764799, 1.45858742, 0.15826308, 0.29978927, 0.49792594, 0.68191000, 0.76682571, 0.92291406, 0.76033807, 0.87739278, 1.07248397, 0.72782287, },
		 {-2.56912619, -1.81405999, -1.50835986, -1.48933561, -0.58732342, 0.69134628, -0.10009681, -0.60611854, 0.42003917, -1.70598396, -0.88530512, -1.09864582, -2.08142490, -2.61007062, -1.18021727, -2.19152800, -3.42389475, -2.30096953, -2.13174902, -0.92053483, 2.55976948, 1.96953910, 0.52231091, -0.53700045, -0.91298138, 1.74097790, 1.31136102, 0.62463496, -0.21014368, -1.07069933, 0.25733142, 0.25733142, 0.21487356, 0.12995784, -0.02572097, 0.12304019, -0.02652972, -0.12407531, -0.35168170, -0.69634279, },
		 {-0.55124294, -4.15502761, 1.09173125, 2.01178368, 0.51936352, -1.94697158, -4.18799965, 0.11109408, 4.61928771, 3.03065129, -0.05860987, 1.78615978, -2.50575329, 1.54615149, 4.57841317, -0.29147598, 0.53071497, 1.45407035, 3.10948837, -5.05907989, -1.10097185, -3.10799387, 0.18154089, -1.28478475, -1.67091120, -1.29757009, -0.37339809, -0.77062846, -0.65876284, -1.45999831, -0.20970502, -0.02572097, 0.71021524, 1.37538835, 1.60183026, -0.87842790, -0.04603884, 3.00388672, 3.54363900, 2.48364355, },
		 {0.21038335, -0.18289396, -0.98289677, -2.34050710, -1.66711401, -0.31076495, 0.01124888, 0.58836458, 0.25798675, -1.09750328, 1.12260743, -0.56137235, -3.06341963, -1.47591377, -2.22417493, -0.90398065, -1.09159470, -0.11121936, -0.44414231, -0.20318702, 3.08673958, 3.51106092, 3.19595309, 3.02168891, 2.16886867, 2.41845066, 2.34095439, 2.07029576, 1.69652907, 1.10084875, 0.15826308, 0.22902618, 0.22902618, 0.17241570, 0.14411046, 0.81236239, 0.50021649, 0.18807059, -0.18910571, -0.24113002, },
		 {-0.75821373, 0.30091257, 0.67877367, 2.41850917, 1.81465301, -1.70546121, -1.05359230, -0.54966157, -0.79221744, -0.70962299, 0.27159762, 0.37905232, 0.99789724, -0.04684476, 0.76494801, 1.32807465, 2.23947424, 0.58497589, 0.01569603, 0.55922494, -0.56803380, 0.12723253, 0.11350624, -0.07329063, 0.16065306, -1.13431567, -0.44213679, -0.43304874, -0.02986982, 0.20592375, -0.05402621, 0.75267309, 1.31877787, 0.97911500, 0.79513095, 1.98290951, 2.93885632, 3.41357821, -0.81339750, -1.28161635, },
		 {0.47836297, 0.04408510, -0.48170600, -2.17060081, -2.04399110, -0.15655378, 0.52197537, 0.68193678, 0.98826812, -0.64323377, 1.77988506, 0.94299338, -1.36532171, -1.41316650, -3.39362712, 0.42311279, -0.62072024, -0.40735525, -0.70625017, -0.81109331, 2.37118222, 3.14641910, 3.23772875, 2.96021902, 2.02921861, 2.56319850, 2.46653471, 2.32542209, 1.57524492, 1.08002885, 0.12995784, 0.22902618, 0.20072094, 0.15826308, 0.15826308, 0.53273168, 0.45469521, 0.04500372, -0.17609963, -0.07855403, },
		 {-0.53025065, -0.20716629, -0.51680247, -1.03472147, -1.03636149, 0.15866431, 0.72218851, 0.01543088, 0.04784137, 0.39076518, -0.86255923, 0.07315939, -0.27587228, -1.09786148, -0.81785180, 1.36670107, 1.27381372, 0.83972633, 1.05217164, 1.02917973, -0.87060893, -0.98340321, -0.90522304, -0.96609615, -1.00011347, -0.69412361, -0.77442892, -0.90595778, -0.85853469, -0.95156326, -2.30429269, -2.31844531, -2.31844531, -2.30429269, -2.21937697, -0.89143398, -0.28665130, -0.07855403, 0.11003411, 0.38966481, },
		 {1.09140325, 0.79816729, 0.47049086, 0.10279790, -0.65587635, -0.19210076, -0.72530548, -0.27626346, 0.25485026, 1.04420234, 0.66768975, 1.29986846, 1.39634238, 0.13041627, -2.83674512, 1.18092638, 1.10827192, 0.53071497, 0.10398499, 0.37069122, 1.81854993, 2.49471881, 3.20072745, 3.59878980, 3.40841216, 2.30691551, 2.42737348, 2.42406873, 2.34789435, 2.12333692, -0.05402621, 0.10165260, 0.25733142, 0.29978927, 0.31394189, 0.04500372, 0.53273168, 0.84487758, 0.48721041, 0.12304019, },
		 {-0.06973243, 1.76020428, 1.50698486, 0.88968052, 0.92510500, -1.44356360, -0.48536335, -0.60089104, -0.01018385, 0.24596351, 0.40022952, 1.01515274, 0.28806878, 1.62929161, 1.06299753, 2.15946236, 1.39797007, 1.64444342, 0.92341691, -1.30312033, 0.00667991, 0.41846855, 0.39877432, 0.50082628, 0.67449367, -0.87968506, -0.63149869, -0.08902476, 0.17700723, 0.49641085, -0.05402621, 0.34224713, 0.17241570, 0.15826308, 0.03088951, 1.91787911, 2.32106756, -0.53376680, -0.14358443, -0.41671209, },
		 {-0.22553454, 0.02243681, -4.15502761, 0.88410445, 0.99070589, 0.34371771, -0.04154884, -0.86122041, 1.03479284, 1.76402871, 0.19081052, 0.56101939, 0.93358129, -1.09943016, 0.08727752, -0.16823931, -0.83776393, -1.30036130, -2.01127137, -0.88558712, -0.48925684, -0.75005631, -1.05740580, -0.02793420, -0.76975055, -0.49418653, -0.58605844, -0.40925457, -0.44874628, -0.33770684, 0.83758881, 0.75267309, 0.76682571, 0.99326762, 1.19140429, -0.22812394, -0.40370601, -0.20861482, 0.76033807, 1.08549005, },
		 {0.77651899, 0.44785856, -0.03693199, -0.73131737, -2.02004677, -0.47856761, 0.30712523, 0.94749364, 1.45560637, 0.81001046, 1.69988229, 1.80498396, 0.73828042, -1.80925862, -2.20378207, 1.18276573, 0.53715270, -0.16272125, -0.25101021, -0.36780915, 1.78691979, 2.49829958, 3.16372615, 3.12911204, 2.83548883, 2.54353527, 2.52089777, 2.39168223, 2.16927288, 1.92802648, 0.07334736, 0.18656832, 0.20072094, 0.18656832, 0.17241570, 0.72782287, 0.77984719, 0.30512530, -0.05904491, -0.07855403, },
		 {1.27508573, 0.75191866, 0.86475219, 1.17373236, 1.40103943, -1.35992364, -0.43152013, -0.12414329, 0.02274938, -0.03370759, 0.42689711, 1.07633132, 0.71710322, 0.47944794, 0.33042318, 1.67387308, 0.64291552, -1.04469118, -1.74456514, -2.58882833, 0.38624162, 0.47098653, 0.66255776, 0.59452312, 0.46919614, 0.08976195, 0.55391342, 0.82705061, 1.00782017, 1.24477040, 1.16309906, 1.07818334, 0.93665715, 0.76682571, 0.54038380, -1.10603428, -0.51425768, -0.50125160, -0.87842790, -0.92394918, },
		 {0.04408510, 0.27204818, -0.72639730, -0.24357478, -0.85727107, 0.41794817, -0.71171398, -1.02379557, 0.70598327, 0.24439526, -0.63274737, -0.49470338, -0.48685997, -0.58019653, 0.34140396, -0.21698217, 0.49024919, 1.36854042, 1.56443155, 1.13402287, -0.97683846, -0.87001213, -0.86225379, -1.03055002, -1.07710004, -0.81672966, -0.83887145, -0.73047581, -0.72799725, -0.82416534, -1.59666172, -1.87971411, -2.14861388, -2.26183483, -2.29014007, -1.39867106, -1.47670754, -1.49621666, -0.37119081, -0.12407531, },
		 {-0.49220214, -0.26850312, -0.28424733, -0.85431903, -0.50761835, 0.01124888, 0.01386263, -0.17223627, -0.02586635, 0.68402778, -0.21469370, -0.00056865, 0.23394926, -0.37391489, -0.65157155, 0.96388268, 0.72384707, 0.81029668, 0.92249723, 0.88019210, -0.85867302, -0.86165700, -0.93983716, -0.70649027, -0.92014292, -0.52310305, -0.60192122, -0.62323683, -0.65545809, -0.72171823, -2.16276650, -2.14861388, -2.16276650, -2.10615602, -2.00708768, -0.24113002, -0.14358443, -0.00051756, 0.12304019, 0.37015570, },
		 {-0.79298220, -1.16592324, -4.15502761, 2.08788070, -0.56698715, 1.32021419, -0.13668929, -2.94594631, 1.65059202, 2.97105782, -1.45787393, 0.34061962, 1.49124763, 0.16571161, 2.34696348, 0.79374250, -0.22433959, -0.66670407, 1.62788924, 0.72200772, -0.17474580, -0.89149676, -2.18176783, -1.05442183, -1.19824945, -0.42891781, -0.85506470, -0.50806646, -0.44544153, -0.57697039, 0.49792594, 0.35639975, 0.51207856, 1.16309906, 1.61598287, -0.72885799, -0.82640358, -0.02652972, 2.12597638, 2.17800069, },
		 {-1.91770939, -2.31262672, -1.73205888, -1.78421159, -0.91696788, 1.18273102, 0.36201395, -1.56640978, 0.36880970, -0.38029066, -2.82105831, -1.00295624, -3.34499799, -2.57948133, -1.11197962, -0.28687760, -1.25437747, -0.74303723, -0.77614559, -0.30067275, 3.04197995, 2.84682794, 1.28143431, -0.14669643, -0.74349156, 1.95446444, 1.37894306, 0.77433992, 0.03919935, -0.99072449, 0.20072094, 0.28563665, 0.29978927, 0.24317880, 0.04504213, 0.28561618, 0.41567697, 0.27261010, -0.11106923, -0.76137319, },
		 {-3.52460309, -1.14066690, -1.55001643, -1.26071652, -0.90942377, 0.40801593, 0.84503470, -0.50627334, -1.61032076, -1.20780347, -1.35277226, -1.70650997, -0.43430913, -1.43512804, -1.85318171, -2.20440348, -3.29238099, -3.65565328, -2.55755932, -1.39600768, 2.67196697, 2.42370019, 1.18594709, 1.19788300, 0.64584750, 2.19042324, 1.81715227, 1.41744334, 0.91842681, 0.32456410, 0.11580522, 0.38470499, 0.32809451, 0.24317880, 0.20072094, 0.33764050, 1.10499917, 0.46770129, -0.40370601, -0.40370601, },
		 {0.09623781, 0.55413199, -0.51089839, -0.35312826, -0.16780576, -0.33010669, 1.41221815, 3.62972248, 1.32073694, -0.94538311, -0.06017855, 0.25669515, 1.44732454, -0.15429945, 1.06535055, 0.86271825, 0.87467404, -1.01985991, -2.28441535, -0.04224360, -0.65397229, -0.46717542, -0.68918321, -0.64203639, -0.56087225, -0.49451700, -0.30515510, -0.47650614, -0.65958902, -0.64075198, 1.27632001, 1.54521978, 1.84242478, 1.99810360, 2.09717193, 1.03996877, 1.00745357, 1.36512075, 1.11800524, 0.30512530, },
		 {-1.70909857, -1.23382016, -0.46169773, 0.45769869, 0.87852837, -0.22607949, -1.55229554, -2.24075693, -1.27628369, -0.32435644, -0.12763187, -0.06723762, 0.23630228, 0.08257148, 0.62847270, 0.38724540, 0.33482383, 2.46019664, 2.62389909, 0.90226434, -1.00727501, -0.92611087, -0.12342142, 0.26270503, 0.14394279, -1.45471072, -1.45388454, -0.94131855, -0.34662965, -0.39240037, -0.73335194, -0.42199431, 0.12995784, 0.76682571, 1.29047263, 2.21051589, 1.91787911, 1.99591559, 2.84131073, 3.21848702, },
		 {1.16848429, 1.56176160, 1.62933051, 1.52076104, 1.38529522, -0.50418234, -0.70648649, -1.13461851, -1.22296321, -0.44720262, 0.19865392, 0.27787235, 0.54846994, 0.69749470, -0.17861402, -2.66884020, -2.36626657, -1.55051336, -0.71728629, 0.62268263, 0.23405886, 0.21854219, 0.34924032, 0.59153914, 0.92932519, 1.10349255, 1.33961659, 1.57788872, 1.80740328, 1.99395614, 0.93665715, 0.66775738, 0.35639975, 0.20072094, 0.10165260, -0.85891878, -1.05400997, -1.17106468, -0.97597349, -0.48824553, },
		 {-1.39257430, -1.01766524, -0.95173635, -1.92722152, 2.16364973, -0.81783218, -1.09070753, 1.06354408, 0.24962276, 1.73580023, -0.51980228, -1.08374335, -2.21240982, -0.29783383, -1.00530926, -2.19244768, -1.59189881, 0.07823404, -0.25928730, -3.26479069, 1.72127232, 1.30351573, 0.34207878, -0.55788828, -1.24897704, 1.16512604, 0.87513465, -0.10340041, -0.72485774, -0.62307159, 0.58284166, 0.56868904, 0.38470499, 0.22902618, 0.65360476, -0.01352364, -0.11106923, -0.57928808, -0.81339750, 0.68230159, },
		 {-2.36773147, 1.32986247, 0.56889219, 0.32026483, -0.24324678, -0.47699936, 0.78230473, 0.73002976, 1.72116323, 2.50528782, 0.74455515, -0.17547666, 0.04178576, 0.37356193, 1.51320917, -0.53059192, -1.60753331, -0.39539945, -0.29147598, -1.00238606, -0.91536856, -0.64084280, -0.76915375, -0.56206584, -0.75065311, -0.55119338, -0.51831117, -0.43602301, -0.31143412, -0.38232090, 0.72436785, 0.96496238, 1.07818334, 1.34708311, 1.68674597, -0.09156011, 0.71481679, 0.92291406, 1.03996877, 1.65775753, },
		 {-0.83726280, -0.34328813, -0.64341218, -0.44267347, -1.11901860, 0.01124888, 0.47074589, 0.29196549, 0.43467616, 0.45349515, -0.68294518, -0.41783798, 0.01433383, -1.20061013, -0.74020206, 1.11470966, 1.06412744, 0.93721206, 0.67142550, 1.12666545, -0.76020183, -0.97146730, -1.18273278, -0.89149676, -1.20003984, -0.66752041, -0.69759359, -0.80037117, -0.85770850, -0.91719391, -2.06369816, -2.14861388, -2.24768221, -2.23352959, -2.17691911, -1.08652517, -0.57928808, -0.27364522, -0.02652972, 0.11003411, },
		 {0.48885911, 0.17823891, -0.40757700, -0.63291604, -0.67850866, 0.02222663, 0.33064897, 0.36515045, 0.51622512, 0.53765786, 0.80651807, 0.59553039, 0.54062653, 0.48493833, -0.20528161, 0.49300822, -0.00453686, -0.66118601, -1.29116453, -2.13082934, 1.43719784, 1.72127232, 2.01250835, 2.13723853, 2.20169240, 1.83962454, 1.78823575, 1.71420946, 1.63076464, 1.46536215, -0.05402621, 0.08749998, 0.21487356, 0.31394189, 0.44131547, 0.51322257, 0.69530767, 0.56524688, 0.56524688, 0.50021649, },
		 {0.17528687, -0.78150205, 0.44851456, 0.30353661, -0.10351689, -1.35887814, -1.38031088, -0.65107502, -0.96786135, -1.48067883, 1.65674354, 1.72576554, 0.10688605, -0.45705502, -0.90177627, -0.16272125, -0.03580587, 0.04788471, -0.32458434, 0.03316988, -0.82226852, -0.55788828, -0.43972284, -0.33707408, -0.38302731, -0.84581142, -0.91289774, -0.96990460, -0.90909729, -0.65430143, 2.13962979, 2.19624027, 2.01225622, 1.70089859, 1.30462525, 0.87739278, 0.57825296, -0.46873641, -1.41167714, -1.60676833, },
		 {-0.52205054, 0.15134255, 0.53707576, 0.96282551, 0.64761325, 4.60203696, 0.18427904, -1.27210169, -1.36567389, -1.24125946, 3.26777963, 0.16100556, 1.42457866, 2.20342911, 0.41513200, -1.28656615, -3.61058912, -1.43003571, -0.09742421, 0.04696503, -1.49246945, -0.94162755, -0.77810568, -0.76736337, -0.33826767, -0.70882973, -1.06623792, -0.91471535, -0.88563360, -0.98675880, 1.51691454, 1.74335645, 1.87073002, 1.95564574, 1.77166169, 2.06094598, 1.24806604, 0.48721041, 0.56524688, -0.39069993, },
		 {-4.15502761, 1.47516843, 2.06492039, 0.49181115, -0.16091767, -5.71233785, -0.06977732, 2.43105736, 1.97626510, -2.16391272, 2.84266689, -3.88776185, 2.09754310, 4.53213706, -0.51039019, -1.92850047, -0.48184906, 0.64199584, -3.79360478, -1.16424915, -3.46368377, -0.39794718, -1.82548114, -1.75684970, -1.16840970, -0.63662105, -0.93751810, -0.76930657, -1.29955293, -1.25031223, -0.05402621, 0.95080976, 1.58767764, 1.87073002, 2.01225622, -0.55327592, 3.25100222, 3.44609341, 2.50315267, 1.05297485, },
		 {-0.66112442, -1.85834059, -1.34074960, -1.09212224, -1.11967461, 0.92919740, -0.85494741, 0.11945808, 1.18220827, 2.02278982, -1.31120219, -1.08766505, -0.95824881, -2.07044412, -1.13001946, -1.10171114, -1.35646158, -0.78718171, -0.10570130, 0.98043686, 3.14999987, 2.12948019, 1.52253955, 0.92276044, -0.28813688, 1.96751818, 1.42520949, 1.05309518, 0.38305809, -0.57283946, 0.51207856, 0.66775738, 0.62529952, 0.55453642, 0.41301023, 0.71481679, 0.38966481, -0.09156011, -0.32566954, -0.66382759, },
		 {-0.82348661, -0.91860790, -0.54632287, -0.34263212, -0.73984548, 0.56902284, 0.69343727, 0.55020385, 0.43781266, -0.36251717, 0.38689573, 0.30375560, -0.20920331, -0.69392595, -1.18884502, -0.85431811, -1.65259747, -2.78379978, -3.18018043, -2.87024939, 2.22675780, 2.29717963, 2.02623464, 1.63593062, 1.13641310, 1.67851821, 1.54765030, 1.31846622, 1.18280643, 1.00682875, 0.42716285, 0.63945214, 0.89419929, 0.97911500, 0.97911500, 0.92291406, 1.13751436, 1.11800524, 0.63027728, 0.18807059, },
		 {-1.15706712, -0.72311726, -0.69228484, -4.15502761, -0.27670323, -0.25326248, -0.68244000, 0.31653472, -0.58991330, -0.08232332, -1.12845078, -0.92060045, -1.91357596, -1.03589856, -1.41944123, -2.78104075, -2.21819863, 0.13617367, 0.75511608, -1.06124536, 1.02302202, 0.71925330, 0.09082803, -0.62472933, -1.00608142, 1.25137989, 0.76310379, -0.13578691, -0.51765022, -0.74766048, 0.79513095, 0.73852047, 0.54038380, 0.46962071, 0.85174143, 0.61727120, -0.12407531, -0.84591270, -0.66382759, 1.00745357, },
		 {-1.60282514, -1.12787472, -1.20659579, -1.01864925, 2.42408524, -0.11159730, 0.89940067, 1.44671963, -1.00706758, -0.72164623, -0.95746447, -1.95828338, -1.14884364, 0.51239026, -0.27587228, -1.12562273, -1.06124536, -0.33654014, -1.55327239, -2.94014482, 1.78154863, 0.48829359, -0.52924211, -1.21197574, -0.36751063, 1.18462404, 0.34141830, -0.51698927, -0.98725451, -0.59200698, 0.76682571, 0.62529952, 0.45546809, 0.29978927, 0.73852047, 0.28561618, -0.45573033, -0.79388838, -0.76137319, 1.11800524, },
		 {-0.93763216, -0.48269001, -0.67162056, -1.07998608, -1.15247506, -1.47074658, -0.32331094, 0.47335964, 0.42160742, 0.21564403, -0.57000010, -0.16135852, 0.49827212, 0.20335997, -0.51744926, 1.37129945, 1.67387308, 1.63340730, 1.23242827, 1.10459321, -1.01682373, -0.89149676, -0.89567432, -1.01025899, -1.08306799, -0.76550611, -0.67065992, -0.80185831, -0.83226196, -0.98725451, -2.43166626, -2.50242936, -2.43166626, -2.37505579, -2.23352959, -1.26861027, -0.53376680, 0.16205843, 0.28561618, 0.51322257, },
		 {-1.98724633, -2.17355285, -0.80675839, 0.44129847, 2.04655215, -0.20778325, -1.23760021, -1.65214074, -0.79221744, -0.45556662, -0.11194505, -0.44764293, -0.75118283, 0.92416920, 0.19394788, -0.34757626, -0.35677303, 1.73365206, 1.81274426, -0.15536384, -1.72104199, -1.35102901, -0.50835428, -0.03688613, -0.17653619, -1.71975129, -1.58673529, -0.98246263, -0.53847011, -0.42660449, -0.43614693, 0.00258427, 0.75267309, 1.46030406, 1.46030406, 2.21051589, 2.32106756, 2.89333504, 3.62167547, 1.85284871, },
		 {-0.74870160, -0.35411228, -1.07211397, -0.39183278, -0.93894417, 0.61345657, 0.54027161, -0.18791876, 0.58418258, 0.72062026, -0.89942325, -0.30253987, -0.76922267, -0.27665662, 0.15316216, 0.76983090, 0.94824818, 1.30508273, 0.96296301, 0.92157755, -0.85747943, -1.06456734, -1.10813339, -1.13140840, -1.41130531, -0.64372625, -0.81838203, -0.85043806, -0.91256727, -0.98775022, -1.99293506, -2.21937697, -2.31844531, -2.27598745, -2.14861388, -0.81339750, -0.56628200, -0.48824553, 0.04500372, 0.40267089, },
		 {0.07327750, -0.70737305, -0.26292704, -0.08482064, -0.66768451, 2.28102819, 1.98619734, 0.16127806, -0.61552803, -0.27208147, 0.90063897, 1.17907997, 0.87161836, 0.76965405, 1.24653328, -0.53610998, -2.61641863, -2.08116680, 0.04236665, 0.37436993, -0.66531140, -0.56922739, -0.50298313, -0.42301258, -0.36930102, -0.25029633, -0.52789493, -0.62670681, -0.62042779, -0.67396467, 1.64428811, 1.91318788, 2.06886669, 2.11132455, 2.11132455, 1.56021193, 1.67076361, 1.02045965, 0.48721041, 0.14254931, },
		 {0.43375436, 1.23933324, 2.28927542, 2.00489558, 1.68410725, -0.66832576, 0.18323354, 0.27001000, -1.43624510, -1.33953640, -0.25547942, 0.10296434, -0.06566894, -0.44450556, 0.76573235, 1.89827419, -0.00361718, -1.28472680, -0.29147598, 0.09754725, 0.00011517, -0.13416374, -0.35080037, -0.25829712, -0.04404767, -0.32580976, -0.33192354, -0.23757306, -0.03185267, 0.34505352, 0.80928357, 1.34708311, 1.31877787, 1.00742024, 0.82343619, 3.23149310, 3.53063292, 1.15052044, -1.11904036, -1.34664675, },
		 {-1.70286649, 1.26721362, 1.65786690, -0.42168119, 0.12444619, -1.28307943, -0.26424022, 1.84087292, 3.68095195, 0.47179139, 0.63474743, -0.31508933, 0.01825553, 4.08741580, 0.47944794, -1.28288744, -2.44351941, 0.61532522, -1.94781368, -3.13695563, -1.26807448, -1.03234041, -1.25971935, -1.60407014, -1.02875964, -0.92182056, -0.59745981, -0.47749756, -0.78913504, -0.97618362, 0.35639975, 0.68191000, 1.10648858, 1.60183026, 1.77166169, -0.57928808, 0.68230159, 1.96340039, 2.02843078, 1.31309643, },
		 {-1.46604729, -0.68146070, -0.52401857, -0.73787746, -4.15502761, -0.41949689, 1.03008810, 0.78805498, -0.63330153, -3.44099030, -1.34571319, -2.08926830, -1.65239046, 0.22218415, 1.17045222, -1.86688214, -0.10754065, 0.76799155, -0.52047548, -0.82029007, 1.12447719, 0.32536851, -0.15505157, -0.87777047, -2.16028320, 1.09605687, 0.01689232, -0.55747240, -0.92694291, -0.37736378, 0.56868904, 0.45546809, 0.35639975, 0.25733142, 0.38470499, -0.07855403, -0.33867562, -0.56628200, -0.51425768, 0.05800980, },
		 {-0.23045461, -0.41512110, -0.57026719, -0.73164537, -0.74082950, -0.03109384, 0.26530525, 0.37508269, -0.13041629, 0.17905155, -0.04370740, -0.05704119, 0.03394235, -0.00292167, -0.52764569, 1.00250910, 1.20299862, 0.90686273, 0.86731663, 0.98687460, -0.86225379, -0.95833781, -0.98459680, -1.02159809, -1.00250065, -0.50971883, -0.50310934, -0.61084403, -0.66058045, -0.66487662, -2.13446126, -2.17691911, -2.17691911, -2.17691911, -2.12030864, -0.65082151, -0.30616042, -0.07855403, -0.01352364, 0.14254931, },
		 {1.82908521, -0.63816411, -0.37576057, 0.28680838, 0.36618545, -0.13564379, 2.75359394, 0.94226614, 0.20205253, -1.10795828, -0.44999595, 3.56739783, -0.40999457, 1.10848930, 0.98534779, 1.31887788, 0.83604762, -1.79882606, -1.09987179, -0.39815848, -1.39041749, -1.21973408, -0.98877436, -1.18571676, -0.68321526, -0.55664621, -0.67115563, -1.03071191, -0.98295834, -1.10341631, 1.17725167, 1.57352502, 1.88488264, 1.99810360, 2.06886669, 2.38609796, 2.04793990, 1.43015114, 0.74082895, 0.32463442, },
		 {0.16052668, 1.04220258, 0.64695724, 1.00710611, 0.29697652, -0.30344645, -1.28935243, -1.62182125, -3.36310059, -2.99142553, 0.73435872, 1.40261711, 3.25679886, 0.47082019, -0.26724453, -4.21757573, -1.24426102, -0.44230296, 0.22354296, 0.29895644, -1.90783886, -1.35102901, -1.06814811, -0.51133826, -0.31379907, -1.44710981, -1.20685483, -1.16207553, -1.16471933, -0.82945293, 1.36123573, 1.46030406, 1.57352502, 1.26216739, 0.96496238, 1.08549005, 0.41567697, 0.63027728, -0.69634279, -1.75633824, },
		 {1.80907694, 1.56372963, -0.96420051, -0.30786365, 0.59349252, -0.53136533, 1.87276065, 3.47185206, 1.31237295, -0.47647661, -3.27440731, 0.92103184, 2.62697316, -0.06645328, 1.47869817, -1.86320343, 0.99883040, 0.55278721, -2.34603369, -0.91409710, 0.67330008, -1.13200519, -1.31164053, -1.14692507, -1.16482893, -0.71990062, -0.51335405, -0.69478456, -1.07251694, -0.99171592, 0.95080976, 1.38954096, 1.79996693, 1.98395098, 2.06886669, 1.83333960, 2.28855237, 2.32106756, 1.46266634, 0.61727120, },
		 {-4.15502761, 0.31272073, 2.65631238, 0.39472184, 0.31403275, -4.28366285, 0.39024243, 4.15717695, 3.41957709, -2.50056354, 2.64815036, -3.10028365, 1.54379846, 5.30079108, -1.23982718, -0.03672554, -0.64095312, 1.82929844, -5.83160830, -3.43677023, -3.42310170, 0.40712945, -1.66971761, -1.77952791, -1.07232568, -0.42082118, -0.82466105, -0.76038375, -1.43669986, -1.25212984, 0.08749998, 0.82343619, 1.40369358, 1.64428811, 1.72920383, -0.00051756, 2.76327425, 3.36805693, 2.24303109, 0.69530767, },
		 {-2.02103079, -1.44374299, -0.92713601, -1.29450097, -1.06260184, -0.27364972, -1.16911999, -1.14664175, 0.73734825, -0.58311755, -1.44454013, -0.75510454, -1.73709927, -2.61085496, -0.60686412, -1.87699858, -2.31660403, -1.02169927, 0.17480009, -0.94076772, 2.51620344, 2.18259496, 1.69202936, 0.10634470, -0.77750889, 1.75056166, 1.36820264, 0.85894140, -0.24120828, -1.07929167, 0.10165260, 0.08749998, 0.10165260, -0.02572097, -0.19555240, -0.01352364, -0.14358443, 0.02549460, -0.32566954, -0.74186407, },
		 {-0.52303456, -0.69654890, -0.81036644, -1.06358586, -1.64677773, 0.42892591, 0.54340810, 0.50524737, 0.40331118, 0.36724145, -0.55352894, -0.71196579, -0.54019515, 0.03315801, -0.18018270, 0.87835275, 0.84708374, 1.00066975, 1.80354749, 1.77687687, -0.67903769, -0.91238459, -0.93088523, -1.01204937, -0.89627112, -0.84944664, -0.93074337, -1.01071820, -0.99138544, -1.15546604, -1.63911958, -1.69573006, -1.70988268, -1.72403530, -1.54005124, -0.43622121, -0.32566954, -0.16309355, -0.01352364, 0.51322257, },
		 {-0.77690998, -4.15502761, 3.23097614, 0.93560114, -0.61487580, 1.18168552, -2.81264513, 0.94592539, 0.06770585, 3.12840549, -1.82808280, 0.85436287, -1.66729293, -0.74961415, 1.46536438, 0.28608097, -0.08362906, -1.67283036, 1.97460735, 0.93445303, -0.39018885, -1.62734515, -0.80138069, -1.00488783, -1.18631355, -0.48509848, -0.70403785, -0.64670052, -0.60026885, -0.68668794, 0.54038380, 0.41301023, 0.95080976, 1.29047263, 1.71505121, -0.35168170, -0.59879720, 1.23505996, 2.37309188, 2.09346118, },
		 {-0.07858855, -1.00782510, -0.42627325, -0.78642211, -1.21446789, 0.79537347, -0.64218827, -0.05514033, 0.39024243, 0.45035865, -1.10492055, -0.94177766, -0.63274737, 0.24022399, -0.14645605, 0.26492841, 1.09539645, 1.25082181, 1.52488546, 1.12758513, -0.77750889, -0.95774102, -0.99235513, -1.13797315, -1.34446426, -0.71097781, -0.72700583, -0.71345637, -0.78351697, -0.90166161, -1.93632459, -2.29014007, -2.37505579, -2.41751364, -2.37505579, -1.10603428, -1.20357988, -0.74186407, -0.27364522, 0.07751892, },
		 {-0.33574403, -0.55813103, -4.15502761, 1.86942975, 0.85196001, 0.82464746, 0.79850997, -1.00811308, 0.77184973, 1.42894614, -0.65627759, -0.32607010, 0.88808952, -1.73082454, 0.42689711, 1.11470966, 0.80937700, -0.45425876, -1.48889502, -0.87271165, 0.33193326, -0.14072848, -1.07948722, -0.03151497, -0.71961976, -0.13413454, -0.37174572, -0.43255303, -0.49897841, -0.31820884, 0.66775738, 0.65360476, 0.69606262, 0.96496238, 1.30462525, -0.22812394, -0.16309355, 0.01248852, 1.08549005, 1.30009035, },
		 {-0.07366849, -0.90187967, -0.07793255, -0.78314207, -0.55353897, -0.22189749, 0.12050358, 0.74728050, 0.02484038, -0.20726050, -0.24449865, -0.58254955, -0.07821839, -0.32842312, -0.45783936, 0.95652527, 1.16805090, 0.97124010, 0.67326485, 0.76431284, -0.74349156, -0.68739282, -0.99832308, -1.07590645, -0.84852751, -0.69974168, -0.67214706, -0.72684059, -0.81474681, -0.89769592, -1.80895101, -2.06369816, -2.14861388, -2.21937697, -2.20522435, -1.31413155, -1.02149477, -0.43622121, -0.24113002, -0.05904491, },
		 {0.04375710, 1.08484316, -0.42332121, 0.73059837, 0.37536958, -1.39285688, -2.39653635, -3.16497844, -3.13831820, -2.97417479, -1.63591930, 0.90691370, 2.50540033, 0.11551379, -0.49940942, -5.06091924, 0.15180817, -0.25744795, 0.35229769, 0.36885187, -1.39578864, -1.10693980, -0.84733392, -0.35139716, -0.30783112, -1.42116756, -1.18553922, -1.24552035, -1.02162386, -0.76467992, 1.58767764, 1.75750907, 1.82827217, 1.44615144, 1.17725167, 1.36512075, 0.76033807, 0.59776208, -1.11904036, -1.69130784, },
		 {-0.97633668, -0.33344800, -0.37346454, -1.02324131, -0.98453679, 0.13618607, 0.71434726, 0.51256587, -0.07761857, 0.12573107, -0.83432296, -0.58647126, -0.30959894, 0.24257701, -0.96844524, 1.18552476, 1.06964550, 0.84984277, 0.95100721, 1.23242827, -0.78467043, -1.04427631, -1.07590645, -1.03413079, -1.02816284, -0.70040263, -0.75757472, -0.82053012, -0.91008871, -0.89670449, -2.16276650, -2.19107173, -2.23352959, -2.21937697, -2.20522435, -1.07351909, -0.53376680, -0.22812394, -0.12407531, 0.11003411, },
		 {-0.22094248, -0.25702296, -0.45087358, -0.42856928, -0.93960018, 0.91769691, 0.35574095, 0.00549864, 0.36828695, 0.44408566, -0.88922682, -0.31038328, -0.31508933, -0.29626515, -0.59745203, 0.61532522, 0.43047021, 0.68522065, 1.14413931, 0.90502337, -0.67008576, -0.84673712, -0.87299611, -0.87777047, -1.02040450, -0.72254442, -0.82003440, -0.85969135, -0.91686344, -1.03748664, -1.58250910, -1.72403530, -1.85140887, -1.96462982, -2.04954554, -0.92394918, -0.84591270, -0.74186407, -0.65082151, -0.39069993, },
		 {-1.50540782, -1.29089293, -0.86678320, -1.03701750, -4.15502761, -0.36931291, -0.42681538, 1.26166623, 1.15293428, -1.81628415, -1.20766920, -1.07746862, -2.28849088, -0.94569936, 1.51085615, -1.63604329, -1.44199151, -0.03212716, 0.43506859, -0.86259520, 1.93432819, 1.32082279, 0.33253006, -0.27023303, -1.67508876, 1.34539989, 1.02632674, 0.02069278, -0.54507960, -0.60753929, 0.92250453, 0.93665715, 0.79513095, 0.56868904, 0.54038380, 0.53273168, 0.20757971, -0.40370601, -0.97597349, -0.72885799, },
		 {-1.55624851, 0.24055976, 2.40998105, 1.34527867, 0.74896662, -1.05829705, -0.35990342, -0.71589598, -1.13357301, -0.81992318, -1.16531480, 0.81357714, -0.23743958, 0.56101939, 1.01201537, 1.34003044, 0.84708374, 0.31367127, 1.16529187, 0.83512795, -0.81868775, -0.38899526, -0.16937465, 0.25733387, 0.41488778, -1.17612070, -0.71213447, -0.39421798, 0.09075338, 0.36356009, 0.61114690, 1.51691454, 1.43199882, 1.21970953, 1.14894644, 2.08045510, 3.38106301, 0.76033807, -1.08652517, -0.55327592, },
		 {0.15823064, -0.29933554, -0.32852793, -0.59421152, -0.41577711, -0.52456958, -0.42890638, 0.56850009, 1.97260585, 1.59727155, -0.18881045, -1.00060322, -1.53866103, 0.42925013, -0.29783383, 0.59601201, 1.15517543, 1.98012541, 1.53500190, 0.63279908, -0.06970986, 0.00847030, -0.30126637, -0.52446775, -0.71066783, -0.45072913, -0.43618825, -0.43932776, -0.59679887, -0.71990062, -1.21454100, -1.37021981, -1.42683029, -1.51174600, -1.59666172, -0.74186407, -0.66382759, -0.53376680, -0.37119081, -0.45573033, },
		 {-2.56387812, -2.55994206, -2.30705065, -1.97609418, 0.49345117, 2.09179279, 0.37037795, -0.71903248, -1.12102702, -0.28828671, -0.45470200, -0.18802611, -1.21394393, -1.35434094, -0.36214978, 0.47185566, -0.48920647, -0.54162804, 0.75327672, 1.48717871, -1.54916499, -1.86546641, -1.84338499, -1.28120398, -0.59250240, -1.33127849, -1.78402858, -1.61779990, -1.21908239, -0.58192751, -0.62013098, -0.16724717, 0.15826308, 0.61114690, 1.27632001, 1.86585479, 2.34057668, 1.98290951, 2.12597638, 3.10143231, },
		 {-2.60028661, -2.04956717, -1.75042713, -1.40011840, -0.53254668, 0.04575037, -0.41113289, 0.50838387, 0.07084235, -1.71434796, -1.85945644, -2.24848949, -2.88145255, -2.64928766, -0.32920746, -1.03733377, -1.77123576, -0.98123349, -0.05879778, 0.57210042, 2.85040871, 1.88300380, 0.38862880, -0.51491903, -0.73095887, 1.87300247, 1.27649596, 0.29151665, -0.54127915, -1.15992745, 0.27148404, 0.25733142, 0.21487356, 0.04504213, -0.03987359, 0.05800980, -0.11106923, -0.14358443, -0.63131240, -0.69634279, },
		 {0.39340982, -0.24095075, -0.24127875, -0.21011833, 0.05195721, 1.10327306, 2.46503609, 0.26216875, -0.46236237, -0.51881934, 0.23787097, 1.35085062, 0.61827627, 1.41124486, 0.21512508, 0.03500924, 0.52059852, -1.54315594, -0.08087003, -0.10386194, -0.47851453, -0.67784410, -0.76676657, -0.59250240, -0.42719014, -0.30994698, -0.31771313, -0.64884860, -0.66157187, -0.71395208, 1.33293049, 1.65844073, 1.98395098, 2.02640884, 1.95564574, 0.92291406, 1.34561163, 0.76033807, 0.25310098, -0.14358443, },
		 {-4.15502761, 4.56825020, -0.90647173, 0.13264630, -0.55157094, -6.32447778, 0.69396002, 4.30511512, 3.34221013, -2.32126039, 3.13601037, -6.85727626, 5.80276922, 5.47648343, -0.59196164, -0.50576065, -2.91071517, 0.15548688, -3.96098593, -1.66731230, -3.14857594, 1.82571147, -1.77833432, -1.86128884, -1.26568730, -0.70453356, -0.76996751, -0.85324709, -1.34548889, -1.29839627, -0.03987359, 0.76682571, 1.51691454, 1.84242478, 1.94149312, -0.82640358, 2.30806148, 3.10143231, 2.54867395, 0.94242318, },
		 {-0.13106926, -0.45841768, 0.09656581, 0.41112206, 0.23727971, 0.07031960, 4.55603499, 0.21982602, -0.91610913, -1.28203393, -2.03593313, 2.92031664, 0.44023090, 0.55552901, 1.67321470, 1.45866874, -0.75039465, -3.53517563, -1.92758080, -0.36505012, -0.61458382, -1.46442008, -0.91596536, -1.07232568, -0.75005631, -0.54474913, -0.70370737, -1.03649522, -0.93140432, -0.87456270, 0.97911500, 1.47445668, 1.71505121, 1.84242478, 1.95564574, 2.30806148, 2.35358276, 1.43015114, 0.72782287, 0.64978640, },
		 {-0.07498051, -0.20946232, -0.28916740, -0.23799871, -0.25571095, 1.00238236, 1.12156930, 0.73682550, 0.08861584, 0.15814156, -1.13550984, -1.02648647, -1.14570627, -1.32375164, -0.47744788, 1.34646818, 0.90318402, 0.48840984, 0.97583848, 1.46510647, -0.26903944, -0.45702990, -0.74647554, -0.76975055, -0.89925509, -0.49352558, -0.66438090, -0.75278284, -0.80945922, -0.85043806, -0.93148861, -1.07301480, -1.20038838, -1.35606719, -1.42683029, -0.12407531, -0.48824553, -0.79388838, -0.74186407, -0.59879720, },
		 {-0.82971870, -4.15502761, 0.57512427, -0.29277545, -0.62996400, -0.28410471, -3.45196804, 0.36619595, 3.52151328, 3.39030310, -0.14488736, 1.33830116, -2.99910368, 1.95793043, 3.73446243, 0.20974781, -0.44322264, -1.85676569, -0.39723880, -2.79759493, -0.68261846, -2.06479598, 0.54677951, -1.36594889, -1.59452142, -0.81524252, -0.47501900, -0.70271595, -0.66636375, -0.95569420, 0.41301023, 0.44131547, 0.90835191, 1.46030406, 1.72920383, -0.76137319, -0.07855403, 1.76830920, 2.01542470, 2.02843078, },
		 {1.15175606, 0.97856972, 0.67450962, 0.22481554, -0.07104445, 0.26425975, 0.18271079, 0.33953571, 0.59097833, 1.23657424, 0.27708801, 1.22457174, 1.86537821, 1.85439743, 0.25826383, 1.21311506, 0.90870208, -0.30343178, -1.55327239, -2.50421807, 1.69978770, 2.01071796, 2.47442778, 2.89576514, 3.03302802, 2.15060107, 2.26131003, 2.34078915, 2.33897154, 2.30179316, -0.28046812, -0.22385764, -0.05402621, 0.00258427, 0.01673689, -0.11106923, 0.17506451, 0.63027728, 0.45469521, 0.12304019, },
		 {-0.56829917, -0.77855001, -0.91959191, -1.64316968, -1.00454506, 0.08286560, 0.71487001, 0.84398920, 0.37351444, 0.29457924, -0.25940113, -0.08370878, -0.59509901, -0.58960862, -0.02723624, 1.24254472, 1.29036790, 0.87743307, 0.82225247, 1.32807465, -0.87359290, -0.85091469, -1.01980771, -1.10932698, -1.02935643, -0.86216991, -0.96296463, -1.05020991, -1.11448720, -1.18124306, -1.87971411, -1.97878244, -1.97878244, -1.96462982, -1.79479839, -0.59879720, -0.43622121, -0.30616042, 0.01248852, 0.46770129, },
		 {-1.70417851, -1.12033062, -4.15502761, 0.42588226, -1.89638910, 0.94278889, -1.16546075, -5.09810692, -0.67668975, 7.09137115, -3.18499246, -1.63905666, 2.14617223, 0.13904402, 5.38628423, -0.96835802, -0.38896171, 0.00006152, 2.56044140, -0.91593645, -0.82823647, -1.06158337, -2.28620698, -0.43136771, -1.79146381, -0.47914994, -1.08953638, -1.00658727, -0.77112418, -1.03616474, 0.12995784, -0.03987359, -0.11063669, 1.03572548, 1.67259335, -0.09156011, -0.76137319, -0.68333671, 3.57615420, 3.16646271, },
		 {0.01423670, -1.92590950, 0.52165955, -0.21011833, -0.78576610, -0.31912894, -0.26110372, 1.29198571, 3.24759243, 1.09281806, 0.51317460, 0.08178714, -0.42254402, 2.08734666, 0.70298508, -0.62715797, -1.60569396, -1.04745021, -1.84297054, -3.11764242, -0.48507927, -0.59847035, -0.57221136, -0.59667996, -0.32871895, -0.51137120, -0.28780519, -0.23443355, -0.20022944, -0.53962677, 0.80928357, 0.93665715, 1.20555691, 1.67259335, 2.01225622, -0.55327592, 0.02549460, 1.13751436, 1.69027273, 2.02843078, },
		 {-0.37379254, -0.16780576, -0.24259077, 0.15429459, 0.30681665, -0.26110372, -0.81887768, 1.11791005, -0.40695089, -1.07032030, 0.91789447, 0.88181479, -1.10492055, -1.09707714, -0.64764984, -2.29269244, 0.80845732, -0.19858864, -0.52047548, -0.06063714, -0.37884974, -0.28157213, -0.30663753, -0.38123692, -0.36870422, -0.60324312, -0.55020196, -0.76220136, -0.75460045, -0.65446667, 2.13962979, 2.23869813, 2.01225622, 1.68674597, 1.40369358, 1.17002956, 0.48721041, -0.65082151, -1.26861027, -1.50922274, },
		 {-0.54993092, -0.67949267, -0.17600587, -0.89794362, -0.44923356, -0.65577976, -0.10793805, 0.38396944, 0.22453077, 0.35103621, -0.74961415, -0.72373090, -0.41391627, 0.25904817, -0.52686135, 0.74407996, 1.09539645, 1.37681751, 1.30048435, 1.03193876, -0.72439412, -0.77750889, -0.84733392, -0.87359290, -0.61577741, -0.73378055, -0.67264277, -0.75393950, -0.79640548, -0.91306298, -2.02124030, -2.14861388, -2.17691911, -2.19107173, -2.16276650, -1.26861027, -0.85891878, -0.16309355, -0.09156011, 0.11003411, },
		 {-0.82053457, -1.59790507, -3.71878171, 0.60497268, -0.90548772, 0.98094962, -0.63800627, -0.15184903, -0.39440490, 4.14044896, -2.28849088, -0.73000563, -1.30022142, -2.91282618, 3.97917677, 0.20790845, 0.21802490, -0.39907816, -1.18540172, -0.36045174, -0.02972459, -0.72916848, -2.46643911, 0.07113379, -1.42801558, -0.23459879, -0.81226825, -0.48509848, -0.74369479, -0.76054899, 0.51207856, 0.35639975, 0.62529952, 1.10648858, 1.77166169, -0.14358443, -0.65082151, 0.24009490, 2.48364355, 2.14548549, },
		 {-0.02217179, -0.35181624, -0.47416190, -0.48826609, -0.44956156, -0.67721250, 0.21721228, 1.44462863, 1.91301238, 0.72584776, -0.77628174, -1.47669811, -0.58960862, 0.14531875, -0.50254679, 1.13494254, 1.74008980, 2.08220952, 0.73948157, 0.43874730, 0.09619918, -0.29171765, -0.40868950, -0.64681075, -0.99056475, -0.45816480, -0.40611507, -0.51467595, -0.68123511, -0.81871251, -1.31360933, -1.39852505, -1.48344077, -1.55420386, -1.66742482, -0.63131240, -0.59879720, -0.37119081, -0.40370601, -0.51425768, },
		 {-4.15502761, 3.54159634, 1.60145013, 0.26876814, -0.21372638, -7.18701482, 0.36671870, 2.72536545, 3.63181348, -1.08391179, 1.25202367, -4.76700793, -0.32763878, 5.16510012, 0.47474190, -0.65014989, -4.10077679, 3.11960482, -2.53456740, -2.35706981, -3.42668247, 1.33037151, -1.45964572, -2.02302032, -1.52588998, -0.52921683, -0.53004301, -0.71659588, -1.37374446, -1.31525047, -0.20970502, 0.69606262, 1.38954096, 1.63013549, 1.74335645, -0.48824553, 2.69824386, 4.16142776, 2.51615875, 0.71481679, },
		 {0.09033373, 0.09033373, 0.01325269, -1.08654617, -0.27604722, -0.11734755, -0.01122935, 0.36880970, -0.25639897, 0.31862572, -0.60451110, -0.36214978, -0.02096151, -0.16998627, 0.10453302, 0.63279908, 0.84248536, 0.77258993, 1.19104282, 1.08160130, -0.90940061, -0.94580511, -0.96848333, -1.00071027, -1.09142313, -0.51302357, -0.50426600, -0.57416136, -0.51649356, -0.57333517, -1.65327220, -1.85140887, -2.04954554, -2.31844531, -2.27598745, -0.92394918, -0.97597349, -0.85891878, -0.63131240, -0.11106923, },
		 {-0.23865472, -0.22520653, -0.11598106, 0.08180561, -0.66342045, 2.52253856, 0.08704759, -0.78594445, -0.41949689, -0.15132628, 2.21205686, 0.52023367, 0.68651393, 0.96730795, 0.02923630, -2.31568435, -2.17129512, -0.24733150, 0.46265889, 0.51508046, -0.67008576, -0.36930102, -0.33110613, -0.26008751, -0.23561891, -0.49220368, -0.57316994, -0.56061191, -0.55565479, -0.57796182, 1.54521978, 1.71505121, 1.85657740, 1.95564574, 1.99810360, 1.69027273, 1.21555084, 0.82536846, 0.63027728, 0.33764050, },
		 {-0.94124020, -0.41676112, -0.59191549, -0.67588462, -1.06161783, -0.69028125, -0.20046475, 0.34737696, 0.47910989, 0.44147191, -0.66333666, -0.65078721, 0.10688605, -0.40607286, -1.19119804, 0.84432471, 1.22415118, 1.48717871, 1.16253284, 1.22691021, -0.92073972, -0.89089996, -1.02219489, -0.84196276, -0.98638718, -0.77542034, -0.72353584, -0.78153412, -0.82515676, -0.92892576, -2.19107173, -2.29014007, -2.30429269, -2.29014007, -2.23352959, -1.31413155, -0.81339750, -0.17609963, 0.04500372, 0.20757971, },
		 {-0.26227103, -0.55255495, -0.93992819, -1.00454506, -1.53689625, 0.03006787, 0.47388239, 1.04263409, 0.67723203, -0.00704736, -0.60137373, -0.60921714, -0.18253572, -0.32528576, -0.14410302, 1.38233557, 1.71709788, 1.30508273, 0.72384707, 1.53132319, -0.86464098, -0.87001213, -0.82286532, -1.09858467, -1.24062191, -0.75476569, -0.82713961, -0.92826481, -1.08177022, -1.08656211, -1.54005124, -1.63911958, -1.73818791, -1.70988268, -1.66742482, -0.66382759, -0.56628200, -0.53376680, 0.04500372, 0.17506451, },
		 {-1.18166745, -0.98355278, -1.05636976, -4.15502761, 3.63442159, 0.23132652, 1.07556732, 0.27366925, -3.27841513, 0.16859655, -1.01785872, -1.80298390, -0.18332006, 1.23163081, -2.42261316, -0.54898545, -0.10938000, 0.25757099, -0.95824158, -2.64952699, 1.54999212, 0.84517707, -0.62353574, -2.14715371, 0.42085574, 1.08845595, 0.52747546, -0.80367592, -0.58291894, -0.70750783, 0.49792594, 0.44131547, 0.22902618, 0.25733142, 0.72436785, 0.25310098, -0.09156011, -0.66382759, -0.20861482, 1.60573321, },
		 {1.32231836, 1.08615518, 0.85720808, 0.66499749, 0.36946550, 0.21093928, 0.00079389, -0.34160718, -0.50156860, -0.20935150, -0.35979675, 0.06766900, 0.85436287, 1.41202920, 1.90224223, -0.31722693, -0.03580587, 0.02857150, -0.16639996, -0.64187280, 0.86606490, 0.99437586, 1.34111383, 1.75290247, 2.47084701, 2.11309221, 2.20132890, 2.33533632, 2.42225112, 2.43051298, -0.12478931, -0.11063669, -0.05402621, 0.11580522, 0.28563665, -0.20861482, -0.05904491, 0.18807059, 0.55224080, 0.97493837, },
		 {-1.53492822, 4.11134003, 0.98808185, -0.13500532, -0.66998054, 0.03790912, 2.38923738, 0.02222663, 1.96267361, 2.41223837, -0.39822945, -2.07907187, -0.27587228, 2.17519284, 2.33206101, 0.01017797, -4.36104529, 0.16652300, -0.11121936, -3.08729309, -0.57459854, -0.60264791, -1.34923862, -1.17378085, -1.22212126, -0.84333286, -0.73972910, -0.67032945, -0.62241064, -1.01517961, 0.37055237, 0.89419929, 1.13479382, 1.54521978, 1.79996693, -0.87842790, 1.41064202, 2.06094598, 1.72278792, 1.80082440, },
		 {-0.16550973, -0.46202573, -0.47547391, -0.75854174, -0.44857755, -0.52666058, -0.04468534, 0.27210100, -0.29978720, 0.41272067, -0.04449174, -0.04919778, 0.48336965, 0.40101386, -0.55745065, 1.00894684, 1.06780615, 0.79190314, 0.63095972, 0.81857377, -0.84912430, -0.80138069, -1.00429104, -0.94878909, -1.01085578, -0.54392294, -0.51814593, -0.60919166, -0.64769194, -0.66603328, -2.04954554, -2.17691911, -2.20522435, -2.21937697, -2.10615602, -0.94345829, -0.76137319, -0.09156011, -0.04603884, 0.27261010, },
		 {-0.59880358, -0.25538294, -0.71622917, -0.02381181, 0.11723009, 0.47440514, -0.98929409, 0.63959405, 0.63018456, -0.44197513, 1.05044807, 0.20414431, 0.66141502, -0.95432711, -0.51352756, -2.40121429, 0.27228582, 0.93261368, -0.35861238, -0.48828679, -0.37168820, -0.36094589, -0.36273627, -0.49283761, -0.44807797, -0.49633461, -0.54111391, -0.58407560, -0.67892178, -0.67759989, 1.82827217, 1.99810360, 2.04056146, 1.85657740, 1.65844073, 1.62524233, 0.85788366, 0.32463442, -0.57928808, -0.95646437, },
		 {0.01325269, -0.74574956, -0.03693199, -0.37477655, -0.44004944, 0.01909013, -0.81417293, -0.04625359, 0.13200407, 0.14559556, -0.15586814, -0.17861402, -0.26881322, 0.34375698, -0.19116347, 0.66682711, 0.82869021, 1.05952906, 0.86455760, 0.72292739, -0.98937116, -0.78705761, -0.79839672, -0.91894933, -0.86464098, -0.58952843, -0.50591837, -0.49236892, -0.54838435, -0.60026885, -1.83725625, -2.10615602, -2.10615602, -2.10615602, -2.06369816, -0.94345829, -0.84591270, -0.17609963, 0.05800980, 0.11003411, },
		 {-0.47317788, -0.77264593, -1.17445135, -1.67367410, -1.03603348, 0.85705794, 1.46397037, 0.41742542, -1.12102702, 1.40176315, 0.92103184, -1.25394531, -1.76298251, -1.58729017, -1.74180531, -0.43494555, -1.03181571, -1.24334135, -1.33806805, -0.28595792, 2.86115102, 2.92620169, 2.39445723, 1.52850750, 0.72999561, 2.11391839, 1.79368858, 1.47428496, 1.20544394, 0.44865728, 0.49792594, 0.71021524, 0.76682571, 0.73852047, 0.63945214, 0.84487758, 0.89039886, 0.66279248, -0.00051756, -0.32566954, },
		 {-0.93140007, -4.15502761, 0.23235965, -1.24759634, 0.05884530, -1.19107548, -6.37413900, 2.58422303, 7.27851555, -0.97413435, -1.24688624, 2.28892226, -2.12064194, 8.70326164, -0.42568138, -0.26112665, -0.61060379, 3.89581193, -2.55571997, -4.27919406, -0.91835254, -3.33417923, -0.96788653, -2.40795318, -1.50917972, -1.12390573, -0.74286860, -0.62174969, -1.30070960, -1.34747174, -0.16724717, -0.20970502, 0.95080976, 1.54521978, 1.67259335, -0.71585191, -0.59879720, 3.69320891, 3.16646271, 0.89039886, },
		 {-4.15502761, 1.49091264, 0.97168163, -0.60044360, -0.34427214, -5.19115637, -1.21878122, 3.32757314, 6.99413970, -0.32697019, 1.95793043, -2.77635088, -0.58647126, 7.45223800, 0.03943273, -0.94076772, -3.88281342, 3.96662704, -2.57227415, -4.35184852, -2.01048763, 1.03018356, -1.07710004, -1.81831959, -1.44890341, -1.03765188, -0.54243581, -0.51467595, -1.22420474, -1.24485940, -0.20970502, 0.48377333, 1.04987810, 1.53106716, 1.65844073, -0.92394918, 1.52769674, 3.45909949, 2.87382593, 1.26757515, },
		 {-0.16026166, 0.62957301, 0.55970807, -0.46300975, -0.37412055, -2.36464861, -2.43208333, -2.41692359, -2.04002103, -0.43936138, 2.35794425, 0.25983251, -0.84844110, -1.68533277, -1.15198100, 0.23825778, -0.05603875, -0.11305871, 0.34585995, 0.80385894, -0.64979473, -0.34483242, -0.15624516, -0.41465745, -0.46896580, -1.32516471, -1.13745518, -0.91471535, -0.65314477, -0.48509848, 2.09717193, 1.72920383, 1.38954096, 1.03572548, 0.80928357, 0.69530767, -0.95646437, -1.89940511, -1.56124705, -1.30112547, },
		 {0.38160166, -0.09564478, -1.87867686, -2.41037204, -1.78257157, 1.12836505, 1.12627405, 0.50890662, -0.34631193, 0.46604114, 1.23947422, -0.66019930, -1.61552644, -0.95746447, -3.27048561, -1.79974574, -2.45639489, -2.10139969, -3.15442949, -1.45210795, 3.07838445, 3.04078636, 2.57946372, 2.34074567, 1.16386567, 2.31881260, 2.26444954, 2.00667941, 1.60317002, 0.76194713, 0.03088951, 0.04504213, 0.08749998, 0.14411046, 0.21487356, 0.12304019, 0.07751892, 0.22708883, 0.16205843, 0.30512530, },
		 {-1.02783337, -4.15502761, 1.58603393, 1.97701521, -0.63750810, 0.87221768, -0.56586681, 0.81262421, 0.64534430, 3.43316858, -1.44924618, 0.64259084, -0.70098502, 0.32807016, 4.17290896, 1.24070536, 0.58773492, -2.77184399, 0.97307945, -0.16088190, -0.14132528, -0.74945952, -0.48388568, -1.54379383, -1.42741878, -0.48509848, -0.77657700, -0.72601440, -0.58771082, -0.80284973, 0.58284166, 0.41301023, 0.92250453, 1.34708311, 1.82827217, -0.89143398, -1.10603428, 1.05297485, 1.95039431, 2.08045510, },
		 {0.05556526, 0.11493406, 0.04047705, -0.36460842, -0.24783884, 0.29353374, 0.07554710, -0.22660224, -0.46131687, 0.01229438, -0.61157016, -0.59196164, -0.37626791, -0.15429945, 0.06610032, 0.44794407, 0.46449825, 0.68062227, 0.98871395, 1.02826005, -0.72618451, -0.85449546, -0.88373842, -0.79302556, -0.72916848, -0.53053872, -0.57333517, -0.57779658, -0.53698298, -0.50724027, -1.41267767, -1.66742482, -1.85140887, -2.06369816, -2.12030864, -0.95646437, -1.02149477, -1.02149477, -0.89143398, -0.51425768, },
		 {-2.23849772, -0.71721318, -4.15502761, 2.27254720, 0.76175879, 1.12104655, -1.13357301, -6.66374235, 1.10327306, 7.82740276, -2.22182191, -0.29469646, 2.39951432, -4.60935542, 6.08356324, -0.06983390, -0.17191802, -0.10938000, -1.57810366, 0.96112365, -0.65874666, -0.91536856, -3.40161707, 1.27009521, -1.66912081, -0.29771942, -1.19016587, -0.58242322, -0.63397725, -0.74468621, 0.03088951, -0.18139978, -0.23801026, 0.62529952, 1.36123573, -0.33867562, -0.89143398, -0.59879720, 2.69824386, 4.08339128, },
		 {0.93264910, 0.68795780, 0.64039716, 0.40259394, -0.52697061, -0.00025161, -0.62755128, -0.48431785, -0.13407554, 0.22923552, -0.01076508, 0.69200431, 0.87240270, 0.86455930, 0.36807154, -0.64279248, -0.53059192, -0.68969599, -0.92329386, -1.43739313, 0.70970458, 0.98900470, 1.15610734, 1.43660105, 1.93552178, 1.51476809, 1.68925863, 1.76510254, 1.80641185, 1.75138784, -0.39368907, -0.28046812, -0.18139978, -0.08233145, 0.14411046, -0.00051756, 0.27261010, 0.40267089, 0.53273168, 0.59776208, },
		 {-0.51778649, -0.62996400, 2.07115248, 0.46163474, 0.48328303, 0.32855797, -0.19680551, 1.13150154, 1.17802627, 1.76716521, -0.34410994, 0.22689019, -0.88922682, 0.69200431, 1.07005660, 0.36149446, -0.21238379, -1.40152574, -0.57381672, -0.61796121, -0.22607019, -0.62831010, -0.63487485, -0.88851278, -0.61518061, -0.40710649, -0.53962677, -0.41057647, -0.34563823, -0.28450044, 0.54038380, 0.46962071, 0.68191000, 0.92250453, 1.23386215, -0.20861482, -0.32566954, 0.38966481, 1.28058123, 1.46266634, },
		 {-0.10679694, 0.04769315, -0.05103618, -0.36034436, -0.62865198, 0.83876170, 0.61816131, 0.17277855, -0.27208147, 0.31601197, -0.87589303, -0.78412515, -0.82491087, -0.74882981, -0.53627344, 0.41115700, 0.32194836, 0.36701252, 1.10367354, 1.01630425, -0.33588049, -0.50895108, -0.61339023, -0.63964921, -0.76199221, -0.42329974, -0.55383718, -0.61348783, -0.63215964, -0.62009732, -1.24284624, -1.45513553, -1.66742482, -1.93632459, -2.04954554, -0.68333671, -0.79388838, -1.04100389, -1.05400997, -0.78088231, },
		 {1.14257194, 2.29157145, 1.89468609, 0.84933598, 0.69025383, -0.00652461, -0.46968086, -1.12416352, -1.00602208, -0.57998105, 0.80181203, -0.25626376, -0.31508933, 1.39634238, 0.73122135, 0.85720019, -0.39080107, 0.63004005, 0.24469552, -1.81813927, -0.21234390, -0.29589522, -0.18847209, 0.14513639, 0.25375310, -0.63777771, -0.37290238, -0.05796016, 0.44353493, 0.86786421, 1.67259335, 1.60183026, 1.34708311, 1.23386215, 1.12064120, 3.67369979, 1.28058123, -1.00848869, -0.55327592, -0.43622121, },
		 {-0.24587081, 0.11919812, -0.38363267, -0.05070818, -0.33443201, 0.49270138, -0.80633168, -0.89572189, -0.26685397, 0.35783195, 0.19316354, 0.95083679, 1.57203473, 0.14767177, -0.39979814, -2.21451992, -0.57749543, 0.05892083, 0.17388041, 0.05156342, -0.49641838, -0.56325943, -0.41943181, -0.22308621, -0.26545866, -0.58820653, -0.55929001, -0.56375141, -0.59448554, -0.55846382, 1.92734050, 2.04056146, 2.09717193, 2.02640884, 1.89903526, 1.24806604, 0.71481679, 0.41567697, -0.04603884, -0.56628200, },
		 {-0.81003843, -2.93780317, -0.39872088, 0.40488998, -0.56009906, 0.48695113, -0.43988413, -0.31912894, 0.75093974, 1.90412564, -0.33626653, 0.05747257, -0.08606180, -0.39744511, 0.87161836, -0.19399026, -1.06860278, -0.61336282, -0.59129058, -1.25437747, -0.33110613, -1.18929753, -0.82763968, -0.48149850, -0.73453964, -0.40082747, -0.48757704, -0.54425342, -0.37719855, -0.52442495, 0.73852047, 0.76682571, 1.06403072, 1.21970953, 1.64428811, -0.30616042, -0.05904491, 0.94242318, 0.71481679, 1.37812683, },
		 {0.60726871, 1.10222739, 0.94314524, 0.94412926, 0.15790264, 0.02379488, -1.96265407, -2.58368075, -2.86230635, -2.65163821, 0.41121029, 2.05205133, 1.20966927, 0.04962916, -0.27430360, -3.84970505, -0.52415418, -0.80465557, -0.31998596, 0.30539418, -1.48590471, -1.09798787, -0.58474406, -0.39973757, -0.37467217, -1.40183480, -1.24667701, -1.44182222, -1.07020362, -0.85969135, 1.85657740, 1.95564574, 1.75750907, 1.34708311, 0.99326762, 0.89039886, 0.33764050, -0.40370601, -1.88639903, -2.06198110, },
		 {-2.03185493, -1.88195691, -0.86087912, 1.56340162, 2.05081620, -0.42472439, -1.17696124, -0.56168481, -0.14714428, -1.18271149, -0.37862093, -1.33786978, -0.83589164, 1.18613904, -0.07115932, -0.53427063, -0.05879778, 1.55707414, 0.44426536, 1.03009940, -1.79206061, -1.44233866, -0.68261846, -0.24337724, -0.12879258, -1.68356433, -1.43058608, -0.87373651, -0.71362161, -0.34117682, -0.06817883, 0.35639975, 0.99326762, 1.75750907, 1.47445668, 2.21051589, 1.93088519, 2.76327425, 3.39406909, 0.20757971, },
		 {-4.15502761, 2.78325009, 0.71944622, -1.95313387, -0.09269274, -3.03690476, -0.39335940, 1.50631310, 5.55396421, -0.41845139, 1.79478753, -1.28845631, -0.25547942, 8.42482064, -0.29861817, -1.58913978, -1.89723147, 3.26951212, -1.14769497, -3.41285863, -1.75386572, -1.05740580, -1.42025724, -1.97050235, -1.50142138, -1.11812242, -0.56391665, -0.78252555, -1.12241859, -1.42100232, -0.12478931, 0.49792594, 1.04987810, 1.70089859, 1.87073002, -1.04100389, 1.18303564, 3.51112380, 3.12094143, 2.04793990, },
		 {0.91559287, 0.64892527, -0.10909297, -0.34886420, 0.22842359, -0.07239107, 2.15922750, 3.29150341, 0.80426022, -0.19210076, -0.99511283, -0.54882290, 1.34457589, -0.15429945, 0.78298785, -0.80741460, 0.21250684, -1.76939641, -2.90427743, -2.05541585, -0.14013169, -0.43614207, -0.97743526, -0.64322998, -0.68202167, -0.44874628, -0.28664853, -0.40875886, -0.57465707, -0.63116822, 0.86589405, 1.21970953, 1.51691454, 1.71505121, 1.87073002, 0.69530767, 1.28058123, 1.69027273, 1.34561163, 0.61727120, },
		 {1.53781728, 0.07163747, 0.52985966, 0.16643075, 0.14478246, 1.76873346, 0.73578000, -0.58207205, -1.16702899, -1.04156906, 0.30061823, 0.43003447, 0.85906891, 2.21284120, 0.92260052, 0.02673215, -3.02199604, -1.81721959, -0.29883340, 0.17847880, -1.08366479, -1.06516414, -1.05442183, -0.75065311, -0.43494848, -0.52409447, -0.98047978, -0.88645978, -0.79442263, -0.96544319, 1.19140429, 1.63013549, 1.75750907, 1.89903526, 1.95564574, 1.82033352, 1.52769674, 0.82536846, 0.74082895, 0.55224080, },
		 {-0.76674185, -0.85628706, -0.75722972, -0.54829090, -0.23931072, 0.20205253, 0.05359161, -0.07552757, -0.53554733, -0.18373676, 0.15080913, -0.47666354, -1.01315267, -0.55901933, 0.15551518, -2.00391396, -1.97724334, -1.69398292, -1.16792786, -0.71176823, 1.92239228, 1.91642433, 1.59475176, 1.12029963, 0.91858287, 1.65009740, 1.50782812, 1.28690590, 0.96072755, 0.71435880, 0.31394189, 0.55453642, 0.78097833, 0.93665715, 0.92250453, 1.00745357, 1.15052044, 1.26757515, 0.76033807, 0.17506451, },
		 {0.57512427, 0.12641421, -0.44070544, -0.62865198, -1.28334882, 0.37246894, 0.80373747, 1.15973003, 1.83930467, 0.76348574, 1.62458557, 1.51242483, 0.63239441, -1.95436168, -2.28692220, 1.43843585, 0.26676776, -0.69521405, -2.03242394, -2.59618574, 2.81102023, 3.31889289, 3.56895005, 3.16551654, 2.40639313, 2.20992124, 2.16580289, 2.07459193, 1.74097790, 1.45924837, 0.22902618, 0.35639975, 0.51207856, 0.59699428, 0.58284166, 0.82536846, 0.76033807, 0.74082895, 0.46770129, 0.07751892, },
		 {-0.88219941, -0.36690445, -0.20224622, -0.66768451, -0.62733996, -0.62180103, -0.04363984, 0.21982602, -0.09173281, 0.30032948, -0.33234482, -0.16763325, 0.32022675, 0.41277897, -0.69471029, 1.20483797, 1.22599054, 1.09171774, 1.04849294, 0.91697917, -1.07053530, -0.95057947, -1.11469814, -1.05203465, -1.09739108, -0.51946783, -0.52145067, -0.56474284, -0.61580115, -0.63149869, -2.13446126, -2.20522435, -2.21937697, -2.20522435, -2.14861388, -0.81339750, -0.46873641, -0.12407531, -0.01352364, 0.20757971, },
		 {-0.14058139, -0.88285542, -2.90401871, -2.12861624, -1.81077995, 0.83719345, 1.46135662, 0.87692243, -1.59150177, 0.09593434, 1.06142885, -2.53712692, -2.61242364, -2.76066406, -2.71517229, -1.48521631, -1.21942975, -1.63972200, -2.26602181, -1.55695109, 3.34574867, 3.17625885, 2.75372790, 1.43600425, 0.35341789, 2.42258160, 2.15357534, 1.72461941, 1.11357202, 0.42172361, 0.21487356, 0.31394189, 0.39885761, 0.42716285, 0.37055237, 0.85788366, 0.61727120, 0.41567697, 0.16205843, -0.12407531, },
		 {1.40366346, 0.04441311, 1.26557360, 0.02866889, -0.73361340, -2.01597455, -2.31498739, -3.23554965, -2.77239340, -1.46865559, 2.49441956, 3.27876040, 0.55552901, -0.70176936, -1.67905804, -0.50484097, -0.17927543, -0.17651640, 0.02121409, 0.47829340, -1.10574621, -0.97325769, -0.34662280, -0.14789002, -0.31917023, -1.16901550, -1.18818302, -1.20470675, -0.86729226, -0.60126027, 1.78581431, 1.91318788, 1.63013549, 1.34708311, 0.99326762, 0.56524688, 0.71481679, -0.48824553, -1.63928353, -1.37916195, },
		 {0.04638113, 0.04933317, 0.03030892, -0.10515691, -0.23045461, 0.31130723, 0.11527608, -0.04102609, -0.37244941, -0.03109384, -0.63353171, -0.66019930, -0.54333251, -0.26489151, -0.04370740, 0.43047021, 0.55002818, 0.69165839, 0.93629238, 1.00250910, -0.73394284, -0.84972110, -0.92253010, -0.88791599, -0.86225379, -0.50013507, -0.54557531, -0.56986519, -0.55879430, -0.50971883, -1.38437243, -1.63911958, -1.82310363, -1.99293506, -2.13446126, -0.85891878, -1.00848869, -1.00848869, -0.94345829, -0.65082151, },
		 {-4.15502761, 2.95676444, 2.41752516, -0.72344526, -0.44037744, -7.21733430, 0.19368854, 4.17181394, 4.06517300, -1.00706758, 1.76576692, -2.93400339, 1.32967341, 5.95728436, -1.24374888, -1.10171114, -4.65810086, 3.10305064, -4.13296547, -2.95302029, -3.58005882, 1.41272924, -1.92454913, -2.37811343, -1.64763619, -0.68354843, -0.53500013, -0.71114305, -1.42430707, -1.42116756, -0.32292598, 0.58284166, 1.21970953, 1.57352502, 1.67259335, -0.82640358, 2.37309188, 4.12891256, 2.73075906, 0.94242318, },
		 {-0.34591216, -0.51483445, -0.07530851, -0.59158748, -0.33738405, -0.16596327, -0.18530501, 0.26948725, -0.30501470, -0.19837375, -0.57549048, -0.45156463, -0.20841897, -0.14253434, -0.18724177, 0.83880665, 0.98963363, 0.81857377, 0.87835275, 0.97307945, -0.87777047, -0.78347684, -0.91954613, -0.92253010, -0.97982244, -0.56077714, -0.54557531, -0.59299841, -0.63629057, -0.65347525, -1.86556149, -2.00708768, -2.06369816, -2.09200340, -2.09200340, -0.91094310, -0.79388838, -0.20861482, -0.18910571, 0.01248852, },
		 {-1.03570548, -2.59405453, -1.93673365, -1.42865479, -1.44538301, 0.83823895, 0.12939032, -0.61343704, -1.06091080, 1.30766820, -2.76223274, -1.51356213, -0.62647264, -1.57709374, -2.10730814, 0.03960762, -0.12777354, -0.52231483, -0.52783289, 0.12145884, 3.23176080, 3.00080108, 2.56991500, 1.50045813, 0.06814981, 2.09871657, 1.67851821, 1.35547937, 0.82126730, -0.17792241, 0.35639975, 0.39885761, 0.45546809, 0.45546809, 0.35639975, 0.48721041, 0.37015570, 0.22708883, 0.11003411, -0.24113002, },
		 {2.37521258, 2.20596230, -1.41127055, -0.69326886, 1.05171471, 0.52929386, 4.41123331, 6.45884399, -1.09698053, -2.21200569, -1.01236833, -1.49865965, 8.18245932, 0.82298923, 1.18300168, -3.51126404, 3.76981623, -4.32977628, -5.42051282, -1.15137368, 0.68105841, -1.42562840, -2.22354349, -1.56527846, -1.00429104, -0.45634719, -0.58688463, -1.36696974, -1.31739856, -1.05516703, 0.46962071, 1.06403072, 1.48860930, 1.55937240, 1.79996693, 1.34561163, 3.57615420, 2.76327425, 0.94242318, 0.89039886, },
		 {-0.32524789, 0.36159339, 0.68008569, 0.04342909, 0.67778966, 4.37777733, 0.82830670, -2.43783357, -2.29773665, -2.37144436, 4.22232243, 2.31009946, 1.39398936, 2.23480274, -0.04527608, 0.53623303, -4.03731910, 0.17663945, -0.05603875, 0.22814134, -1.67628235, -1.69120223, -1.20839497, -0.52387096, -0.33229972, -0.80318020, -1.31838998, -1.06855124, -1.18041687, -0.99882112, 1.20555691, 1.47445668, 1.70089859, 1.84242478, 1.55937240, 2.89333504, 2.37309188, 0.95542926, 0.64978640, -0.69634279, },
		 {-0.76083777, -0.51909850, 0.00767661, -0.75296566, -0.86251914, 0.24439526, -0.29769620, 0.26844175, 0.70441502, 0.95742589, -0.84295071, -0.62019791, 0.11865116, -1.11903869, -0.43979952, 0.19135427, 0.77810799, 1.25266116, 0.95836462, 0.87467404, -0.85449546, -0.97206410, -1.01503335, -0.83718840, -1.22808921, -0.79971022, -0.75360903, -0.75939233, -0.89240832, -0.93057813, -2.00708768, -2.14861388, -2.20522435, -2.21937697, -2.21937697, -1.18407076, -0.95646437, -0.46873641, -0.04603884, 0.05800980, },
		 {3.61211729, -0.08678866, -0.08908470, -0.56337910, 0.12116614, 0.87012668, -0.28515021, 1.86387391, 2.38296438, 0.38971969, -2.59438380, -1.35277226, 0.97279833, 1.65125316, 0.73514306, -2.53180837, -0.21790185, -0.71820596, -2.22739539, -2.28625470, -0.26903944, -0.92611087, -1.19108791, -1.32417323, -1.15348982, -0.66487662, -0.67809560, -0.66272853, -0.89604354, -0.95371135, 0.71021524, 1.04987810, 1.36123573, 1.60183026, 1.70089859, 0.82536846, 1.99591559, 1.78781832, 1.39763595, 0.82536846, },
		 {1.31608628, 0.28188831, 1.49681672, 0.82375163, -0.54796289, -1.39128863, -2.23500668, -3.87957731, -4.24445662, -3.25907339, 1.63791936, 3.12895130, 1.07633132, 0.23630228, -0.33940389, -0.77062753, -1.10355049, -0.00453686, 0.32930577, 0.72936513, -1.54439063, -1.21854049, -0.69395757, -0.37526897, -0.30126637, -1.32946088, -1.49651575, -1.31078907, -0.88827739, -0.61960161, 1.74335645, 1.71505121, 1.26216739, 0.93665715, 0.65360476, 0.43518609, 0.12304019, -1.41167714, -2.17903581, -1.60676833, },
		 {-0.10187687, -0.12352516, 0.01259668, -0.35542429, -0.51155440, 0.95742589, 0.88424092, -0.44249788, 0.36149120, 0.31339823, -0.55666630, 0.76573235, 0.22375283, -0.31116762, -0.64686550, 0.66682711, -0.15444416, 0.30447450, 0.87191501, 1.04573391, -0.43315810, -0.67665051, -0.66352102, -0.66232743, -0.79959031, -0.57531802, -0.69329743, -0.68420938, -0.70602069, -0.79475310, -0.98809909, -1.21454100, -1.38437243, -1.46928815, -1.58250910, -0.74186407, -0.87842790, -0.94345829, -0.69634279, -0.50125160, },
		 {-0.46792981, 0.14543847, 1.03498648, 1.84974949, 1.73429193, -1.48590633, -0.54286582, -0.40851914, -0.59984554, -1.06666105, 0.53984219, 0.41513200, 0.41199463, 0.40571991, 0.26140119, 1.52580513, 1.60857603, 1.10551289, -0.05603875, 1.00250910, -0.28336252, -0.09954962, 0.25375310, -0.09000090, 0.10992547, -0.80004070, -0.55962048, -0.38562565, -0.32878403, -0.09546902, -0.25216288, 0.17241570, 0.65360476, 0.55453642, 0.32809451, 1.54070282, 2.08045510, 2.50315267, 0.40267089, -1.20357988, },
		 {-0.69753291, -2.40971604, 4.99826401, 0.47180288, -1.17313934, -0.80580893, -3.56540473, 0.49845163, 0.98199512, 6.44734349, -0.76922267, 1.08966512, -0.31508933, -1.59748660, 7.89460624, -0.62531862, -0.24089377, -4.10169646, 4.42462602, -3.02107637, -0.69753834, -1.51992203, 0.77654563, -0.68679603, -2.01824596, -1.12440144, -1.22998805, -0.56011619, -0.68553127, -1.20999434, -0.05402621, -0.22385764, 0.35639975, 0.93665715, 1.60183026, -1.15155556, -1.00848869, 1.15052044, 3.49161468, 2.93885632, },
		 {-0.86251914, -0.82447063, -0.68277271, -0.60142761, -0.24685483, 0.33273997, -0.54757057, -0.71432773, 0.07188785, 0.37508269, -0.80765537, -1.15198100, -0.93628727, -0.20606595, -0.69706331, -3.03579119, -2.82334588, -2.14922288, -1.43003571, -0.57841511, 1.75409606, 1.35663050, 1.02481241, 0.86964567, 0.75207703, 1.37266404, 1.13835761, 1.00286305, 0.72179447, 0.32010269, 0.66775738, 0.85174143, 0.97911500, 1.02157286, 1.06403072, 1.23505996, 1.24806604, 0.81236239, 0.43518609, 0.12304019, },
		 {0.24121576, 2.18004995, 1.27902178, 0.63744512, 0.47770696, -0.35049392, -0.86644790, -1.60352501, -1.48799733, -0.98824859, 0.53356746, -0.00684338, -0.00762772, 0.99005383, 0.77357576, 0.48197210, -0.35401400, 0.92893497, 1.41912264, 0.20239039, -0.49999915, -0.52088698, -0.26426507, 0.11290945, 0.18392807, -0.61514020, -0.47287092, -0.03895787, 0.27995004, 0.64264583, 1.77166169, 1.63013549, 1.36123573, 1.23386215, 1.10648858, 3.71922107, 1.41064202, -1.39867106, -0.95646437, -0.66382759, },
		 {-1.24366029, -4.15502761, 3.69411840, 3.03351747, -1.10261838, 0.01647638, -3.92976129, -0.72844198, 2.41746587, 4.83256959, -0.89314852, 2.17754586, -4.60386503, 2.12342634, 6.30160999, 0.94548915, 0.03041085, -2.41684879, 1.44211456, -3.98673688, -0.45106195, -2.41988909, 1.25756251, -2.06181201, -1.87978949, -0.88959929, -0.65413619, -0.83209672, -0.65132716, -1.16207553, 0.21487356, 0.28563665, 0.92250453, 1.38954096, 1.79996693, -0.84591270, -0.32566954, 2.28855237, 2.77628033, 2.51615875, },
		 {-0.25308691, -0.18683002, -0.00478756, -0.54337083, 0.15527860, 1.96633285, 0.98408612, -0.51881934, -0.52613783, -0.29194596, 1.14692200, 0.37983666, 1.09437116, 1.63478200, -0.18175138, -0.15536384, -2.20624283, -0.57473640, 0.16744268, 0.00374023, -0.61876138, -0.62592292, -0.54535558, -0.49880556, -0.32991254, -0.34002016, -0.65033574, -0.69395837, -0.75493092, -0.74699954, 1.72920383, 2.04056146, 2.12547717, 2.06886669, 1.81411955, 1.47567242, 1.41064202, 0.55224080, -0.01352364, -0.85891878, },
		 {1.46795233, 1.51124892, 1.47582444, 1.39415133, 1.28656588, -0.48902260, -0.05566308, 0.50367912, 0.66520879, 0.40331118, 0.72651531, 0.41826936, -0.00527469, -0.08684614, 0.16806463, -0.52231483, -0.21698217, 0.11134240, 0.21250684, 0.20882813, 1.14059066, 1.34529139, 1.50463569, 1.54700815, 1.59534855, 1.83152792, 1.98850331, 2.06517340, 2.09375945, 2.14630490, -0.15309455, -0.20970502, -0.25216288, -0.26631550, -0.28046812, -0.76137319, -0.50125160, -0.27364522, -0.14358443, -0.09156011, },
		 {-0.37543256, -0.61946786, -0.54763489, -0.53845076, -0.83299874, 1.00342786, 0.26844175, 0.16911930, 0.62495706, 0.98931362, -0.75275151, -0.57941219, -0.43587782, -0.57313746, -0.21861540, 0.56290365, 0.56658236, 1.10275386, 1.22323151, 1.13218351, -0.75005631, -0.95117627, -0.86583457, -1.02696925, -1.05740580, -0.76864562, -0.85440375, -0.90959300, -0.96412130, -1.06888172, -1.52589862, -1.63911958, -1.78064577, -1.82310363, -1.83725625, -0.78088231, -0.72885799, -0.57928808, -0.37119081, -0.14358443, },
		 {2.02063980, 1.26458959, -0.35148824, 0.70796607, 0.19955920, -0.25117148, 1.90151189, 5.22515464, 0.45610890, -2.41849183, -1.34179148, -0.01860849, 3.85289789, 0.13747534, 1.09986155, -0.41655201, 2.34799608, -1.80710315, -3.14523272, -0.42023072, 0.05382673, -1.34923862, -1.38743351, -0.98280641, -0.73453964, -0.69742836, -0.56936948, -0.83226196, -1.07416931, -0.88216361, 0.92250453, 1.24801477, 1.68674597, 1.77166169, 1.96979836, 1.10499917, 1.86585479, 1.82033352, 0.98794445, 0.61727120, },
		 {0.13527033, -0.54927491, -0.86022311, -0.18814203, -0.99142488, -0.22607949, -0.77967145, -0.27364972, 0.42213017, 0.48172364, -0.24136129, -0.27587228, -0.75824190, -0.51039019, 0.64729688, 0.30539418, 0.83144924, 1.03561746, 1.17540832, 0.83236892, -0.82704288, -0.92969164, -0.74766913, -0.96669294, -1.01204937, -0.78830885, -0.72452727, -0.65397096, -0.69610646, -0.78913504, -1.79479839, -2.03539292, -2.17691911, -2.17691911, -2.14861388, -1.34664675, -1.31413155, -0.98897957, -0.33867562, 0.02549460, },
		 {1.64540273, 0.60136463, -0.45021757, 0.00341255, -0.08777268, 0.47754164, 1.97469685, 2.24234471, 0.29301099, -0.73419222, -0.76059492, -0.79353724, 0.80338071, 1.05986016, 1.41830393, -1.30863839, -0.15904254, -0.82764749, -1.88527567, -0.25101021, 0.02876133, -0.70828065, -1.15587700, -0.93386921, -0.79302556, -0.52541637, -0.37389380, -0.53929630, -0.73625911, -0.72717106, 0.69606262, 1.04987810, 1.34708311, 1.58767764, 1.64428811, 0.81236239, 1.44315722, 1.70327881, 0.79285327, 0.24009490, },
		 {-0.68900480, -2.15584061, -1.92098944, -2.21094535, -2.17388085, 0.75825824, 1.09386356, 0.49426963, 0.25432751, 1.05361184, -1.15198100, -2.68222998, -1.21080656, -2.63046348, -2.37084667, -0.11305871, -0.10754065, -1.67191068, -1.13941788, -1.02813700, 3.55104619, 3.27055248, 2.59617399, 0.87740401, -0.45523952, 2.32955302, 1.88523002, 1.44768176, 0.73583964, -0.17412195, 0.35639975, 0.42716285, 0.38470499, 0.32809451, 0.17241570, 0.43518609, 0.45469521, 0.04500372, -0.24113002, -0.55327592, },
		 {-0.09466077, -0.35640831, -0.50499431, -0.20618228, -0.48957810, 1.35053368, 1.22036900, 0.46133640, 0.19473404, -0.11734755, -1.17786425, -1.33786978, -1.05236971, 0.12492588, -0.12371016, 1.10275386, 0.77718832, 0.52611658, 0.49760661, 0.85352148, -0.23800609, -0.45882029, -0.78646081, -0.84494674, -0.83718840, -0.62290635, -0.72370108, -0.77624653, -0.79243978, -0.83226196, -1.05886218, -1.25699886, -1.49759339, -1.63911958, -1.79479839, -0.81339750, -0.95646437, -1.20357988, -0.98897957, -0.74186407, },
		 {-0.13894137, -0.41544910, -0.51319442, -0.60733169, -0.93140007, -0.47438561, -0.00809286, 0.66834529, 1.07347632, 0.71643826, -0.36058109, -0.05390383, -0.01390244, 0.29826521, -0.25626376, 1.05401100, 1.28393017, 1.53776093, 1.03009940, 0.60061039, -0.82525250, -0.87478649, -0.87359290, -1.12603724, -1.17855521, -0.83920193, -0.84597665, -0.91554154, -1.00262158, -1.09465873, -1.51174600, -1.56835648, -1.65327220, -1.65327220, -1.65327220, -0.82640358, -0.55327592, -0.30616042, -0.22812394, -0.00051756, },
		 {1.84810947, 0.68566177, -0.17961392, -0.48400203, 0.62071689, 1.43678738, 0.29876123, 3.13258749, 1.59256680, -0.53607008, -3.95443082, -3.52225902, 1.84027930, 2.23715576, 0.85750023, -3.20961009, -2.63297281, -0.64463183, -3.19581494, -1.06400439, -1.60168296, 0.38385444, -1.24599306, -1.27642962, -1.06098657, -0.40396698, -0.73675482, -0.69412361, -1.01369247, -0.91504583, 0.44131547, 0.86589405, 1.44615144, 1.70089859, 1.82827217, 0.35064658, 2.14548549, 2.15849157, 1.93088519, 0.71481679, },
		 {-0.39445682, -0.67194857, -0.72508528, -1.14197892, -1.21151585, -0.41531489, 0.31130723, 1.03165635, 1.02276960, 0.80896496, -0.27038190, -0.10410164, -0.11978846, 0.10218000, -0.07743405, 1.38141589, 1.50373289, 1.87068389, 0.86639695, 0.71924869, -0.84673712, -0.81212300, -0.89089996, -1.19944304, -1.20421740, -0.86497894, -0.88844263, -0.98824594, -1.12407096, -1.15860555, -1.69573006, -1.75234053, -1.80895101, -1.78064577, -1.63911958, -0.76137319, -0.43622121, -0.27364522, 0.01248852, 0.35064658, },
		 {-0.47711394, -0.89039952, -0.57321923, -0.68474074, -1.05079368, 0.80635122, 1.00395061, 0.65893579, 0.47597339, -0.04991283, -0.44215254, 0.01433383, -1.01942740, -0.58254955, -1.39983271, 1.48901807, 0.79006379, 0.24745455, 0.62636134, 1.40624716, -0.85628584, -1.12245647, -1.13498917, -1.08187440, -0.97803205, -0.71808301, -0.87935458, -1.00295205, -1.03071191, -1.04756611, -2.04954554, -2.16276650, -2.13446126, -2.13446126, -2.07785078, -0.50125160, -0.37119081, -0.17609963, 0.02549460, 0.17506451, },
		 {1.22260502, 1.33740657, 1.34363865, 1.32428639, 1.27344570, 0.13984532, -0.33167493, -1.01177233, -1.14977825, -0.38551816, 0.77828180, 0.68651393, 0.72651531, 0.72886833, 0.44572129, -2.15566061, -2.60906122, -2.32488112, -1.90091017, -0.45425876, 0.57005452, 0.50321346, 0.47993845, 0.55155387, 0.81056296, 0.73022157, 0.93693339, 1.22147195, 1.39959772, 1.68694531, -0.06817883, -0.18139978, -0.29462074, -0.39368907, -0.42199431, -0.55327592, -0.55327592, -0.46873641, -0.55327592, -0.11106923, },
		 {-0.36034436, -0.62865198, -0.40298494, -0.69195684, -0.52697061, -0.27208147, 0.31601197, 0.75459899, 0.33273997, -0.01070660, -0.74882981, -0.53627344, -0.07586537, -0.35509071, -0.43195611, 1.10367354, 1.01630425, 0.87283469, 0.63095972, 0.93997109, -0.63964921, -0.76199221, -0.96370897, -1.04964747, -0.94282114, -0.63215964, -0.62009732, -0.74072052, -0.80863303, -0.87224938, -1.93632459, -2.04954554, -2.12030864, -2.20522435, -2.20522435, -1.05400997, -0.78088231, -0.40370601, -0.35168170, -0.00051756, },
		 {-1.33615754, -0.82742267, 0.56987620, 2.38570873, 1.24031726, -0.38604091, -1.40017537, -0.78437620, -0.00286536, -0.81417293, -0.09704257, -0.06488460, 0.30218691, 0.65200293, -0.18332006, 0.23365940, 1.02550102, 2.14750657, -0.06799455, 0.72568642, -1.04845388, -0.56027546, 0.05263314, -0.03509574, 0.02040620, -1.39291199, -1.15315272, -0.51632832, -0.52888635, -0.11876747, -0.53521527, -0.05402621, 0.65360476, 0.97911500, 0.69606262, 1.98290951, 1.86585479, 2.54867395, 2.53566787, -0.78088231, },
		 {-1.21577991, -0.01528370, -4.15502761, -0.13500532, 0.37930563, 1.40228590, -1.81837515, -2.57008925, 0.94278889, 5.08139846, -2.50732197, 0.84259775, 1.61203612, -2.28456917, 2.27323544, 1.68123049, -0.13145224, -0.22066088, 0.03316988, 0.35137801, -0.38422090, -1.27225205, -1.86606320, 0.26568900, -1.22391164, -0.41123742, -1.07648263, -0.35885721, -0.62158445, -0.68272224, 0.25733142, 0.04504213, 0.24317880, 0.66775738, 1.16309906, -0.25413610, -0.57928808, 0.28561618, 2.02843078, 2.41861316, },
		 {-0.96616854, -0.33771205, -0.41315307, -1.36010186, -0.93894417, -0.01332035, 0.64743530, 0.53347586, 0.20989378, 0.65004905, -1.12060737, -0.25155772, 0.34611000, -0.41391627, -0.82883258, 1.38233557, 1.55063640, 0.92433658, 1.15333608, 1.16713123, -0.90402945, -1.01682373, -1.00011347, -1.08366479, -1.07053530, -0.68784460, -0.71857873, -0.85820421, -0.86712702, -0.93669191, -2.36090317, -2.38920841, -2.36090317, -2.36090317, -2.26183483, -1.02149477, -0.39069993, -0.00051756, 0.12304019, 0.33764050, },
		 {-2.10926398, -1.03472147, 0.48393904, 2.28140332, 1.63785863, -0.68400825, -0.37819966, -0.54547957, -0.85128816, -1.43729060, -1.73631493, -0.99197547, 0.97907306, 0.32650148, -0.05311949, 0.38172734, 1.84953132, 0.91146111, -0.20134767, 0.87283469, -1.48829189, -0.78347684, -0.51611262, -0.31678305, -0.05359639, -1.42116756, -0.87753697, -0.69660217, -0.52277257, 0.06348923, 0.52623118, 1.20555691, 1.94149312, 1.78581431, 1.43199882, 2.06094598, 3.05591103, 3.96633657, 1.47567242, -1.54173793, },
		 {0.31370474, -0.51188241, -0.06153232, 1.05269872, 0.61481281, 0.54706735, 3.83464037, 1.75461922, -1.45924609, -1.92658434, -0.24292997, 1.50850312, 0.61827627, 1.44261849, 1.48418856, 0.88571016, 0.39552249, -2.85921327, -1.40428477, -0.60232670, -1.06814811, -1.29313988, -1.28538154, -1.03293720, -0.76616978, -0.70403785, -0.83176625, -1.13448091, -0.95618991, -1.05401037, 1.50276192, 1.71505121, 1.81411955, 1.87073002, 1.84242478, 2.09346118, 1.59272713, 0.82536846, 0.17506451, -0.01352364, },
		 {1.26819763, 0.81587953, -0.60503566, 1.00087402, 0.24711984, -0.36513092, -3.02122227, -3.43419455, -2.85446510, -2.28780440, 0.06217862, 1.71635345, 2.52579319, 0.80024335, -1.15511836, -5.32946483, 0.23365940, 0.44334568, -0.15444416, 0.01845506, -1.40653095, -0.87657688, -0.61995497, -0.30007278, -0.12640540, -1.41786281, -1.16356267, -1.20239343, -1.20801149, -0.84068906, 1.75750907, 1.87073002, 1.94149312, 1.67259335, 1.36123573, 1.07248397, 0.40267089, 0.51322257, -0.55327592, -1.69130784, },
		 {0.29960055, 0.78570312, -0.97961672, 0.73912649, 0.33141698, -0.44197513, -1.97781382, -2.27421291, -2.44515207, -2.87851159, -0.91354139, 2.08185628, 2.95796500, -0.04527608, -1.15198100, -4.82272298, 0.82225247, 0.20790845, 0.08283242, 0.25113326, -1.56766564, -1.13379558, -0.87359290, -0.38541449, -0.39556000, -1.33623561, -1.12886284, -1.24766843, -1.12390573, -0.88695549, 1.75750907, 1.99810360, 2.08301931, 1.60183026, 1.29047263, 2.45112835, 0.98794445, 0.74082895, -1.36615587, -1.82136863, },
		 {-2.35133125, -1.78355558, -1.42504674, -1.66875403, -1.20298774, 0.57477309, 0.41324342, -1.38083363, 0.91508316, 0.01386263, -2.09397435, -0.05390383, -2.11122985, -2.35359117, -1.15825573, -0.15444416, -1.37669447, -1.38681091, -0.41011428, -1.11458661, 3.07659407, 2.66659581, 1.93253780, 0.25434989, -0.67605371, 1.79468001, 1.40042390, 1.00567209, 0.02465847, -0.95916418, 0.27148404, 0.22902618, 0.22902618, 0.14411046, -0.01156835, -0.09156011, -0.24113002, -0.09156011, -0.17609963, -0.69634279, },
		 {-0.31737578, -0.35804833, -0.25505494, -0.55649101, -0.34296012, -0.39022290, 0.05411436, 0.06770585, -0.30710570, 0.32019397, -0.14410302, 0.13904402, 0.10296434, 0.55396032, -0.72294656, 0.97124010, 1.05217164, 0.66406808, 0.68797968, 0.89122822, -0.84972110, -0.72499091, -0.88135124, -0.90522304, -0.85031789, -0.50872741, -0.45849528, -0.55912477, -0.58258846, -0.62984632, -2.00708768, -2.03539292, -2.06369816, -2.04954554, -1.92217197, -0.87842790, -0.46873641, -0.05904491, 0.02549460, 0.35064658, },
		 {-0.60962773, 1.57848982, 0.42719428, -0.20913432, -0.20191822, 0.02849963, 0.90567366, 2.08708804, 2.06826905, 0.22087152, 0.32257978, -0.90726666, 0.21512508, 1.11633271, 0.31081466, 0.21710522, -1.06400439, -0.59221026, -1.49809179, -1.36105996, -0.76915375, -0.32394459, -0.61995497, -0.81570377, -0.56266264, -0.61844495, -0.50542266, -0.36364909, -0.46989665, -0.60638263, 0.61114690, 0.73852047, 1.00742024, 1.26216739, 1.41784620, -0.32566954, 0.40267089, 0.81236239, 1.24806604, 0.84487758, },
		 {-0.06415636, 0.26483208, 0.55511600, 0.67286959, 0.27565623, 0.99035912, -1.13514126, -1.07293404, -1.03425056, -1.17225649, -0.36450280, 1.12574480, 2.09832744, -0.43274045, -0.87903039, -2.89692002, -0.83224587, -0.06063714, -0.13145224, -0.31998596, -1.18929753, -1.14692507, -0.89448073, -0.61100305, -0.66352102, -1.16901550, -1.06425508, -0.98593261, -1.11316530, -1.01038773, 2.05471407, 2.08301931, 2.12547717, 1.92734050, 1.58767764, 1.54070282, 0.40267089, 0.24009490, -0.48824553, -1.54173793, },
		 {-0.44070544, 3.18243149, -0.63980413, -0.21930245, 0.81522352, -2.13568423, 0.52406636, -0.97674809, 4.04635401, 1.64693277, -0.01154942, -0.71824052, -2.19358564, 2.91012020, 2.31794287, -0.36964850, -1.81538024, -1.28472680, 0.57485945, -4.48152293, -0.89627112, -2.09941010, 0.33551403, -1.48172714, -1.55035858, -1.20074105, -0.49534319, -0.82218249, -0.87324080, -1.40414812, -0.02572097, 0.37055237, 0.99326762, 1.63013549, 1.84242478, -0.89143398, 0.55224080, 3.23149310, 3.19897790, 2.30806148, },
		 {-0.06317235, 1.47516843, 0.97791371, 0.06343736, -0.47973797, -1.30294392, -2.13829798, -3.13465896, -3.41223906, -1.20675797, 2.90698284, 0.19630090, -0.46332974, -1.00138756, 0.16178990, -0.17559672, -0.78166365, -0.04684199, 0.65946970, 0.69533709, -1.12424686, -0.78347684, -0.68739282, -0.69157039, -0.68918321, -1.31326763, -1.48544485, -1.10655581, -0.83507099, -0.52376400, 1.72920383, 1.47445668, 1.09233596, 0.79513095, 0.48377333, 0.53273168, -0.57928808, -1.89940511, -1.75633824, -1.41167714, },
		 {-0.17305383, -0.42856928, -0.44004944, -0.69818892, -0.80708639, 0.45401790, -0.95897460, -0.34944843, 0.51099762, 0.92083341, 0.05668823, -0.81314576, 0.15316216, -0.50646849, -0.47666354, -0.07075358, 0.63371875, 1.22599054, 1.36486171, 1.56719058, -0.94699870, -0.84375315, -0.87777047, -0.77094414, -0.89328714, -0.84432428, -0.86993606, -0.84151525, -0.90414017, -0.98775022, -1.39852505, -1.62496696, -1.73818791, -1.79479839, -1.86556149, -1.00848869, -1.13854948, -0.87842790, -0.43622121, -0.35168170, },
		 {-1.85571655, -0.49810622, -4.15502761, 6.59285754, -0.33311999, 0.83876170, -1.62913975, -3.29775687, 2.23450346, 3.53667303, -2.15279991, 0.23787097, 1.08809644, -3.76226731, -0.77314438, -0.79545880, -0.90673968, -1.44199151, -2.56031835, 1.84401326, -0.40331834, -0.85389866, -1.80101254, -1.27762321, -1.41846686, -0.27161194, -1.14125564, -1.06359413, -0.41173313, -0.70849925, 0.17241570, -0.06817883, -0.22385764, 0.32809451, 0.88004667, -0.65082151, -0.89143398, -0.85891878, 1.07248397, 3.38106301, },
		 {1.08648318, 1.11206753, -0.52041052, 0.27139217, 0.72403829, -0.87167540, 1.86596491, 4.44782580, 0.38815144, -1.03895531, -2.74419290, -0.00841206, 4.54076481, -0.28920608, 1.10613627, -2.21451992, 0.81949344, -0.52783289, -3.02199604, -0.77890462, 0.38743521, -0.83778519, -1.60048937, -1.01921091, -0.97445128, -0.80698066, -0.48328087, -0.72568393, -1.01600580, -0.88827739, 0.79513095, 1.19140429, 1.55937240, 1.75750907, 1.89903526, 1.88536391, 1.99591559, 2.15849157, 1.44315722, 0.74082895, },
		 {0.02899690, -0.38330467, -0.40888901, -0.79396622, -0.62438793, -0.75353396, 0.04784137, 0.56640909, 1.17802627, 0.49688338, -0.57392180, -0.38018962, -0.44058386, -0.10331730, -0.50411547, 1.04665358, 1.61777280, 1.82745908, 0.89582661, 0.62084328, -0.72857169, -0.73513643, -0.63427806, -0.91596536, -0.96251538, -0.79194407, -0.79871880, -0.87621507, -0.99700351, -1.08292689, -1.54005124, -1.62496696, -1.76649315, -1.86556149, -1.92217197, -1.08652517, -0.71585191, -0.63131240, -0.61830632, -0.50125160, },
		 {-0.03758800, 0.92182496, 0.99956201, 0.82440764, -0.15993365, -2.15816247, -1.48329258, -1.63802650, -2.38921785, -2.83094137, 0.31395203, 2.81443062, 1.32967341, -0.21704672, -0.68529820, -1.29116453, -0.04040425, -0.47081294, -0.33562047, 0.29895644, -1.15408661, -1.07650325, -0.51909659, -0.32394459, -0.34602601, -1.25064271, -1.19694060, -1.49816812, -1.16851979, -0.89125166, 1.94149312, 2.05471407, 1.85657740, 1.43199882, 1.03572548, 0.76033807, 0.64978640, -0.17609963, -1.96443551, -2.15952669, },
		 {0.62465294, 0.08213362, 0.53313971, 0.03949304, -0.58732342, -2.26532617, -2.82832762, -2.56852101, -2.45978906, -1.80739741, 2.19166400, 1.96969554, 0.21512508, -0.63902209, -1.23904283, 0.33758286, 0.30999256, 0.11686046, 0.44058665, 0.47277534, -0.86941534, -0.48090171, -0.27023303, -0.22547339, -0.36512345, -1.15579652, -1.32946088, -1.11316530, -0.91438488, -0.69181029, 1.89903526, 1.88488264, 1.51691454, 1.20555691, 0.89419929, 0.72782287, 0.45469521, -1.20357988, -1.82136863, -1.72382304, },
		 {-0.71590116, -1.16461122, -1.78257157, -1.55952855, -1.66645800, 0.96840363, 0.59620583, -0.36356267, 0.04000012, 1.04681609, -1.68376409, -2.36535628, -1.37865550, -1.66415557, -3.13008860, -0.32366467, -0.05603875, -0.63911377, -0.18571317, 0.73764222, 3.17924283, 2.80326190, 2.38013415, 1.51299082, 0.06635943, 2.06219913, 1.71338327, 1.47263259, 0.95990137, -0.05729921, 0.46962071, 0.54038380, 0.52623118, 0.51207856, 0.38470499, 0.76033807, 0.37015570, 0.12304019, -0.04603884, -0.43622121, },
		 {-0.94747229, -4.15502761, 5.05828882, 3.04729366, -1.75501919, -0.18373676, -3.15609170, 2.57951828, 4.68829067, 6.79235831, -1.23747415, 1.21202229, -1.09707714, 1.97675461, 9.60054756, 1.28576952, 0.65303196, -3.07073891, 3.69072403, -3.91684145, -0.47553055, -1.52171241, 1.20981890, -1.93529144, -2.17938065, -1.00923107, -1.09631110, -0.56061191, -0.65942379, -1.33920988, -0.15309455, -0.32292598, 0.42716285, 0.99326762, 1.46030406, -0.71585191, -0.91094310, 1.73579400, 3.73873019, 2.86081985, },
		 {-0.24652682, -0.63652409, -0.98814484, -0.95862444, -0.71786919, 0.22609902, 0.29248824, 0.61397932, 0.74832600, -0.93649637, 0.51866499, 0.61513891, 0.49435042, 0.18924183, -1.12060737, -1.09343405, -1.49717211, -2.08944389, -2.83898038, -3.01279928, 1.83645378, 1.92358587, 2.03220259, 2.05547760, 1.16565606, 1.75039642, 1.72891558, 1.65802879, 1.47164116, 1.04549427, 0.04504213, 0.20072094, 0.45546809, 0.72436785, 1.03572548, 0.53273168, 0.76033807, 1.10499917, 1.39763595, 0.48721041, },
		 {-1.08589016, -0.49285815, 0.64728525, 1.83039723, 1.98718334, -2.06093102, -1.59986577, -0.80789993, 0.01438538, -0.70596374, 0.19943826, -0.04919778, -0.15116209, 0.00256871, -0.46332974, 0.40839797, 1.91942675, 2.16865913, 0.25021358, 0.31826965, -0.85330187, -0.18548812, 0.20959026, 0.00727671, -0.18310094, -1.31045859, -0.87423223, -0.35356962, -0.45105960, -0.22865025, -0.25216288, 0.18656832, 0.82343619, 1.16309906, 0.95080976, 1.82033352, 2.04793990, 2.87382593, 2.76327425, 0.01248852, },
		 {-4.15502761, 3.45303514, 1.38365519, -0.40167292, -0.20224622, -3.88166831, -0.19314626, 2.07663305, 3.84195887, -0.24071648, 1.34457589, -1.79670917, 0.69827904, 4.10702432, 0.29748087, 0.08007339, -2.11887355, 1.11470966, -0.83224587, -2.00483364, -2.04271456, 0.16841140, -1.05084106, -1.28239757, -0.82763968, -0.62191493, -0.65017050, -0.52029401, -0.82532200, -0.95271992, 0.44131547, 0.97911500, 1.46030406, 1.81411955, 1.99810360, -0.63131240, 1.52769674, 2.06094598, 2.06094598, 1.26757515, },
		 {-1.98855835, -0.26784711, 1.90091818, 1.45253612, 0.77323895, -1.43206310, -0.53136533, 0.06195561, -1.12677727, -1.15552850, -1.35120357, -0.87746171, 0.57670621, -0.58019653, 0.70847547, 0.69625677, 2.28729742, -0.00545654, 1.03009940, 1.53224287, -1.10693980, -0.47194978, -0.46180426, -0.42122219, 0.00966389, -1.31111954, -0.68338319, -0.71064734, -0.23393784, 0.14858642, 0.58284166, 1.26216739, 1.74335645, 1.36123573, 1.19140429, 2.01542470, 3.18597182, 3.31603262, -0.81339750, -1.33364067, },
		 {1.56536965, 1.38562322, 1.08353114, 0.80538338, 0.56561215, 0.47545064, 0.18271079, 0.06456936, -0.01332035, 0.27523750, -0.16449588, 0.33277621, 1.26614181, 1.79400319, 2.07715023, 1.19748056, 1.40164878, 1.21495442, 0.83604762, -0.13145224, 1.03495792, 1.25338494, 1.65622166, 2.09307569, 2.70359711, 2.13919969, 2.23801158, 2.37185376, 2.46653471, 2.50106929, -0.32292598, -0.37953646, -0.30877336, -0.16724717, 0.00258427, -0.16309355, -0.20861482, 0.05800980, 0.51322257, 0.87739278, },
		 {-0.63652409, -0.12746121, -0.67785265, -0.48925010, -0.99601694, -0.10218781, 0.30973898, -0.15916753, 0.18061980, 0.63750305, -0.18567309, -0.29704949, 0.09590527, -0.30567724, -0.65000286, 0.97215977, 0.92249723, 0.84892310, 0.79834088, 0.88203146, -0.76318580, -0.90999741, -0.96132179, -0.88015765, -1.07232568, -0.45866052, -0.51087549, -0.59184175, -0.63579486, -0.80136259, -2.14861388, -2.10615602, -2.13446126, -2.07785078, -1.90801935, -0.63131240, -0.02652972, -0.01352364, 0.09052499, 0.48721041, },
		 {-1.74550707, -1.24661233, -1.32795743, -1.35813383, -4.15502761, -0.09800581, -0.14557603, 1.09281806, 1.49376710, -3.15975094, -0.90099193, -1.70258827, -2.60458024, -0.84844110, 1.60340837, -1.41440121, -0.88006906, 0.11502111, -0.12409483, -1.08147825, 2.30135719, 1.32500036, 0.41369419, -0.58713124, -1.90425809, 1.40571149, 0.88719697, 0.20394090, -0.72072681, -0.81573824, 0.49792594, 0.48377333, 0.41301023, 0.27148404, 0.18656832, 0.18807059, -0.01352364, -0.20861482, -0.59879720, -0.63131240, },
		 {-0.44332948, 0.60956474, 1.15274007, -0.25931899, -0.33377600, -1.50890731, -1.55020454, -2.59152199, -3.08708873, -2.06877227, 2.88894300, 1.87400596, 0.11551379, -0.13704396, -0.80687103, 0.29251871, -0.72648305, -0.31262855, 0.37528961, 0.49668693, -1.28180077, -0.77810568, -0.35855870, -0.39973757, -0.38541449, -1.20090629, -1.48594056, -1.09845919, -0.79690119, -0.52492066, 2.12547717, 1.94149312, 1.40369358, 1.03572548, 0.78097833, 0.64978640, -0.20861482, -2.17903581, -2.04897502, -1.67179873, },
		 {-0.02577984, -0.80347834, -0.34984822, -1.05800978, -1.35550980, -1.41847161, -0.69341774, 0.74309850, 0.44879040, 0.10534383, -0.84373505, -0.25783244, -0.59117730, 0.09041489, -0.62725698, 0.76891123, 1.32071723, 1.46602615, 1.16069349, 1.37681751, -0.68978000, -1.02338848, -1.12484365, -1.20660459, -1.40295018, -0.80334544, -0.64620481, -0.71527398, -0.81045064, -0.85341233, -2.14861388, -2.29014007, -2.34675055, -2.38920841, -2.30429269, -1.49621666, -1.11904036, -0.48824553, -0.25413610, 0.16205843, },
		 {1.72346778, 1.54273734, -0.61028373, 0.25991202, 0.13363031, -0.46079412, 2.43001186, 4.05524075, -1.74257644, -1.56431878, -0.04527608, 1.12888216, 4.33056146, 0.16414293, 1.86694689, -2.29453179, -0.10202259, -3.14063434, -1.80986218, 0.31183192, -0.87538329, -1.28359116, -1.45785534, -0.93446601, -0.74349156, -0.59101556, -0.49154273, -0.83193149, -0.88612931, -0.79227454, 0.68191000, 1.27632001, 1.64428811, 1.87073002, 2.02640884, 0.82536846, 1.98290951, 2.11297030, 0.84487758, 0.82536846, },
		 {0.77028691, 0.92412099, 1.34265464, 1.51026490, 1.50764087, -0.33481143, -0.12257504, -0.13878029, -0.33585693, -0.49790935, 1.08652775, 0.47082019, 0.26375421, 0.29199048, 0.51082158, 0.02581247, -1.56338883, -2.12071290, -2.31660403, -1.99563687, 0.44174357, 0.59213594, 0.47218012, 0.43338843, 0.44711472, 0.61835595, 0.89992024, 1.15306372, 1.34341705, 1.47758970, 0.97911500, 0.76682571, 0.56868904, 0.39885761, 0.20072094, -0.37119081, -0.87842790, -1.18407076, -0.97597349, -0.97597349, },
		 {-2.17289684, -2.37986763, -2.24440180, -0.83595078, 0.92936906, 0.83719345, -0.84919716, -1.35521890, -0.73001022, -0.39545040, 0.62062930, -0.68216084, -1.24061152, -0.81628312, 1.02142746, 0.35045834, 0.08467178, 0.79374250, 2.22567909, 1.24622342, -1.49306625, -1.42861237, -1.06635773, -0.51193505, -0.20756954, -1.70917610, -1.69876616, -1.47668728, -0.82201725, -0.68487033, -0.62013098, -0.26631550, 0.20072094, 1.02157286, 1.72920383, 2.24303109, 2.11297030, 2.15849157, 3.13394751, 3.71922107, },
		 {0.13527033, -0.54927491, -0.86022311, -0.18814203, -0.99142488, -0.22607949, -0.77967145, -0.27364972, 0.42213017, 0.48172364, -0.24136129, -0.27587228, -0.75824190, -0.51039019, 0.64729688, 0.30539418, 0.83144924, 1.03561746, 1.17540832, 0.83236892, -0.82704288, -0.92969164, -0.74766913, -0.96669294, -1.01204937, -0.78830885, -0.72452727, -0.65397096, -0.69610646, -0.78913504, -1.79479839, -2.03539292, -2.17691911, -2.17691911, -2.14861388, -1.34664675, -1.31413155, -0.98897957, -0.33867562, 0.02549460, },
		 {-0.24587081, -1.03570548, -0.24127875, -1.29351696, -0.97535266, 0.79798722, -0.25117148, -0.16334952, 0.09750259, 0.73473450, -0.89079550, -0.95197409, -0.33548219, 0.30924598, -1.09550846, 0.31826965, 0.28700065, 0.90134467, 1.46786550, 1.00618781, -0.86046341, -0.82704288, -0.97922564, -1.06456734, -1.00071027, -0.76814990, -0.79557929, -0.75575711, -0.82366962, -0.89819163, -1.86556149, -2.06369816, -2.14861388, -2.23352959, -2.23352959, -1.23609507, -1.07351909, -0.71585191, -0.16309355, -0.01352364, },
		 {0.09984586, 0.02834089, -0.44136145, -0.55911504, -0.37313653, 0.07920635, -0.10950630, -0.38238166, -0.05252658, 0.31235273, -0.66333666, -0.30724592, -0.00449035, -0.24998904, 0.12335720, 0.53991173, 0.77626864, 1.08252097, 1.15057705, 1.00066975, -0.89448073, -0.95057947, -0.78288004, -0.89448073, -0.98758077, -0.57432660, -0.59960790, -0.56226428, -0.50079602, -0.61018308, -1.65327220, -1.85140887, -2.07785078, -2.14861388, -2.12030864, -1.07351909, -1.07351909, -0.74186407, -0.50125160, 0.05800980, },
		 {-0.25439893, -0.93763216, -0.48269001, -0.67162056, -1.07998608, -0.82828717, -1.47074658, -0.32331094, 0.47335964, 0.42160742, -0.82647955, -0.57000010, -0.16135852, 0.49827212, 0.20335997, 0.53347400, 1.37129945, 1.67387308, 1.63340730, 1.23242827, -1.19765266, -1.01682373, -0.89149676, -0.89567432, -1.01025899, -0.86448323, -0.76550611, -0.67065992, -0.80185831, -0.83226196, -2.26183483, -2.43166626, -2.50242936, -2.43166626, -2.37505579, -1.54173793, -1.26861027, -0.53376680, 0.16205843, 0.28561618, },
		 {0.06474938, 0.18348699, -0.68736478, -0.23471866, -0.25407092, 0.06875135, -0.11943855, -0.57423081, 0.20989378, 0.17434680, -0.33940389, 0.05982560, -0.23038052, -0.32999180, 0.13982836, 0.63831714, 0.83420827, 0.90870208, 0.94364980, 0.71648966, -0.85926982, -0.92909485, -0.85867302, -0.81689737, -0.98041923, -0.52839064, -0.53483489, -0.48245468, -0.49104702, -0.55763763, -1.69573006, -1.90801935, -2.10615602, -2.16276650, -2.12030864, -0.91094310, -0.84591270, -0.87842790, -0.25413610, -0.04603884, },
